digraph Tree {
node [shape=box] ;
0 [label="ProductsUsed <= 12.5\ngini = 0.434\nsamples = 120016\nvalue = [81858, 38158]"] ;
1 [label="ProductsUsed <= 7.5\ngini = 0.347\nsamples = 73120\nvalue = [56773, 16347]"] ;
0 -> 1 [labeldistance=2.5, labelangle=45, headlabel="True"] ;
2 [label="ProductsUsed <= 3.5\ngini = 0.261\nsamples = 31929\nvalue = [27009, 4920]"] ;
1 -> 2 ;
3 [label="totalBilled <= 279.936\ngini = 0.163\nsamples = 7380\nvalue = [6719, 661]"] ;
2 -> 3 ;
4 [label="customer_age <= 23.5\ngini = 0.483\nsamples = 66\nvalue = [27, 39]"] ;
3 -> 4 ;
5 [label="gini = 0.495\nsamples = 20\nvalue = [11, 9]"] ;
4 -> 5 ;
6 [label="totalBilled <= 9.245\ngini = 0.454\nsamples = 46\nvalue = [16, 30]"] ;
4 -> 6 ;
7 [label="gini = 0.363\nsamples = 21\nvalue = [5, 16]"] ;
6 -> 7 ;
8 [label="gini = 0.493\nsamples = 25\nvalue = [11, 14]"] ;
6 -> 8 ;
9 [label="ProductsUsed <= 2.5\ngini = 0.156\nsamples = 7314\nvalue = [6692, 622]"] ;
3 -> 9 ;
10 [label="ProductsUsed <= 1.5\ngini = 0.116\nsamples = 3931\nvalue = [3687, 244]"] ;
9 -> 10 ;
11 [label="customer_age <= 113.5\ngini = 0.089\nsamples = 1406\nvalue = [1340, 66]"] ;
10 -> 11 ;
12 [label="Geo_Code <= 2.5\ngini = 0.084\nsamples = 1382\nvalue = [1321, 61]"] ;
11 -> 12 ;
13 [label="customer_age <= 45.5\ngini = 0.094\nsamples = 1229\nvalue = [1168, 61]"] ;
12 -> 13 ;
14 [label="customer_age <= 40.5\ngini = 0.112\nsamples = 838\nvalue = [788, 50]"] ;
13 -> 14 ;
15 [label="gini = 0.104\nsamples = 801\nvalue = [757, 44]"] ;
14 -> 15 ;
16 [label="gini = 0.272\nsamples = 37\nvalue = [31, 6]"] ;
14 -> 16 ;
17 [label="customer_age <= 67.5\ngini = 0.055\nsamples = 391\nvalue = [380, 11]"] ;
13 -> 17 ;
18 [label="gini = 0.021\nsamples = 283\nvalue = [280, 3]"] ;
17 -> 18 ;
19 [label="gini = 0.137\nsamples = 108\nvalue = [100, 8]"] ;
17 -> 19 ;
20 [label="gini = 0.0\nsamples = 153\nvalue = [153, 0]"] ;
12 -> 20 ;
21 [label="gini = 0.33\nsamples = 24\nvalue = [19, 5]"] ;
11 -> 21 ;
22 [label="totalBilled <= 1572.762\ngini = 0.131\nsamples = 2525\nvalue = [2347, 178]"] ;
10 -> 22 ;
23 [label="customer_age <= 2.5\ngini = 0.095\nsamples = 1195\nvalue = [1135, 60]"] ;
22 -> 23 ;
24 [label="totalBilled <= 1102.867\ngini = 0.015\nsamples = 131\nvalue = [130, 1]"] ;
23 -> 24 ;
25 [label="gini = 0.087\nsamples = 22\nvalue = [21, 1]"] ;
24 -> 25 ;
26 [label="gini = 0.0\nsamples = 109\nvalue = [109, 0]"] ;
24 -> 26 ;
27 [label="customer_age <= 84.5\ngini = 0.105\nsamples = 1064\nvalue = [1005, 59]"] ;
23 -> 27 ;
28 [label="totalBilled <= 1358.278\ngini = 0.113\nsamples = 965\nvalue = [907, 58]"] ;
27 -> 28 ;
29 [label="gini = 0.127\nsamples = 706\nvalue = [658, 48]"] ;
28 -> 29 ;
30 [label="gini = 0.074\nsamples = 259\nvalue = [249, 10]"] ;
28 -> 30 ;
31 [label="totalBilled <= 1393.331\ngini = 0.02\nsamples = 99\nvalue = [98, 1]"] ;
27 -> 31 ;
32 [label="gini = 0.0\nsamples = 72\nvalue = [72, 0]"] ;
31 -> 32 ;
33 [label="gini = 0.071\nsamples = 27\nvalue = [26, 1]"] ;
31 -> 33 ;
34 [label="totalBilled <= 1586.746\ngini = 0.162\nsamples = 1330\nvalue = [1212, 118]"] ;
22 -> 34 ;
35 [label="gini = 0.375\nsamples = 20\nvalue = [15, 5]"] ;
34 -> 35 ;
36 [label="Geo_Code <= 1.5\ngini = 0.158\nsamples = 1310\nvalue = [1197, 113]"] ;
34 -> 36 ;
37 [label="customer_age <= 14.5\ngini = 0.182\nsamples = 789\nvalue = [709, 80]"] ;
36 -> 37 ;
38 [label="gini = 0.247\nsamples = 263\nvalue = [225, 38]"] ;
37 -> 38 ;
39 [label="gini = 0.147\nsamples = 526\nvalue = [484, 42]"] ;
37 -> 39 ;
40 [label="customer_age <= 40.5\ngini = 0.119\nsamples = 521\nvalue = [488, 33]"] ;
36 -> 40 ;
41 [label="gini = 0.09\nsamples = 424\nvalue = [404, 20]"] ;
40 -> 41 ;
42 [label="gini = 0.232\nsamples = 97\nvalue = [84, 13]"] ;
40 -> 42 ;
43 [label="totalBilled <= 1391.701\ngini = 0.199\nsamples = 3383\nvalue = [3005, 378]"] ;
9 -> 43 ;
44 [label="totalBilled <= 1022.369\ngini = 0.163\nsamples = 1331\nvalue = [1212, 119]"] ;
43 -> 44 ;
45 [label="Geo_Code <= 2.5\ngini = 0.281\nsamples = 130\nvalue = [108, 22]"] ;
44 -> 45 ;
46 [label="totalBilled <= 1014.045\ngini = 0.187\nsamples = 96\nvalue = [86, 10]"] ;
45 -> 46 ;
47 [label="totalBilled <= 1006.046\ngini = 0.053\nsamples = 73\nvalue = [71, 2]"] ;
46 -> 47 ;
48 [label="gini = 0.133\nsamples = 28\nvalue = [26, 2]"] ;
47 -> 48 ;
49 [label="gini = 0.0\nsamples = 45\nvalue = [45, 0]"] ;
47 -> 49 ;
50 [label="gini = 0.454\nsamples = 23\nvalue = [15, 8]"] ;
46 -> 50 ;
51 [label="gini = 0.457\nsamples = 34\nvalue = [22, 12]"] ;
45 -> 51 ;
52 [label="totalBilled <= 1330.565\ngini = 0.148\nsamples = 1201\nvalue = [1104, 97]"] ;
44 -> 52 ;
53 [label="totalBilled <= 1320.49\ngini = 0.158\nsamples = 1052\nvalue = [961, 91]"] ;
52 -> 53 ;
54 [label="customer_age <= 1.5\ngini = 0.15\nsamples = 1028\nvalue = [944, 84]"] ;
53 -> 54 ;
55 [label="gini = 0.033\nsamples = 60\nvalue = [59, 1]"] ;
54 -> 55 ;
56 [label="gini = 0.157\nsamples = 968\nvalue = [885, 83]"] ;
54 -> 56 ;
57 [label="gini = 0.413\nsamples = 24\nvalue = [17, 7]"] ;
53 -> 57 ;
58 [label="totalBilled <= 1360.333\ngini = 0.077\nsamples = 149\nvalue = [143, 6]"] ;
52 -> 58 ;
59 [label="totalBilled <= 1344.841\ngini = 0.028\nsamples = 71\nvalue = [70, 1]"] ;
58 -> 59 ;
60 [label="gini = 0.077\nsamples = 25\nvalue = [24, 1]"] ;
59 -> 60 ;
61 [label="gini = 0.0\nsamples = 46\nvalue = [46, 0]"] ;
59 -> 61 ;
62 [label="customer_age <= 27.5\ngini = 0.12\nsamples = 78\nvalue = [73, 5]"] ;
58 -> 62 ;
63 [label="gini = 0.202\nsamples = 35\nvalue = [31, 4]"] ;
62 -> 63 ;
64 [label="gini = 0.045\nsamples = 43\nvalue = [42, 1]"] ;
62 -> 64 ;
65 [label="totalBilled <= 1399.409\ngini = 0.221\nsamples = 2052\nvalue = [1793, 259]"] ;
43 -> 65 ;
66 [label="gini = 0.434\nsamples = 22\nvalue = [15, 7]"] ;
65 -> 66 ;
67 [label="totalBilled <= 1410.75\ngini = 0.217\nsamples = 2030\nvalue = [1778, 252]"] ;
65 -> 67 ;
68 [label="gini = 0.0\nsamples = 31\nvalue = [31, 0]"] ;
67 -> 68 ;
69 [label="totalBilled <= 1424.456\ngini = 0.22\nsamples = 1999\nvalue = [1747, 252]"] ;
67 -> 69 ;
70 [label="gini = 0.42\nsamples = 30\nvalue = [21, 9]"] ;
69 -> 70 ;
71 [label="customer_age <= 32.5\ngini = 0.216\nsamples = 1969\nvalue = [1726, 243]"] ;
69 -> 71 ;
72 [label="gini = 0.235\nsamples = 1054\nvalue = [911, 143]"] ;
71 -> 72 ;
73 [label="gini = 0.195\nsamples = 915\nvalue = [815, 100]"] ;
71 -> 73 ;
74 [label="totalBilled <= 3851.057\ngini = 0.287\nsamples = 24549\nvalue = [20290, 4259]"] ;
2 -> 74 ;
75 [label="customer_age <= 25.5\ngini = 0.272\nsamples = 20956\nvalue = [17555, 3401]"] ;
74 -> 75 ;
76 [label="ProductsUsed <= 5.5\ngini = 0.303\nsamples = 6943\nvalue = [5652, 1291]"] ;
75 -> 76 ;
77 [label="Geo_Code <= 2.5\ngini = 0.269\nsamples = 3123\nvalue = [2622, 501]"] ;
76 -> 77 ;
78 [label="Geo_Code <= 1.5\ngini = 0.256\nsamples = 2326\nvalue = [1975, 351]"] ;
77 -> 78 ;
79 [label="totalBilled <= 1128.747\ngini = 0.275\nsamples = 1914\nvalue = [1599, 315]"] ;
78 -> 79 ;
80 [label="customer_age <= 21.5\ngini = 0.187\nsamples = 297\nvalue = [266, 31]"] ;
79 -> 80 ;
81 [label="gini = 0.219\nsamples = 240\nvalue = [210, 30]"] ;
80 -> 81 ;
82 [label="gini = 0.034\nsamples = 57\nvalue = [56, 1]"] ;
80 -> 82 ;
83 [label="customer_age <= 21.5\ngini = 0.29\nsamples = 1617\nvalue = [1333, 284]"] ;
79 -> 83 ;
84 [label="gini = 0.278\nsamples = 1373\nvalue = [1144, 229]"] ;
83 -> 84 ;
85 [label="gini = 0.349\nsamples = 244\nvalue = [189, 55]"] ;
83 -> 85 ;
86 [label="totalBilled <= 1081.995\ngini = 0.159\nsamples = 412\nvalue = [376, 36]"] ;
78 -> 86 ;
87 [label="gini = 0.342\nsamples = 32\nvalue = [25, 7]"] ;
86 -> 87 ;
88 [label="totalBilled <= 2894.539\ngini = 0.141\nsamples = 380\nvalue = [351, 29]"] ;
86 -> 88 ;
89 [label="gini = 0.11\nsamples = 309\nvalue = [291, 18]"] ;
88 -> 89 ;
90 [label="gini = 0.262\nsamples = 71\nvalue = [60, 11]"] ;
88 -> 90 ;
91 [label="Geo_Code <= 4.5\ngini = 0.306\nsamples = 797\nvalue = [647, 150]"] ;
77 -> 91 ;
92 [label="customer_age <= 22.5\ngini = 0.327\nsamples = 569\nvalue = [452, 117]"] ;
91 -> 92 ;
93 [label="totalBilled <= 2213.913\ngini = 0.314\nsamples = 503\nvalue = [405, 98]"] ;
92 -> 93 ;
94 [label="gini = 0.3\nsamples = 398\nvalue = [325, 73]"] ;
93 -> 94 ;
95 [label="gini = 0.363\nsamples = 105\nvalue = [80, 25]"] ;
93 -> 95 ;
96 [label="customer_age <= 24.5\ngini = 0.41\nsamples = 66\nvalue = [47, 19]"] ;
92 -> 96 ;
97 [label="gini = 0.454\nsamples = 43\nvalue = [28, 15]"] ;
96 -> 97 ;
98 [label="gini = 0.287\nsamples = 23\nvalue = [19, 4]"] ;
96 -> 98 ;
99 [label="customer_age <= 6.5\ngini = 0.248\nsamples = 228\nvalue = [195, 33]"] ;
91 -> 99 ;
100 [label="customer_age <= 3.5\ngini = 0.366\nsamples = 58\nvalue = [44, 14]"] ;
99 -> 100 ;
101 [label="gini = 0.264\nsamples = 32\nvalue = [27, 5]"] ;
100 -> 101 ;
102 [label="gini = 0.453\nsamples = 26\nvalue = [17, 9]"] ;
100 -> 102 ;
103 [label="ProductsUsed <= 4.5\ngini = 0.199\nsamples = 170\nvalue = [151, 19]"] ;
99 -> 103 ;
104 [label="gini = 0.061\nsamples = 63\nvalue = [61, 2]"] ;
103 -> 104 ;
105 [label="gini = 0.267\nsamples = 107\nvalue = [90, 17]"] ;
103 -> 105 ;
106 [label="Geo_Code <= 1.5\ngini = 0.328\nsamples = 3820\nvalue = [3030, 790]"] ;
76 -> 106 ;
107 [label="totalBilled <= 1684.555\ngini = 0.352\nsamples = 2233\nvalue = [1723, 510]"] ;
106 -> 107 ;
108 [label="totalBilled <= 1042.262\ngini = 0.33\nsamples = 1269\nvalue = [1004, 265]"] ;
107 -> 108 ;
109 [label="ProductsUsed <= 6.5\ngini = 0.423\nsamples = 122\nvalue = [85, 37]"] ;
108 -> 109 ;
110 [label="gini = 0.35\nsamples = 62\nvalue = [48, 14]"] ;
109 -> 110 ;
111 [label="gini = 0.473\nsamples = 60\nvalue = [37, 23]"] ;
109 -> 111 ;
112 [label="totalBilled <= 1084.231\ngini = 0.319\nsamples = 1147\nvalue = [919, 228]"] ;
108 -> 112 ;
113 [label="gini = 0.146\nsamples = 101\nvalue = [93, 8]"] ;
112 -> 113 ;
114 [label="gini = 0.332\nsamples = 1046\nvalue = [826, 220]"] ;
112 -> 114 ;
115 [label="totalBilled <= 2631.062\ngini = 0.379\nsamples = 964\nvalue = [719, 245]"] ;
107 -> 115 ;
116 [label="totalBilled <= 1815.129\ngini = 0.399\nsamples = 679\nvalue = [492, 187]"] ;
115 -> 116 ;
117 [label="gini = 0.438\nsamples = 139\nvalue = [94, 45]"] ;
116 -> 117 ;
118 [label="gini = 0.388\nsamples = 540\nvalue = [398, 142]"] ;
116 -> 118 ;
119 [label="customer_age <= 19.5\ngini = 0.324\nsamples = 285\nvalue = [227, 58]"] ;
115 -> 119 ;
120 [label="gini = 0.285\nsamples = 232\nvalue = [192, 40]"] ;
119 -> 120 ;
121 [label="gini = 0.449\nsamples = 53\nvalue = [35, 18]"] ;
119 -> 121 ;
122 [label="Geo_Code <= 2.5\ngini = 0.291\nsamples = 1587\nvalue = [1307, 280]"] ;
106 -> 122 ;
123 [label="customer_age <= 15.5\ngini = 0.237\nsamples = 430\nvalue = [371, 59]"] ;
122 -> 123 ;
124 [label="ProductsUsed <= 6.5\ngini = 0.266\nsamples = 304\nvalue = [256, 48]"] ;
123 -> 124 ;
125 [label="gini = 0.21\nsamples = 159\nvalue = [140, 19]"] ;
124 -> 125 ;
126 [label="gini = 0.32\nsamples = 145\nvalue = [116, 29]"] ;
124 -> 126 ;
127 [label="totalBilled <= 1386.928\ngini = 0.159\nsamples = 126\nvalue = [115, 11]"] ;
123 -> 127 ;
128 [label="gini = 0.044\nsamples = 44\nvalue = [43, 1]"] ;
127 -> 128 ;
129 [label="gini = 0.214\nsamples = 82\nvalue = [72, 10]"] ;
127 -> 129 ;
130 [label="totalBilled <= 1137.94\ngini = 0.309\nsamples = 1157\nvalue = [936, 221]"] ;
122 -> 130 ;
131 [label="customer_age <= 10.5\ngini = 0.227\nsamples = 192\nvalue = [167, 25]"] ;
130 -> 131 ;
132 [label="gini = 0.323\nsamples = 69\nvalue = [55, 14]"] ;
131 -> 132 ;
133 [label="gini = 0.163\nsamples = 123\nvalue = [112, 11]"] ;
131 -> 133 ;
134 [label="totalBilled <= 1148.956\ngini = 0.324\nsamples = 965\nvalue = [769, 196]"] ;
130 -> 134 ;
135 [label="gini = 0.472\nsamples = 21\nvalue = [13, 8]"] ;
134 -> 135 ;
136 [label="gini = 0.319\nsamples = 944\nvalue = [756, 188]"] ;
134 -> 136 ;
137 [label="totalBilled <= 1627.583\ngini = 0.256\nsamples = 14013\nvalue = [11903, 2110]"] ;
75 -> 137 ;
138 [label="customer_age <= 54.5\ngini = 0.238\nsamples = 7630\nvalue = [6576, 1054]"] ;
137 -> 138 ;
139 [label="ProductsUsed <= 6.5\ngini = 0.26\nsamples = 3691\nvalue = [3124, 567]"] ;
138 -> 139 ;
140 [label="Geo_Code <= 5.5\ngini = 0.24\nsamples = 2668\nvalue = [2296, 372]"] ;
139 -> 140 ;
141 [label="Geo_Code <= 2.5\ngini = 0.25\nsamples = 2465\nvalue = [2104, 361]"] ;
140 -> 141 ;
142 [label="gini = 0.236\nsamples = 2008\nvalue = [1734, 274]"] ;
141 -> 142 ;
143 [label="gini = 0.308\nsamples = 457\nvalue = [370, 87]"] ;
141 -> 143 ;
144 [label="customer_age <= 41.5\ngini = 0.103\nsamples = 203\nvalue = [192, 11]"] ;
140 -> 144 ;
145 [label="gini = 0.048\nsamples = 122\nvalue = [119, 3]"] ;
144 -> 145 ;
146 [label="gini = 0.178\nsamples = 81\nvalue = [73, 8]"] ;
144 -> 146 ;
147 [label="Geo_Code <= 2.5\ngini = 0.309\nsamples = 1023\nvalue = [828, 195]"] ;
139 -> 147 ;
148 [label="totalBilled <= 1257.879\ngini = 0.288\nsamples = 676\nvalue = [558, 118]"] ;
147 -> 148 ;
149 [label="gini = 0.257\nsamples = 337\nvalue = [286, 51]"] ;
148 -> 149 ;
150 [label="gini = 0.317\nsamples = 339\nvalue = [272, 67]"] ;
148 -> 150 ;
151 [label="totalBilled <= 1065.698\ngini = 0.345\nsamples = 347\nvalue = [270, 77]"] ;
147 -> 151 ;
152 [label="gini = 0.424\nsamples = 59\nvalue = [41, 18]"] ;
151 -> 152 ;
153 [label="gini = 0.326\nsamples = 288\nvalue = [229, 59]"] ;
151 -> 153 ;
154 [label="Geo_Code <= 0.5\ngini = 0.217\nsamples = 3939\nvalue = [3452, 487]"] ;
138 -> 154 ;
155 [label="customer_age <= 95.5\ngini = 0.2\nsamples = 2451\nvalue = [2174, 277]"] ;
154 -> 155 ;
156 [label="totalBilled <= 1472.532\ngini = 0.217\nsamples = 1833\nvalue = [1606, 227]"] ;
155 -> 156 ;
157 [label="gini = 0.208\nsamples = 1503\nvalue = [1326, 177]"] ;
156 -> 157 ;
158 [label="gini = 0.257\nsamples = 330\nvalue = [280, 50]"] ;
156 -> 158 ;
159 [label="totalBilled <= 1016.643\ngini = 0.149\nsamples = 618\nvalue = [568, 50]"] ;
155 -> 159 ;
160 [label="gini = 0.0\nsamples = 32\nvalue = [32, 0]"] ;
159 -> 160 ;
161 [label="gini = 0.156\nsamples = 586\nvalue = [536, 50]"] ;
159 -> 161 ;
162 [label="customer_age <= 84.5\ngini = 0.242\nsamples = 1488\nvalue = [1278, 210]"] ;
154 -> 162 ;
163 [label="customer_age <= 81.5\ngini = 0.221\nsamples = 987\nvalue = [862, 125]"] ;
162 -> 163 ;
164 [label="gini = 0.231\nsamples = 923\nvalue = [800, 123]"] ;
163 -> 164 ;
165 [label="gini = 0.061\nsamples = 64\nvalue = [62, 2]"] ;
163 -> 165 ;
166 [label="totalBilled <= 1131.853\ngini = 0.282\nsamples = 501\nvalue = [416, 85]"] ;
162 -> 166 ;
167 [label="gini = 0.206\nsamples = 172\nvalue = [152, 20]"] ;
166 -> 167 ;
168 [label="gini = 0.317\nsamples = 329\nvalue = [264, 65]"] ;
166 -> 168 ;
169 [label="ProductsUsed <= 5.5\ngini = 0.276\nsamples = 6383\nvalue = [5327, 1056]"] ;
137 -> 169 ;
170 [label="Geo_Code <= 2.5\ngini = 0.252\nsamples = 2353\nvalue = [2005, 348]"] ;
169 -> 170 ;
171 [label="customer_age <= 74.5\ngini = 0.236\nsamples = 1811\nvalue = [1564, 247]"] ;
170 -> 171 ;
172 [label="customer_age <= 67.5\ngini = 0.25\nsamples = 1299\nvalue = [1109, 190]"] ;
171 -> 172 ;
173 [label="gini = 0.233\nsamples = 1145\nvalue = [991, 154]"] ;
172 -> 173 ;
174 [label="gini = 0.358\nsamples = 154\nvalue = [118, 36]"] ;
172 -> 174 ;
175 [label="customer_age <= 134.5\ngini = 0.198\nsamples = 512\nvalue = [455, 57]"] ;
171 -> 175 ;
176 [label="gini = 0.183\nsamples = 480\nvalue = [431, 49]"] ;
175 -> 176 ;
177 [label="gini = 0.375\nsamples = 32\nvalue = [24, 8]"] ;
175 -> 177 ;
178 [label="customer_age <= 91.5\ngini = 0.303\nsamples = 542\nvalue = [441, 101]"] ;
170 -> 178 ;
179 [label="customer_age <= 85.5\ngini = 0.328\nsamples = 445\nvalue = [353, 92]"] ;
178 -> 179 ;
180 [label="gini = 0.294\nsamples = 413\nvalue = [339, 74]"] ;
179 -> 180 ;
181 [label="gini = 0.492\nsamples = 32\nvalue = [14, 18]"] ;
179 -> 181 ;
182 [label="customer_age <= 114.5\ngini = 0.168\nsamples = 97\nvalue = [88, 9]"] ;
178 -> 182 ;
183 [label="gini = 0.078\nsamples = 74\nvalue = [71, 3]"] ;
182 -> 183 ;
184 [label="gini = 0.386\nsamples = 23\nvalue = [17, 6]"] ;
182 -> 184 ;
185 [label="customer_age <= 127.5\ngini = 0.29\nsamples = 4030\nvalue = [3322, 708]"] ;
169 -> 185 ;
186 [label="totalBilled <= 3814.62\ngini = 0.292\nsamples = 3944\nvalue = [3244, 700]"] ;
185 -> 186 ;
187 [label="totalBilled <= 3390.466\ngini = 0.293\nsamples = 3917\nvalue = [3218, 699]"] ;
186 -> 187 ;
188 [label="gini = 0.289\nsamples = 3600\nvalue = [2969, 631]"] ;
187 -> 188 ;
189 [label="gini = 0.337\nsamples = 317\nvalue = [249, 68]"] ;
187 -> 189 ;
190 [label="gini = 0.071\nsamples = 27\nvalue = [26, 1]"] ;
186 -> 190 ;
191 [label="totalBilled <= 2979.084\ngini = 0.169\nsamples = 86\nvalue = [78, 8]"] ;
185 -> 191 ;
192 [label="customer_age <= 140.5\ngini = 0.061\nsamples = 64\nvalue = [62, 2]"] ;
191 -> 192 ;
193 [label="gini = 0.0\nsamples = 44\nvalue = [44, 0]"] ;
192 -> 193 ;
194 [label="gini = 0.18\nsamples = 20\nvalue = [18, 2]"] ;
192 -> 194 ;
195 [label="gini = 0.397\nsamples = 22\nvalue = [16, 6]"] ;
191 -> 195 ;
196 [label="ProductsUsed <= 5.5\ngini = 0.364\nsamples = 3593\nvalue = [2735, 858]"] ;
74 -> 196 ;
197 [label="customer_age <= 53.5\ngini = 0.323\nsamples = 1279\nvalue = [1020, 259]"] ;
196 -> 197 ;
198 [label="Geo_Code <= 0.5\ngini = 0.355\nsamples = 867\nvalue = [667, 200]"] ;
197 -> 198 ;
199 [label="totalBilled <= 16405.66\ngini = 0.407\nsamples = 376\nvalue = [269, 107]"] ;
198 -> 199 ;
200 [label="customer_age <= 23.5\ngini = 0.396\nsamples = 353\nvalue = [257, 96]"] ;
199 -> 200 ;
201 [label="customer_age <= 16.5\ngini = 0.347\nsamples = 130\nvalue = [101, 29]"] ;
200 -> 201 ;
202 [label="gini = 0.394\nsamples = 89\nvalue = [65, 24]"] ;
201 -> 202 ;
203 [label="gini = 0.214\nsamples = 41\nvalue = [36, 5]"] ;
201 -> 203 ;
204 [label="customer_age <= 28.5\ngini = 0.42\nsamples = 223\nvalue = [156, 67]"] ;
200 -> 204 ;
205 [label="gini = 0.498\nsamples = 34\nvalue = [18, 16]"] ;
204 -> 205 ;
206 [label="gini = 0.394\nsamples = 189\nvalue = [138, 51]"] ;
204 -> 206 ;
207 [label="gini = 0.499\nsamples = 23\nvalue = [12, 11]"] ;
199 -> 207 ;
208 [label="totalBilled <= 4015.042\ngini = 0.307\nsamples = 491\nvalue = [398, 93]"] ;
198 -> 208 ;
209 [label="gini = 0.432\nsamples = 38\nvalue = [26, 12]"] ;
208 -> 209 ;
210 [label="customer_age <= 19.5\ngini = 0.294\nsamples = 453\nvalue = [372, 81]"] ;
208 -> 210 ;
211 [label="totalBilled <= 4191.642\ngini = 0.328\nsamples = 276\nvalue = [219, 57]"] ;
210 -> 211 ;
212 [label="gini = 0.095\nsamples = 20\nvalue = [19, 1]"] ;
211 -> 212 ;
213 [label="gini = 0.342\nsamples = 256\nvalue = [200, 56]"] ;
211 -> 213 ;
214 [label="customer_age <= 35.5\ngini = 0.234\nsamples = 177\nvalue = [153, 24]"] ;
210 -> 214 ;
215 [label="gini = 0.078\nsamples = 98\nvalue = [94, 4]"] ;
214 -> 215 ;
216 [label="gini = 0.378\nsamples = 79\nvalue = [59, 20]"] ;
214 -> 216 ;
217 [label="ProductsUsed <= 4.5\ngini = 0.245\nsamples = 412\nvalue = [353, 59]"] ;
197 -> 217 ;
218 [label="customer_age <= 68.5\ngini = 0.168\nsamples = 173\nvalue = [157, 16]"] ;
217 -> 218 ;
219 [label="customer_age <= 57.5\ngini = 0.254\nsamples = 67\nvalue = [57, 10]"] ;
218 -> 219 ;
220 [label="gini = 0.077\nsamples = 25\nvalue = [24, 1]"] ;
219 -> 220 ;
221 [label="totalBilled <= 6146.736\ngini = 0.337\nsamples = 42\nvalue = [33, 9]"] ;
219 -> 221 ;
222 [label="gini = 0.245\nsamples = 21\nvalue = [18, 3]"] ;
221 -> 222 ;
223 [label="gini = 0.408\nsamples = 21\nvalue = [15, 6]"] ;
221 -> 223 ;
224 [label="customer_age <= 87.5\ngini = 0.107\nsamples = 106\nvalue = [100, 6]"] ;
218 -> 224 ;
225 [label="Geo_Code <= 0.5\ngini = 0.147\nsamples = 50\nvalue = [46, 4]"] ;
224 -> 225 ;
226 [label="gini = 0.231\nsamples = 30\nvalue = [26, 4]"] ;
225 -> 226 ;
227 [label="gini = 0.0\nsamples = 20\nvalue = [20, 0]"] ;
225 -> 227 ;
228 [label="Geo_Code <= 1.5\ngini = 0.069\nsamples = 56\nvalue = [54, 2]"] ;
224 -> 228 ;
229 [label="gini = 0.0\nsamples = 32\nvalue = [32, 0]"] ;
228 -> 229 ;
230 [label="gini = 0.153\nsamples = 24\nvalue = [22, 2]"] ;
228 -> 230 ;
231 [label="customer_age <= 106.5\ngini = 0.295\nsamples = 239\nvalue = [196, 43]"] ;
217 -> 231 ;
232 [label="totalBilled <= 17083.796\ngini = 0.318\nsamples = 217\nvalue = [174, 43]"] ;
231 -> 232 ;
233 [label="totalBilled <= 8803.932\ngini = 0.295\nsamples = 195\nvalue = [160, 35]"] ;
232 -> 233 ;
234 [label="gini = 0.325\nsamples = 152\nvalue = [121, 31]"] ;
233 -> 234 ;
235 [label="gini = 0.169\nsamples = 43\nvalue = [39, 4]"] ;
233 -> 235 ;
236 [label="gini = 0.463\nsamples = 22\nvalue = [14, 8]"] ;
232 -> 236 ;
237 [label="gini = 0.0\nsamples = 22\nvalue = [22, 0]"] ;
231 -> 237 ;
238 [label="totalBilled <= 6813.697\ngini = 0.384\nsamples = 2314\nvalue = [1715, 599]"] ;
196 -> 238 ;
239 [label="customer_age <= 69.5\ngini = 0.358\nsamples = 1457\nvalue = [1117, 340]"] ;
238 -> 239 ;
240 [label="Geo_Code <= 2.5\ngini = 0.375\nsamples = 1106\nvalue = [830, 276]"] ;
239 -> 240 ;
241 [label="Geo_Code <= 1.5\ngini = 0.361\nsamples = 829\nvalue = [633, 196]"] ;
240 -> 241 ;
242 [label="totalBilled <= 3925.068\ngini = 0.377\nsamples = 697\nvalue = [521, 176]"] ;
241 -> 242 ;
243 [label="gini = 0.491\nsamples = 30\nvalue = [17, 13]"] ;
242 -> 243 ;
244 [label="gini = 0.369\nsamples = 667\nvalue = [504, 163]"] ;
242 -> 244 ;
245 [label="customer_age <= 37.5\ngini = 0.257\nsamples = 132\nvalue = [112, 20]"] ;
241 -> 245 ;
246 [label="gini = 0.308\nsamples = 105\nvalue = [85, 20]"] ;
245 -> 246 ;
247 [label="gini = 0.0\nsamples = 27\nvalue = [27, 0]"] ;
245 -> 247 ;
248 [label="totalBilled <= 6273.456\ngini = 0.411\nsamples = 277\nvalue = [197, 80]"] ;
240 -> 248 ;
249 [label="totalBilled <= 5895.781\ngini = 0.428\nsamples = 235\nvalue = [162, 73]"] ;
248 -> 249 ;
250 [label="gini = 0.405\nsamples = 209\nvalue = [150, 59]"] ;
249 -> 250 ;
251 [label="gini = 0.497\nsamples = 26\nvalue = [12, 14]"] ;
249 -> 251 ;
252 [label="customer_age <= 36.5\ngini = 0.278\nsamples = 42\nvalue = [35, 7]"] ;
248 -> 252 ;
253 [label="gini = 0.363\nsamples = 21\nvalue = [16, 5]"] ;
252 -> 253 ;
254 [label="gini = 0.172\nsamples = 21\nvalue = [19, 2]"] ;
252 -> 254 ;
255 [label="totalBilled <= 3999.43\ngini = 0.298\nsamples = 351\nvalue = [287, 64]"] ;
239 -> 255 ;
256 [label="gini = 0.43\nsamples = 32\nvalue = [22, 10]"] ;
255 -> 256 ;
257 [label="totalBilled <= 4402.613\ngini = 0.281\nsamples = 319\nvalue = [265, 54]"] ;
255 -> 257 ;
258 [label="totalBilled <= 4278.264\ngini = 0.182\nsamples = 79\nvalue = [71, 8]"] ;
257 -> 258 ;
259 [label="gini = 0.234\nsamples = 59\nvalue = [51, 8]"] ;
258 -> 259 ;
260 [label="gini = 0.0\nsamples = 20\nvalue = [20, 0]"] ;
258 -> 260 ;
261 [label="Geo_Code <= 1.5\ngini = 0.31\nsamples = 240\nvalue = [194, 46]"] ;
257 -> 261 ;
262 [label="gini = 0.338\nsamples = 181\nvalue = [142, 39]"] ;
261 -> 262 ;
263 [label="gini = 0.209\nsamples = 59\nvalue = [52, 7]"] ;
261 -> 263 ;
264 [label="Geo_Code <= 2.5\ngini = 0.422\nsamples = 857\nvalue = [598, 259]"] ;
238 -> 264 ;
265 [label="Geo_Code <= 1.5\ngini = 0.403\nsamples = 678\nvalue = [488, 190]"] ;
264 -> 265 ;
266 [label="totalBilled <= 8096.31\ngini = 0.425\nsamples = 568\nvalue = [394, 174]"] ;
265 -> 266 ;
267 [label="customer_age <= 10.5\ngini = 0.466\nsamples = 160\nvalue = [101, 59]"] ;
266 -> 267 ;
268 [label="gini = 0.351\nsamples = 22\nvalue = [17, 5]"] ;
267 -> 268 ;
269 [label="gini = 0.476\nsamples = 138\nvalue = [84, 54]"] ;
267 -> 269 ;
270 [label="totalBilled <= 10939.93\ngini = 0.405\nsamples = 408\nvalue = [293, 115]"] ;
266 -> 270 ;
271 [label="gini = 0.337\nsamples = 168\nvalue = [132, 36]"] ;
270 -> 271 ;
272 [label="gini = 0.442\nsamples = 240\nvalue = [161, 79]"] ;
270 -> 272 ;
273 [label="customer_age <= 46.5\ngini = 0.249\nsamples = 110\nvalue = [94, 16]"] ;
265 -> 273 ;
274 [label="totalBilled <= 11824.39\ngini = 0.167\nsamples = 87\nvalue = [79, 8]"] ;
273 -> 274 ;
275 [label="gini = 0.198\nsamples = 63\nvalue = [56, 7]"] ;
274 -> 275 ;
276 [label="gini = 0.08\nsamples = 24\nvalue = [23, 1]"] ;
274 -> 276 ;
277 [label="gini = 0.454\nsamples = 23\nvalue = [15, 8]"] ;
273 -> 277 ;
278 [label="customer_age <= 17.5\ngini = 0.474\nsamples = 179\nvalue = [110, 69]"] ;
264 -> 278 ;
279 [label="Geo_Code <= 4.0\ngini = 0.214\nsamples = 41\nvalue = [36, 5]"] ;
278 -> 279 ;
280 [label="gini = 0.172\nsamples = 21\nvalue = [19, 2]"] ;
279 -> 280 ;
281 [label="gini = 0.255\nsamples = 20\nvalue = [17, 3]"] ;
279 -> 281 ;
282 [label="customer_age <= 84.5\ngini = 0.497\nsamples = 138\nvalue = [74, 64]"] ;
278 -> 282 ;
283 [label="totalBilled <= 8887.883\ngini = 0.5\nsamples = 118\nvalue = [58, 60]"] ;
282 -> 283 ;
284 [label="gini = 0.49\nsamples = 58\nvalue = [33, 25]"] ;
283 -> 284 ;
285 [label="gini = 0.486\nsamples = 60\nvalue = [25, 35]"] ;
283 -> 285 ;
286 [label="gini = 0.32\nsamples = 20\nvalue = [16, 4]"] ;
282 -> 286 ;
287 [label="totalBilled <= 3584.075\ngini = 0.401\nsamples = 41191\nvalue = [29764, 11427]"] ;
1 -> 287 ;
288 [label="ProductsUsed <= 10.5\ngini = 0.378\nsamples = 30567\nvalue = [22847, 7720]"] ;
287 -> 288 ;
289 [label="customer_age <= 38.5\ngini = 0.353\nsamples = 19482\nvalue = [15022, 4460]"] ;
288 -> 289 ;
290 [label="Geo_Code <= 5.5\ngini = 0.378\nsamples = 8664\nvalue = [6470, 2194]"] ;
289 -> 290 ;
291 [label="Geo_Code <= 2.5\ngini = 0.387\nsamples = 7523\nvalue = [5547, 1976]"] ;
290 -> 291 ;
292 [label="Geo_Code <= 1.5\ngini = 0.376\nsamples = 5618\nvalue = [4207, 1411]"] ;
291 -> 292 ;
293 [label="customer_age <= 29.5\ngini = 0.385\nsamples = 5076\nvalue = [3757, 1319]"] ;
292 -> 293 ;
294 [label="totalBilled <= 1015.255\ngini = 0.394\nsamples = 3732\nvalue = [2725, 1007]"] ;
293 -> 294 ;
295 [label="gini = 0.469\nsamples = 64\nvalue = [40, 24]"] ;
294 -> 295 ;
296 [label="gini = 0.392\nsamples = 3668\nvalue = [2685, 983]"] ;
294 -> 296 ;
297 [label="totalBilled <= 1441.013\ngini = 0.357\nsamples = 1344\nvalue = [1032, 312]"] ;
293 -> 297 ;
298 [label="gini = 0.307\nsamples = 529\nvalue = [429, 100]"] ;
297 -> 298 ;
299 [label="gini = 0.385\nsamples = 815\nvalue = [603, 212]"] ;
297 -> 299 ;
300 [label="totalBilled <= 3354.329\ngini = 0.282\nsamples = 542\nvalue = [450, 92]"] ;
292 -> 300 ;
301 [label="totalBilled <= 2447.634\ngini = 0.27\nsamples = 516\nvalue = [433, 83]"] ;
300 -> 301 ;
302 [label="gini = 0.297\nsamples = 381\nvalue = [312, 69]"] ;
301 -> 302 ;
303 [label="gini = 0.186\nsamples = 135\nvalue = [121, 14]"] ;
301 -> 303 ;
304 [label="gini = 0.453\nsamples = 26\nvalue = [17, 9]"] ;
300 -> 304 ;
305 [label="customer_age <= 23.5\ngini = 0.417\nsamples = 1905\nvalue = [1340, 565]"] ;
291 -> 305 ;
306 [label="totalBilled <= 2767.909\ngini = 0.394\nsamples = 1109\nvalue = [810, 299]"] ;
305 -> 306 ;
307 [label="ProductsUsed <= 8.5\ngini = 0.378\nsamples = 1001\nvalue = [748, 253]"] ;
306 -> 307 ;
308 [label="gini = 0.339\nsamples = 333\nvalue = [261, 72]"] ;
307 -> 308 ;
309 [label="gini = 0.395\nsamples = 668\nvalue = [487, 181]"] ;
307 -> 309 ;
310 [label="ProductsUsed <= 8.5\ngini = 0.489\nsamples = 108\nvalue = [62, 46]"] ;
306 -> 310 ;
311 [label="gini = 0.426\nsamples = 39\nvalue = [27, 12]"] ;
310 -> 311 ;
312 [label="gini = 0.5\nsamples = 69\nvalue = [35, 34]"] ;
310 -> 312 ;
313 [label="customer_age <= 33.5\ngini = 0.445\nsamples = 796\nvalue = [530, 266]"] ;
305 -> 313 ;
314 [label="ProductsUsed <= 9.5\ngini = 0.461\nsamples = 545\nvalue = [349, 196]"] ;
313 -> 314 ;
315 [label="gini = 0.442\nsamples = 339\nvalue = [227, 112]"] ;
314 -> 315 ;
316 [label="gini = 0.483\nsamples = 206\nvalue = [122, 84]"] ;
314 -> 316 ;
317 [label="totalBilled <= 2630.081\ngini = 0.402\nsamples = 251\nvalue = [181, 70]"] ;
313 -> 317 ;
318 [label="gini = 0.39\nsamples = 215\nvalue = [158, 57]"] ;
317 -> 318 ;
319 [label="gini = 0.461\nsamples = 36\nvalue = [23, 13]"] ;
317 -> 319 ;
320 [label="customer_age <= 5.5\ngini = 0.309\nsamples = 1141\nvalue = [923, 218]"] ;
290 -> 320 ;
321 [label="totalBilled <= 2365.325\ngini = 0.405\nsamples = 117\nvalue = [84, 33]"] ;
320 -> 321 ;
322 [label="totalBilled <= 1707.717\ngini = 0.434\nsamples = 91\nvalue = [62, 29]"] ;
321 -> 322 ;
323 [label="totalBilled <= 1410.235\ngini = 0.396\nsamples = 70\nvalue = [51, 19]"] ;
322 -> 323 ;
324 [label="gini = 0.453\nsamples = 49\nvalue = [32, 17]"] ;
323 -> 324 ;
325 [label="gini = 0.172\nsamples = 21\nvalue = [19, 2]"] ;
323 -> 325 ;
326 [label="gini = 0.499\nsamples = 21\nvalue = [11, 10]"] ;
322 -> 326 ;
327 [label="gini = 0.26\nsamples = 26\nvalue = [22, 4]"] ;
321 -> 327 ;
328 [label="totalBilled <= 2574.094\ngini = 0.296\nsamples = 1024\nvalue = [839, 185]"] ;
320 -> 328 ;
329 [label="customer_age <= 28.5\ngini = 0.285\nsamples = 878\nvalue = [727, 151]"] ;
328 -> 329 ;
330 [label="totalBilled <= 1238.087\ngini = 0.313\nsamples = 624\nvalue = [503, 121]"] ;
329 -> 330 ;
331 [label="gini = 0.367\nsamples = 202\nvalue = [153, 49]"] ;
330 -> 331 ;
332 [label="gini = 0.283\nsamples = 422\nvalue = [350, 72]"] ;
330 -> 332 ;
333 [label="customer_age <= 33.5\ngini = 0.208\nsamples = 254\nvalue = [224, 30]"] ;
329 -> 333 ;
334 [label="gini = 0.165\nsamples = 132\nvalue = [120, 12]"] ;
333 -> 334 ;
335 [label="gini = 0.252\nsamples = 122\nvalue = [104, 18]"] ;
333 -> 335 ;
336 [label="customer_age <= 33.5\ngini = 0.357\nsamples = 146\nvalue = [112, 34]"] ;
328 -> 336 ;
337 [label="totalBilled <= 3079.093\ngini = 0.27\nsamples = 118\nvalue = [99, 19]"] ;
336 -> 337 ;
338 [label="gini = 0.21\nsamples = 67\nvalue = [59, 8]"] ;
337 -> 338 ;
339 [label="gini = 0.338\nsamples = 51\nvalue = [40, 11]"] ;
337 -> 339 ;
340 [label="gini = 0.497\nsamples = 28\nvalue = [13, 15]"] ;
336 -> 340 ;
341 [label="ProductsUsed <= 9.5\ngini = 0.331\nsamples = 10818\nvalue = [8552, 2266]"] ;
289 -> 341 ;
342 [label="totalBilled <= 1716.279\ngini = 0.315\nsamples = 7207\nvalue = [5796, 1411]"] ;
341 -> 342 ;
343 [label="customer_age <= 144.5\ngini = 0.29\nsamples = 3869\nvalue = [3187, 682]"] ;
342 -> 343 ;
344 [label="customer_age <= 118.5\ngini = 0.287\nsamples = 3837\nvalue = [3171, 666]"] ;
343 -> 344 ;
345 [label="Geo_Code <= 0.5\ngini = 0.293\nsamples = 3660\nvalue = [3007, 653]"] ;
344 -> 345 ;
346 [label="gini = 0.271\nsamples = 1974\nvalue = [1655, 319]"] ;
345 -> 346 ;
347 [label="gini = 0.318\nsamples = 1686\nvalue = [1352, 334]"] ;
345 -> 347 ;
348 [label="totalBilled <= 1588.833\ngini = 0.136\nsamples = 177\nvalue = [164, 13]"] ;
344 -> 348 ;
349 [label="gini = 0.098\nsamples = 154\nvalue = [146, 8]"] ;
348 -> 349 ;
350 [label="gini = 0.34\nsamples = 23\nvalue = [18, 5]"] ;
348 -> 350 ;
351 [label="gini = 0.5\nsamples = 32\nvalue = [16, 16]"] ;
343 -> 351 ;
352 [label="customer_age <= 70.5\ngini = 0.341\nsamples = 3338\nvalue = [2609, 729]"] ;
342 -> 352 ;
353 [label="customer_age <= 59.5\ngini = 0.366\nsamples = 1821\nvalue = [1382, 439]"] ;
352 -> 353 ;
354 [label="totalBilled <= 1943.979\ngini = 0.34\nsamples = 1267\nvalue = [992, 275]"] ;
353 -> 354 ;
355 [label="gini = 0.409\nsamples = 265\nvalue = [189, 76]"] ;
354 -> 355 ;
356 [label="gini = 0.318\nsamples = 1002\nvalue = [803, 199]"] ;
354 -> 356 ;
357 [label="Geo_Code <= 0.5\ngini = 0.417\nsamples = 554\nvalue = [390, 164]"] ;
353 -> 357 ;
358 [label="gini = 0.389\nsamples = 310\nvalue = [228, 82]"] ;
357 -> 358 ;
359 [label="gini = 0.446\nsamples = 244\nvalue = [162, 82]"] ;
357 -> 359 ;
360 [label="totalBilled <= 1729.449\ngini = 0.309\nsamples = 1517\nvalue = [1227, 290]"] ;
352 -> 360 ;
361 [label="gini = 0.495\nsamples = 20\nvalue = [11, 9]"] ;
360 -> 361 ;
362 [label="customer_age <= 107.5\ngini = 0.305\nsamples = 1497\nvalue = [1216, 281]"] ;
360 -> 362 ;
363 [label="gini = 0.291\nsamples = 1134\nvalue = [934, 200]"] ;
362 -> 363 ;
364 [label="gini = 0.347\nsamples = 363\nvalue = [282, 81]"] ;
362 -> 364 ;
365 [label="Geo_Code <= 0.5\ngini = 0.361\nsamples = 3611\nvalue = [2756, 855]"] ;
341 -> 365 ;
366 [label="customer_age <= 132.5\ngini = 0.339\nsamples = 1983\nvalue = [1554, 429]"] ;
365 -> 366 ;
367 [label="customer_age <= 122.5\ngini = 0.343\nsamples = 1923\nvalue = [1501, 422]"] ;
366 -> 367 ;
368 [label="totalBilled <= 3310.49\ngini = 0.338\nsamples = 1867\nvalue = [1465, 402]"] ;
367 -> 368 ;
369 [label="gini = 0.334\nsamples = 1799\nvalue = [1418, 381]"] ;
368 -> 369 ;
370 [label="gini = 0.427\nsamples = 68\nvalue = [47, 21]"] ;
368 -> 370 ;
371 [label="totalBilled <= 1459.281\ngini = 0.459\nsamples = 56\nvalue = [36, 20]"] ;
367 -> 371 ;
372 [label="gini = 0.5\nsamples = 20\nvalue = [10, 10]"] ;
371 -> 372 ;
373 [label="gini = 0.401\nsamples = 36\nvalue = [26, 10]"] ;
371 -> 373 ;
374 [label="customer_age <= 143.5\ngini = 0.206\nsamples = 60\nvalue = [53, 7]"] ;
366 -> 374 ;
375 [label="gini = 0.26\nsamples = 39\nvalue = [33, 6]"] ;
374 -> 375 ;
376 [label="gini = 0.091\nsamples = 21\nvalue = [20, 1]"] ;
374 -> 376 ;
377 [label="totalBilled <= 2009.602\ngini = 0.386\nsamples = 1628\nvalue = [1202, 426]"] ;
365 -> 377 ;
378 [label="customer_age <= 116.5\ngini = 0.363\nsamples = 1045\nvalue = [796, 249]"] ;
377 -> 378 ;
379 [label="customer_age <= 110.5\ngini = 0.368\nsamples = 994\nvalue = [752, 242]"] ;
378 -> 379 ;
380 [label="gini = 0.363\nsamples = 973\nvalue = [741, 232]"] ;
379 -> 380 ;
381 [label="gini = 0.499\nsamples = 21\nvalue = [11, 10]"] ;
379 -> 381 ;
382 [label="customer_age <= 124.5\ngini = 0.237\nsamples = 51\nvalue = [44, 7]"] ;
378 -> 382 ;
383 [label="gini = 0.077\nsamples = 25\nvalue = [24, 1]"] ;
382 -> 383 ;
384 [label="gini = 0.355\nsamples = 26\nvalue = [20, 6]"] ;
382 -> 384 ;
385 [label="customer_age <= 63.5\ngini = 0.423\nsamples = 583\nvalue = [406, 177]"] ;
377 -> 385 ;
386 [label="customer_age <= 60.5\ngini = 0.347\nsamples = 291\nvalue = [226, 65]"] ;
385 -> 386 ;
387 [label="gini = 0.368\nsamples = 259\nvalue = [196, 63]"] ;
386 -> 387 ;
388 [label="gini = 0.117\nsamples = 32\nvalue = [30, 2]"] ;
386 -> 388 ;
389 [label="Geo_Code <= 5.5\ngini = 0.473\nsamples = 292\nvalue = [180, 112]"] ;
385 -> 389 ;
390 [label="gini = 0.484\nsamples = 253\nvalue = [149, 104]"] ;
389 -> 390 ;
391 [label="gini = 0.326\nsamples = 39\nvalue = [31, 8]"] ;
389 -> 391 ;
392 [label="customer_age <= 50.5\ngini = 0.415\nsamples = 11085\nvalue = [7825, 3260]"] ;
288 -> 392 ;
393 [label="Geo_Code <= 0.5\ngini = 0.431\nsamples = 6359\nvalue = [4359, 2000]"] ;
392 -> 393 ;
394 [label="customer_age <= 26.5\ngini = 0.417\nsamples = 2839\nvalue = [1997, 842]"] ;
393 -> 394 ;
395 [label="totalBilled <= 2845.621\ngini = 0.442\nsamples = 1256\nvalue = [841, 415]"] ;
394 -> 395 ;
396 [label="totalBilled <= 2519.14\ngini = 0.449\nsamples = 1106\nvalue = [729, 377]"] ;
395 -> 396 ;
397 [label="customer_age <= 24.5\ngini = 0.442\nsamples = 1005\nvalue = [674, 331]"] ;
396 -> 397 ;
398 [label="gini = 0.436\nsamples = 914\nvalue = [621, 293]"] ;
397 -> 398 ;
399 [label="gini = 0.486\nsamples = 91\nvalue = [53, 38]"] ;
397 -> 399 ;
400 [label="totalBilled <= 2602.428\ngini = 0.496\nsamples = 101\nvalue = [55, 46]"] ;
396 -> 400 ;
401 [label="gini = 0.482\nsamples = 37\nvalue = [15, 22]"] ;
400 -> 401 ;
402 [label="gini = 0.469\nsamples = 64\nvalue = [40, 24]"] ;
400 -> 402 ;
403 [label="totalBilled <= 3260.898\ngini = 0.378\nsamples = 150\nvalue = [112, 38]"] ;
395 -> 403 ;
404 [label="totalBilled <= 3130.292\ngini = 0.272\nsamples = 80\nvalue = [67, 13]"] ;
403 -> 404 ;
405 [label="gini = 0.341\nsamples = 55\nvalue = [43, 12]"] ;
404 -> 405 ;
406 [label="gini = 0.077\nsamples = 25\nvalue = [24, 1]"] ;
404 -> 406 ;
407 [label="ProductsUsed <= 11.5\ngini = 0.459\nsamples = 70\nvalue = [45, 25]"] ;
403 -> 407 ;
408 [label="gini = 0.367\nsamples = 33\nvalue = [25, 8]"] ;
407 -> 408 ;
409 [label="gini = 0.497\nsamples = 37\nvalue = [20, 17]"] ;
407 -> 409 ;
410 [label="customer_age <= 41.5\ngini = 0.394\nsamples = 1583\nvalue = [1156, 427]"] ;
394 -> 410 ;
411 [label="customer_age <= 40.5\ngini = 0.367\nsamples = 998\nvalue = [756, 242]"] ;
410 -> 411 ;
412 [label="totalBilled <= 3019.18\ngini = 0.376\nsamples = 948\nvalue = [710, 238]"] ;
411 -> 412 ;
413 [label="gini = 0.389\nsamples = 851\nvalue = [626, 225]"] ;
412 -> 413 ;
414 [label="gini = 0.232\nsamples = 97\nvalue = [84, 13]"] ;
412 -> 414 ;
415 [label="totalBilled <= 1818.385\ngini = 0.147\nsamples = 50\nvalue = [46, 4]"] ;
411 -> 415 ;
416 [label="gini = 0.185\nsamples = 29\nvalue = [26, 3]"] ;
415 -> 416 ;
417 [label="gini = 0.091\nsamples = 21\nvalue = [20, 1]"] ;
415 -> 417 ;
418 [label="totalBilled <= 1231.877\ngini = 0.432\nsamples = 585\nvalue = [400, 185]"] ;
410 -> 418 ;
419 [label="customer_age <= 44.5\ngini = 0.49\nsamples = 114\nvalue = [65, 49]"] ;
418 -> 419 ;
420 [label="gini = 0.497\nsamples = 39\nvalue = [18, 21]"] ;
419 -> 420 ;
421 [label="gini = 0.468\nsamples = 75\nvalue = [47, 28]"] ;
419 -> 421 ;
422 [label="customer_age <= 49.5\ngini = 0.411\nsamples = 471\nvalue = [335, 136]"] ;
418 -> 422 ;
423 [label="gini = 0.393\nsamples = 421\nvalue = [308, 113]"] ;
422 -> 423 ;
424 [label="gini = 0.497\nsamples = 50\nvalue = [27, 23]"] ;
422 -> 424 ;
425 [label="Geo_Code <= 3.5\ngini = 0.442\nsamples = 3520\nvalue = [2362, 1158]"] ;
393 -> 425 ;
426 [label="totalBilled <= 2381.139\ngini = 0.45\nsamples = 2719\nvalue = [1788, 931]"] ;
425 -> 426 ;
427 [label="customer_age <= 9.5\ngini = 0.439\nsamples = 2087\nvalue = [1407, 680]"] ;
426 -> 427 ;
428 [label="totalBilled <= 1760.633\ngini = 0.393\nsamples = 331\nvalue = [242, 89]"] ;
427 -> 428 ;
429 [label="gini = 0.42\nsamples = 237\nvalue = [166, 71]"] ;
428 -> 429 ;
430 [label="gini = 0.31\nsamples = 94\nvalue = [76, 18]"] ;
428 -> 430 ;
431 [label="customer_age <= 18.5\ngini = 0.447\nsamples = 1756\nvalue = [1165, 591]"] ;
427 -> 431 ;
432 [label="gini = 0.476\nsamples = 366\nvalue = [223, 143]"] ;
431 -> 432 ;
433 [label="gini = 0.437\nsamples = 1390\nvalue = [942, 448]"] ;
431 -> 433 ;
434 [label="Geo_Code <= 2.5\ngini = 0.479\nsamples = 632\nvalue = [381, 251]"] ;
426 -> 434 ;
435 [label="customer_age <= 46.5\ngini = 0.439\nsamples = 298\nvalue = [201, 97]"] ;
434 -> 435 ;
436 [label="gini = 0.425\nsamples = 268\nvalue = [186, 82]"] ;
435 -> 436 ;
437 [label="gini = 0.5\nsamples = 30\nvalue = [15, 15]"] ;
435 -> 437 ;
438 [label="totalBilled <= 3025.352\ngini = 0.497\nsamples = 334\nvalue = [180, 154]"] ;
434 -> 438 ;
439 [label="gini = 0.498\nsamples = 216\nvalue = [101, 115]"] ;
438 -> 439 ;
440 [label="gini = 0.443\nsamples = 118\nvalue = [79, 39]"] ;
438 -> 440 ;
441 [label="customer_age <= 45.5\ngini = 0.406\nsamples = 801\nvalue = [574, 227]"] ;
425 -> 441 ;
442 [label="totalBilled <= 1947.293\ngini = 0.415\nsamples = 726\nvalue = [513, 213]"] ;
441 -> 442 ;
443 [label="totalBilled <= 1783.191\ngini = 0.39\nsamples = 463\nvalue = [340, 123]"] ;
442 -> 443 ;
444 [label="gini = 0.4\nsamples = 412\nvalue = [298, 114]"] ;
443 -> 444 ;
445 [label="gini = 0.291\nsamples = 51\nvalue = [42, 9]"] ;
443 -> 445 ;
446 [label="ProductsUsed <= 11.5\ngini = 0.45\nsamples = 263\nvalue = [173, 90]"] ;
442 -> 446 ;
447 [label="gini = 0.409\nsamples = 150\nvalue = [107, 43]"] ;
446 -> 447 ;
448 [label="gini = 0.486\nsamples = 113\nvalue = [66, 47]"] ;
446 -> 448 ;
449 [label="totalBilled <= 1715.831\ngini = 0.304\nsamples = 75\nvalue = [61, 14]"] ;
441 -> 449 ;
450 [label="totalBilled <= 1334.008\ngini = 0.393\nsamples = 41\nvalue = [30, 11]"] ;
449 -> 450 ;
451 [label="gini = 0.42\nsamples = 20\nvalue = [14, 6]"] ;
450 -> 451 ;
452 [label="gini = 0.363\nsamples = 21\nvalue = [16, 5]"] ;
450 -> 452 ;
453 [label="gini = 0.161\nsamples = 34\nvalue = [31, 3]"] ;
449 -> 453 ;
454 [label="totalBilled <= 2376.718\ngini = 0.391\nsamples = 4726\nvalue = [3466, 1260]"] ;
392 -> 454 ;
455 [label="customer_age <= 68.5\ngini = 0.38\nsamples = 3436\nvalue = [2558, 878]"] ;
454 -> 455 ;
456 [label="customer_age <= 53.5\ngini = 0.402\nsamples = 1380\nvalue = [995, 385]"] ;
455 -> 456 ;
457 [label="totalBilled <= 1923.669\ngini = 0.347\nsamples = 255\nvalue = [198, 57]"] ;
456 -> 457 ;
458 [label="totalBilled <= 1769.097\ngini = 0.311\nsamples = 192\nvalue = [155, 37]"] ;
457 -> 458 ;
459 [label="gini = 0.335\nsamples = 169\nvalue = [133, 36]"] ;
458 -> 459 ;
460 [label="gini = 0.083\nsamples = 23\nvalue = [22, 1]"] ;
458 -> 460 ;
461 [label="totalBilled <= 2067.375\ngini = 0.433\nsamples = 63\nvalue = [43, 20]"] ;
457 -> 461 ;
462 [label="gini = 0.495\nsamples = 20\nvalue = [11, 9]"] ;
461 -> 462 ;
463 [label="gini = 0.381\nsamples = 43\nvalue = [32, 11]"] ;
461 -> 463 ;
464 [label="Geo_Code <= 0.5\ngini = 0.413\nsamples = 1125\nvalue = [797, 328]"] ;
456 -> 464 ;
465 [label="totalBilled <= 1064.567\ngini = 0.387\nsamples = 624\nvalue = [460, 164]"] ;
464 -> 465 ;
466 [label="gini = 0.492\nsamples = 48\nvalue = [27, 21]"] ;
465 -> 466 ;
467 [label="gini = 0.373\nsamples = 576\nvalue = [433, 143]"] ;
465 -> 467 ;
468 [label="totalBilled <= 1109.256\ngini = 0.44\nsamples = 501\nvalue = [337, 164]"] ;
464 -> 468 ;
469 [label="gini = 0.346\nsamples = 63\nvalue = [49, 14]"] ;
468 -> 469 ;
470 [label="gini = 0.45\nsamples = 438\nvalue = [288, 150]"] ;
468 -> 470 ;
471 [label="totalBilled <= 1018.314\ngini = 0.365\nsamples = 2056\nvalue = [1563, 493]"] ;
455 -> 471 ;
472 [label="ProductsUsed <= 11.5\ngini = 0.226\nsamples = 54\nvalue = [47, 7]"] ;
471 -> 472 ;
473 [label="gini = 0.067\nsamples = 29\nvalue = [28, 1]"] ;
472 -> 473 ;
474 [label="gini = 0.365\nsamples = 25\nvalue = [19, 6]"] ;
472 -> 474 ;
475 [label="totalBilled <= 1757.094\ngini = 0.368\nsamples = 2002\nvalue = [1516, 486]"] ;
471 -> 475 ;
476 [label="totalBilled <= 1739.492\ngini = 0.38\nsamples = 1334\nvalue = [994, 340]"] ;
475 -> 476 ;
477 [label="gini = 0.374\nsamples = 1309\nvalue = [983, 326]"] ;
476 -> 477 ;
478 [label="gini = 0.493\nsamples = 25\nvalue = [11, 14]"] ;
476 -> 478 ;
479 [label="totalBilled <= 2120.455\ngini = 0.342\nsamples = 668\nvalue = [522, 146]"] ;
475 -> 479 ;
480 [label="gini = 0.298\nsamples = 428\nvalue = [350, 78]"] ;
479 -> 480 ;
481 [label="gini = 0.406\nsamples = 240\nvalue = [172, 68]"] ;
479 -> 481 ;
482 [label="totalBilled <= 2388.258\ngini = 0.417\nsamples = 1290\nvalue = [908, 382]"] ;
454 -> 482 ;
483 [label="gini = 0.494\nsamples = 27\nvalue = [12, 15]"] ;
482 -> 483 ;
484 [label="totalBilled <= 3561.279\ngini = 0.412\nsamples = 1263\nvalue = [896, 367]"] ;
482 -> 484 ;
485 [label="totalBilled <= 3539.463\ngini = 0.416\nsamples = 1238\nvalue = [872, 366]"] ;
484 -> 485 ;
486 [label="totalBilled <= 3507.859\ngini = 0.414\nsamples = 1218\nvalue = [862, 356]"] ;
485 -> 486 ;
487 [label="gini = 0.417\nsamples = 1198\nvalue = [843, 355]"] ;
486 -> 487 ;
488 [label="gini = 0.095\nsamples = 20\nvalue = [19, 1]"] ;
486 -> 488 ;
489 [label="gini = 0.5\nsamples = 20\nvalue = [10, 10]"] ;
485 -> 489 ;
490 [label="gini = 0.077\nsamples = 25\nvalue = [24, 1]"] ;
484 -> 490 ;
491 [label="totalBilled <= 12452.644\ngini = 0.454\nsamples = 10624\nvalue = [6917, 3707]"] ;
287 -> 491 ;
492 [label="customer_age <= 75.5\ngini = 0.445\nsamples = 9117\nvalue = [6071, 3046]"] ;
491 -> 492 ;
493 [label="ProductsUsed <= 9.5\ngini = 0.454\nsamples = 7011\nvalue = [4563, 2448]"] ;
492 -> 493 ;
494 [label="totalBilled <= 10989.245\ngini = 0.431\nsamples = 2569\nvalue = [1763, 806]"] ;
493 -> 494 ;
495 [label="Geo_Code <= 2.5\ngini = 0.434\nsamples = 2472\nvalue = [1684, 788]"] ;
494 -> 495 ;
496 [label="Geo_Code <= 1.5\ngini = 0.425\nsamples = 1825\nvalue = [1267, 558]"] ;
495 -> 496 ;
497 [label="totalBilled <= 10528.19\ngini = 0.441\nsamples = 1581\nvalue = [1063, 518]"] ;
496 -> 497 ;
498 [label="gini = 0.438\nsamples = 1559\nvalue = [1053, 506]"] ;
497 -> 498 ;
499 [label="gini = 0.496\nsamples = 22\nvalue = [10, 12]"] ;
497 -> 499 ;
500 [label="customer_age <= 35.5\ngini = 0.274\nsamples = 244\nvalue = [204, 40]"] ;
496 -> 500 ;
501 [label="gini = 0.317\nsamples = 177\nvalue = [142, 35]"] ;
500 -> 501 ;
502 [label="gini = 0.138\nsamples = 67\nvalue = [62, 5]"] ;
500 -> 502 ;
503 [label="customer_age <= 12.5\ngini = 0.458\nsamples = 647\nvalue = [417, 230]"] ;
495 -> 503 ;
504 [label="customer_age <= 7.5\ngini = 0.498\nsamples = 89\nvalue = [47, 42]"] ;
503 -> 504 ;
505 [label="gini = 0.454\nsamples = 46\nvalue = [30, 16]"] ;
504 -> 505 ;
506 [label="gini = 0.478\nsamples = 43\nvalue = [17, 26]"] ;
504 -> 506 ;
507 [label="Geo_Code <= 4.0\ngini = 0.447\nsamples = 558\nvalue = [370, 188]"] ;
503 -> 507 ;
508 [label="gini = 0.468\nsamples = 372\nvalue = [233, 139]"] ;
507 -> 508 ;
509 [label="gini = 0.388\nsamples = 186\nvalue = [137, 49]"] ;
507 -> 509 ;
510 [label="customer_age <= 56.5\ngini = 0.302\nsamples = 97\nvalue = [79, 18]"] ;
494 -> 510 ;
511 [label="Geo_Code <= 1.5\ngini = 0.375\nsamples = 72\nvalue = [54, 18]"] ;
510 -> 511 ;
512 [label="totalBilled <= 11708.273\ngini = 0.45\nsamples = 41\nvalue = [27, 14]"] ;
511 -> 512 ;
513 [label="gini = 0.363\nsamples = 21\nvalue = [16, 5]"] ;
512 -> 513 ;
514 [label="gini = 0.495\nsamples = 20\nvalue = [11, 9]"] ;
512 -> 514 ;
515 [label="gini = 0.225\nsamples = 31\nvalue = [27, 4]"] ;
511 -> 515 ;
516 [label="gini = 0.0\nsamples = 25\nvalue = [25, 0]"] ;
510 -> 516 ;
517 [label="Geo_Code <= 2.5\ngini = 0.466\nsamples = 4442\nvalue = [2800, 1642]"] ;
493 -> 517 ;
518 [label="Geo_Code <= 1.5\ngini = 0.457\nsamples = 3151\nvalue = [2035, 1116]"] ;
517 -> 518 ;
519 [label="Geo_Code <= 0.5\ngini = 0.467\nsamples = 2866\nvalue = [1799, 1067]"] ;
518 -> 519 ;
520 [label="totalBilled <= 4195.909\ngini = 0.458\nsamples = 2220\nvalue = [1432, 788]"] ;
519 -> 520 ;
521 [label="gini = 0.409\nsamples = 436\nvalue = [311, 125]"] ;
520 -> 521 ;
522 [label="gini = 0.467\nsamples = 1784\nvalue = [1121, 663]"] ;
520 -> 522 ;
523 [label="customer_age <= 18.5\ngini = 0.491\nsamples = 646\nvalue = [367, 279]"] ;
519 -> 523 ;
524 [label="gini = 0.449\nsamples = 176\nvalue = [116, 60]"] ;
523 -> 524 ;
525 [label="gini = 0.498\nsamples = 470\nvalue = [251, 219]"] ;
523 -> 525 ;
526 [label="customer_age <= 12.5\ngini = 0.285\nsamples = 285\nvalue = [236, 49]"] ;
518 -> 526 ;
527 [label="totalBilled <= 4846.385\ngini = 0.133\nsamples = 84\nvalue = [78, 6]"] ;
526 -> 527 ;
528 [label="gini = 0.264\nsamples = 32\nvalue = [27, 5]"] ;
527 -> 528 ;
529 [label="gini = 0.038\nsamples = 52\nvalue = [51, 1]"] ;
527 -> 529 ;
530 [label="customer_age <= 17.5\ngini = 0.336\nsamples = 201\nvalue = [158, 43]"] ;
526 -> 530 ;
531 [label="gini = 0.469\nsamples = 40\nvalue = [25, 15]"] ;
530 -> 531 ;
532 [label="gini = 0.287\nsamples = 161\nvalue = [133, 28]"] ;
530 -> 532 ;
533 [label="Geo_Code <= 5.5\ngini = 0.483\nsamples = 1291\nvalue = [765, 526]"] ;
517 -> 533 ;
534 [label="totalBilled <= 10363.013\ngini = 0.493\nsamples = 818\nvalue = [456, 362]"] ;
533 -> 534 ;
535 [label="customer_age <= 69.5\ngini = 0.492\nsamples = 775\nvalue = [438, 337]"] ;
534 -> 535 ;
536 [label="gini = 0.494\nsamples = 712\nvalue = [396, 316]"] ;
535 -> 536 ;
537 [label="gini = 0.444\nsamples = 63\nvalue = [42, 21]"] ;
535 -> 537 ;
538 [label="totalBilled <= 11281.08\ngini = 0.487\nsamples = 43\nvalue = [18, 25]"] ;
534 -> 538 ;
539 [label="gini = 0.42\nsamples = 20\nvalue = [6, 14]"] ;
538 -> 539 ;
540 [label="gini = 0.499\nsamples = 23\nvalue = [12, 11]"] ;
538 -> 540 ;
541 [label="customer_age <= 7.5\ngini = 0.453\nsamples = 473\nvalue = [309, 164]"] ;
533 -> 541 ;
542 [label="gini = 0.463\nsamples = 22\nvalue = [8, 14]"] ;
541 -> 542 ;
543 [label="customer_age <= 17.5\ngini = 0.444\nsamples = 451\nvalue = [301, 150]"] ;
541 -> 543 ;
544 [label="gini = 0.334\nsamples = 66\nvalue = [52, 14]"] ;
543 -> 544 ;
545 [label="gini = 0.457\nsamples = 385\nvalue = [249, 136]"] ;
543 -> 545 ;
546 [label="Geo_Code <= 5.5\ngini = 0.407\nsamples = 2106\nvalue = [1508, 598]"] ;
492 -> 546 ;
547 [label="totalBilled <= 5033.512\ngini = 0.414\nsamples = 2003\nvalue = [1416, 587]"] ;
546 -> 547 ;
548 [label="customer_age <= 85.5\ngini = 0.387\nsamples = 799\nvalue = [589, 210]"] ;
547 -> 548 ;
549 [label="ProductsUsed <= 9.5\ngini = 0.333\nsamples = 261\nvalue = [206, 55]"] ;
548 -> 549 ;
550 [label="totalBilled <= 3960.427\ngini = 0.243\nsamples = 99\nvalue = [85, 14]"] ;
549 -> 550 ;
551 [label="gini = 0.056\nsamples = 35\nvalue = [34, 1]"] ;
550 -> 551 ;
552 [label="gini = 0.324\nsamples = 64\nvalue = [51, 13]"] ;
550 -> 552 ;
553 [label="customer_age <= 77.5\ngini = 0.378\nsamples = 162\nvalue = [121, 41]"] ;
549 -> 553 ;
554 [label="gini = 0.257\nsamples = 33\nvalue = [28, 5]"] ;
553 -> 554 ;
555 [label="gini = 0.402\nsamples = 129\nvalue = [93, 36]"] ;
553 -> 555 ;
556 [label="customer_age <= 88.5\ngini = 0.41\nsamples = 538\nvalue = [383, 155]"] ;
548 -> 556 ;
557 [label="totalBilled <= 4358.203\ngini = 0.499\nsamples = 54\nvalue = [28, 26]"] ;
556 -> 557 ;
558 [label="gini = 0.453\nsamples = 26\nvalue = [17, 9]"] ;
557 -> 558 ;
559 [label="gini = 0.477\nsamples = 28\nvalue = [11, 17]"] ;
557 -> 559 ;
560 [label="totalBilled <= 3628.293\ngini = 0.391\nsamples = 484\nvalue = [355, 129]"] ;
556 -> 560 ;
561 [label="gini = 0.493\nsamples = 25\nvalue = [11, 14]"] ;
560 -> 561 ;
562 [label="gini = 0.376\nsamples = 459\nvalue = [344, 115]"] ;
560 -> 562 ;
563 [label="totalBilled <= 5582.455\ngini = 0.43\nsamples = 1204\nvalue = [827, 377]"] ;
547 -> 563 ;
564 [label="customer_age <= 98.5\ngini = 0.472\nsamples = 202\nvalue = [125, 77]"] ;
563 -> 564 ;
565 [label="customer_age <= 87.5\ngini = 0.446\nsamples = 131\nvalue = [87, 44]"] ;
564 -> 565 ;
566 [label="gini = 0.498\nsamples = 60\nvalue = [32, 28]"] ;
565 -> 566 ;
567 [label="gini = 0.349\nsamples = 71\nvalue = [55, 16]"] ;
565 -> 567 ;
568 [label="ProductsUsed <= 9.5\ngini = 0.498\nsamples = 71\nvalue = [38, 33]"] ;
564 -> 568 ;
569 [label="gini = 0.43\nsamples = 32\nvalue = [22, 10]"] ;
568 -> 569 ;
570 [label="gini = 0.484\nsamples = 39\nvalue = [16, 23]"] ;
568 -> 570 ;
571 [label="totalBilled <= 12208.141\ngini = 0.42\nsamples = 1002\nvalue = [702, 300]"] ;
563 -> 571 ;
572 [label="customer_age <= 80.5\ngini = 0.416\nsamples = 982\nvalue = [692, 290]"] ;
571 -> 572 ;
573 [label="gini = 0.361\nsamples = 152\nvalue = [116, 36]"] ;
572 -> 573 ;
574 [label="gini = 0.425\nsamples = 830\nvalue = [576, 254]"] ;
572 -> 574 ;
575 [label="gini = 0.5\nsamples = 20\nvalue = [10, 10]"] ;
571 -> 575 ;
576 [label="customer_age <= 81.5\ngini = 0.191\nsamples = 103\nvalue = [92, 11]"] ;
546 -> 576 ;
577 [label="gini = 0.0\nsamples = 32\nvalue = [32, 0]"] ;
576 -> 577 ;
578 [label="customer_age <= 88.5\ngini = 0.262\nsamples = 71\nvalue = [60, 11]"] ;
576 -> 578 ;
579 [label="gini = 0.42\nsamples = 20\nvalue = [14, 6]"] ;
578 -> 579 ;
580 [label="customer_age <= 98.5\ngini = 0.177\nsamples = 51\nvalue = [46, 5]"] ;
578 -> 580 ;
581 [label="gini = 0.08\nsamples = 24\nvalue = [23, 1]"] ;
580 -> 581 ;
582 [label="gini = 0.252\nsamples = 27\nvalue = [23, 4]"] ;
580 -> 582 ;
583 [label="Geo_Code <= 1.5\ngini = 0.492\nsamples = 1507\nvalue = [846, 661]"] ;
491 -> 583 ;
584 [label="customer_age <= 100.5\ngini = 0.498\nsamples = 1018\nvalue = [540, 478]"] ;
583 -> 584 ;
585 [label="totalBilled <= 38365.105\ngini = 0.5\nsamples = 922\nvalue = [473, 449]"] ;
584 -> 585 ;
586 [label="customer_age <= 47.5\ngini = 0.499\nsamples = 856\nvalue = [449, 407]"] ;
585 -> 586 ;
587 [label="totalBilled <= 20423.315\ngini = 0.5\nsamples = 406\nvalue = [199, 207]"] ;
586 -> 587 ;
588 [label="customer_age <= 44.5\ngini = 0.499\nsamples = 285\nvalue = [150, 135]"] ;
587 -> 588 ;
589 [label="gini = 0.495\nsamples = 258\nvalue = [142, 116]"] ;
588 -> 589 ;
590 [label="gini = 0.417\nsamples = 27\nvalue = [8, 19]"] ;
588 -> 590 ;
591 [label="customer_age <= 32.5\ngini = 0.482\nsamples = 121\nvalue = [49, 72]"] ;
587 -> 591 ;
592 [label="gini = 0.447\nsamples = 80\nvalue = [27, 53]"] ;
591 -> 592 ;
593 [label="gini = 0.497\nsamples = 41\nvalue = [22, 19]"] ;
591 -> 593 ;
594 [label="customer_age <= 81.5\ngini = 0.494\nsamples = 450\nvalue = [250, 200]"] ;
586 -> 594 ;
595 [label="totalBilled <= 14653.13\ngini = 0.486\nsamples = 346\nvalue = [202, 144]"] ;
594 -> 595 ;
596 [label="gini = 0.427\nsamples = 94\nvalue = [65, 29]"] ;
595 -> 596 ;
597 [label="gini = 0.496\nsamples = 252\nvalue = [137, 115]"] ;
595 -> 597 ;
598 [label="totalBilled <= 21431.61\ngini = 0.497\nsamples = 104\nvalue = [48, 56]"] ;
594 -> 598 ;
599 [label="gini = 0.478\nsamples = 81\nvalue = [32, 49]"] ;
598 -> 599 ;
600 [label="gini = 0.423\nsamples = 23\nvalue = [16, 7]"] ;
598 -> 600 ;
601 [label="customer_age <= 64.5\ngini = 0.463\nsamples = 66\nvalue = [24, 42]"] ;
585 -> 601 ;
602 [label="customer_age <= 37.5\ngini = 0.485\nsamples = 41\nvalue = [17, 24]"] ;
601 -> 602 ;
603 [label="gini = 0.444\nsamples = 21\nvalue = [7, 14]"] ;
602 -> 603 ;
604 [label="gini = 0.5\nsamples = 20\nvalue = [10, 10]"] ;
602 -> 604 ;
605 [label="gini = 0.403\nsamples = 25\nvalue = [7, 18]"] ;
601 -> 605 ;
606 [label="totalBilled <= 14237.192\ngini = 0.422\nsamples = 96\nvalue = [67, 29]"] ;
584 -> 606 ;
607 [label="gini = 0.499\nsamples = 23\nvalue = [12, 11]"] ;
606 -> 607 ;
608 [label="totalBilled <= 18071.075\ngini = 0.372\nsamples = 73\nvalue = [55, 18]"] ;
606 -> 608 ;
609 [label="gini = 0.172\nsamples = 21\nvalue = [19, 2]"] ;
608 -> 609 ;
610 [label="totalBilled <= 24681.864\ngini = 0.426\nsamples = 52\nvalue = [36, 16]"] ;
608 -> 610 ;
611 [label="gini = 0.466\nsamples = 27\nvalue = [17, 10]"] ;
610 -> 611 ;
612 [label="gini = 0.365\nsamples = 25\nvalue = [19, 6]"] ;
610 -> 612 ;
613 [label="Geo_Code <= 2.5\ngini = 0.468\nsamples = 489\nvalue = [306, 183]"] ;
583 -> 613 ;
614 [label="totalBilled <= 34505.576\ngini = 0.327\nsamples = 160\nvalue = [127, 33]"] ;
613 -> 614 ;
615 [label="customer_age <= 13.5\ngini = 0.369\nsamples = 127\nvalue = [96, 31]"] ;
614 -> 615 ;
616 [label="gini = 0.493\nsamples = 25\nvalue = [14, 11]"] ;
615 -> 616 ;
617 [label="customer_age <= 47.5\ngini = 0.315\nsamples = 102\nvalue = [82, 20]"] ;
615 -> 617 ;
618 [label="totalBilled <= 19604.795\ngini = 0.252\nsamples = 81\nvalue = [69, 12]"] ;
617 -> 618 ;
619 [label="gini = 0.185\nsamples = 58\nvalue = [52, 6]"] ;
618 -> 619 ;
620 [label="gini = 0.386\nsamples = 23\nvalue = [17, 6]"] ;
618 -> 620 ;
621 [label="gini = 0.472\nsamples = 21\nvalue = [13, 8]"] ;
617 -> 621 ;
622 [label="gini = 0.114\nsamples = 33\nvalue = [31, 2]"] ;
614 -> 622 ;
623 [label="customer_age <= 55.5\ngini = 0.496\nsamples = 329\nvalue = [179, 150]"] ;
613 -> 623 ;
624 [label="totalBilled <= 20145.215\ngini = 0.5\nsamples = 183\nvalue = [89, 94]"] ;
623 -> 624 ;
625 [label="customer_age <= 25.5\ngini = 0.496\nsamples = 117\nvalue = [64, 53]"] ;
624 -> 625 ;
626 [label="customer_age <= 18.5\ngini = 0.467\nsamples = 62\nvalue = [39, 23]"] ;
625 -> 626 ;
627 [label="gini = 0.495\nsamples = 42\nvalue = [23, 19]"] ;
626 -> 627 ;
628 [label="gini = 0.32\nsamples = 20\nvalue = [16, 4]"] ;
626 -> 628 ;
629 [label="customer_age <= 45.0\ngini = 0.496\nsamples = 55\nvalue = [25, 30]"] ;
625 -> 629 ;
630 [label="gini = 0.452\nsamples = 29\nvalue = [10, 19]"] ;
629 -> 630 ;
631 [label="gini = 0.488\nsamples = 26\nvalue = [15, 11]"] ;
629 -> 631 ;
632 [label="totalBilled <= 29104.51\ngini = 0.471\nsamples = 66\nvalue = [25, 41]"] ;
624 -> 632 ;
633 [label="totalBilled <= 24306.62\ngini = 0.408\nsamples = 42\nvalue = [12, 30]"] ;
632 -> 633 ;
634 [label="gini = 0.463\nsamples = 22\nvalue = [8, 14]"] ;
633 -> 634 ;
635 [label="gini = 0.32\nsamples = 20\nvalue = [4, 16]"] ;
633 -> 635 ;
636 [label="gini = 0.497\nsamples = 24\nvalue = [13, 11]"] ;
632 -> 636 ;
637 [label="customer_age <= 105.0\ngini = 0.473\nsamples = 146\nvalue = [90, 56]"] ;
623 -> 637 ;
638 [label="totalBilled <= 18502.668\ngini = 0.453\nsamples = 121\nvalue = [79, 42]"] ;
637 -> 638 ;
639 [label="customer_age <= 71.5\ngini = 0.412\nsamples = 69\nvalue = [49, 20]"] ;
638 -> 639 ;
640 [label="gini = 0.497\nsamples = 28\nvalue = [15, 13]"] ;
639 -> 640 ;
641 [label="gini = 0.283\nsamples = 41\nvalue = [34, 7]"] ;
639 -> 641 ;
642 [label="ProductsUsed <= 10.5\ngini = 0.488\nsamples = 52\nvalue = [30, 22]"] ;
638 -> 642 ;
643 [label="gini = 0.493\nsamples = 25\nvalue = [11, 14]"] ;
642 -> 643 ;
644 [label="gini = 0.417\nsamples = 27\nvalue = [19, 8]"] ;
642 -> 644 ;
645 [label="gini = 0.493\nsamples = 25\nvalue = [11, 14]"] ;
637 -> 645 ;
646 [label="ProductsUsed <= 19.5\ngini = 0.498\nsamples = 46896\nvalue = [25085, 21811]"] ;
0 -> 646 [labeldistance=2.5, labelangle=-45, headlabel="False"] ;
647 [label="totalBilled <= 5003.5\ngini = 0.484\nsamples = 33875\nvalue = [19993, 13882]"] ;
646 -> 647 ;
648 [label="ProductsUsed <= 15.5\ngini = 0.468\nsamples = 23873\nvalue = [14969, 8904]"] ;
647 -> 648 ;
649 [label="Geo_Code <= 0.5\ngini = 0.454\nsamples = 13834\nvalue = [9016, 4818]"] ;
648 -> 649 ;
650 [label="totalBilled <= 1796.977\ngini = 0.439\nsamples = 6637\nvalue = [4482, 2155]"] ;
649 -> 650 ;
651 [label="customer_age <= 35.5\ngini = 0.412\nsamples = 2674\nvalue = [1898, 776]"] ;
650 -> 651 ;
652 [label="ProductsUsed <= 14.5\ngini = 0.439\nsamples = 1059\nvalue = [715, 344]"] ;
651 -> 652 ;
653 [label="customer_age <= 32.5\ngini = 0.426\nsamples = 785\nvalue = [544, 241]"] ;
652 -> 653 ;
654 [label="totalBilled <= 1028.476\ngini = 0.418\nsamples = 686\nvalue = [482, 204]"] ;
653 -> 654 ;
655 [label="gini = 0.484\nsamples = 34\nvalue = [20, 14]"] ;
654 -> 655 ;
656 [label="gini = 0.413\nsamples = 652\nvalue = [462, 190]"] ;
654 -> 656 ;
657 [label="totalBilled <= 1215.176\ngini = 0.468\nsamples = 99\nvalue = [62, 37]"] ;
653 -> 657 ;
658 [label="gini = 0.339\nsamples = 37\nvalue = [29, 8]"] ;
657 -> 658 ;
659 [label="gini = 0.498\nsamples = 62\nvalue = [33, 29]"] ;
657 -> 659 ;
660 [label="totalBilled <= 1052.161\ngini = 0.469\nsamples = 274\nvalue = [171, 103]"] ;
652 -> 660 ;
661 [label="gini = 0.455\nsamples = 20\nvalue = [7, 13]"] ;
660 -> 661 ;
662 [label="totalBilled <= 1693.896\ngini = 0.458\nsamples = 254\nvalue = [164, 90]"] ;
660 -> 662 ;
663 [label="gini = 0.44\nsamples = 229\nvalue = [154, 75]"] ;
662 -> 663 ;
664 [label="gini = 0.48\nsamples = 25\nvalue = [10, 15]"] ;
662 -> 664 ;
665 [label="customer_age <= 40.5\ngini = 0.392\nsamples = 1615\nvalue = [1183, 432]"] ;
651 -> 665 ;
666 [label="totalBilled <= 1100.955\ngini = 0.294\nsamples = 184\nvalue = [151, 33]"] ;
665 -> 666 ;
667 [label="gini = 0.08\nsamples = 24\nvalue = [23, 1]"] ;
666 -> 667 ;
668 [label="totalBilled <= 1286.44\ngini = 0.32\nsamples = 160\nvalue = [128, 32]"] ;
666 -> 668 ;
669 [label="gini = 0.401\nsamples = 54\nvalue = [39, 15]"] ;
668 -> 669 ;
670 [label="gini = 0.269\nsamples = 106\nvalue = [89, 17]"] ;
668 -> 670 ;
671 [label="totalBilled <= 1016.004\ngini = 0.402\nsamples = 1431\nvalue = [1032, 399]"] ;
665 -> 671 ;
672 [label="customer_age <= 70.5\ngini = 0.489\nsamples = 47\nvalue = [27, 20]"] ;
671 -> 672 ;
673 [label="gini = 0.497\nsamples = 26\nvalue = [12, 14]"] ;
672 -> 673 ;
674 [label="gini = 0.408\nsamples = 21\nvalue = [15, 6]"] ;
672 -> 674 ;
675 [label="totalBilled <= 1699.86\ngini = 0.398\nsamples = 1384\nvalue = [1005, 379]"] ;
671 -> 675 ;
676 [label="gini = 0.404\nsamples = 1267\nvalue = [911, 356]"] ;
675 -> 676 ;
677 [label="gini = 0.316\nsamples = 117\nvalue = [94, 23]"] ;
675 -> 677 ;
678 [label="customer_age <= 19.5\ngini = 0.454\nsamples = 3963\nvalue = [2584, 1379]"] ;
650 -> 678 ;
679 [label="totalBilled <= 2869.805\ngini = 0.492\nsamples = 506\nvalue = [285, 221]"] ;
678 -> 679 ;
680 [label="customer_age <= 11.5\ngini = 0.474\nsamples = 264\nvalue = [162, 102]"] ;
679 -> 680 ;
681 [label="customer_age <= 4.5\ngini = 0.412\nsamples = 117\nvalue = [83, 34]"] ;
680 -> 681 ;
682 [label="gini = 0.278\nsamples = 30\nvalue = [25, 5]"] ;
681 -> 682 ;
683 [label="gini = 0.444\nsamples = 87\nvalue = [58, 29]"] ;
681 -> 683 ;
684 [label="totalBilled <= 2393.573\ngini = 0.497\nsamples = 147\nvalue = [79, 68]"] ;
680 -> 684 ;
685 [label="gini = 0.499\nsamples = 101\nvalue = [48, 53]"] ;
684 -> 685 ;
686 [label="gini = 0.44\nsamples = 46\nvalue = [31, 15]"] ;
684 -> 686 ;
687 [label="customer_age <= 7.5\ngini = 0.5\nsamples = 242\nvalue = [123, 119]"] ;
679 -> 687 ;
688 [label="customer_age <= 4.5\ngini = 0.486\nsamples = 60\nvalue = [25, 35]"] ;
687 -> 688 ;
689 [label="gini = 0.497\nsamples = 28\nvalue = [15, 13]"] ;
688 -> 689 ;
690 [label="gini = 0.43\nsamples = 32\nvalue = [10, 22]"] ;
688 -> 690 ;
691 [label="totalBilled <= 4378.042\ngini = 0.497\nsamples = 182\nvalue = [98, 84]"] ;
687 -> 691 ;
692 [label="gini = 0.49\nsamples = 147\nvalue = [84, 63]"] ;
691 -> 692 ;
693 [label="gini = 0.48\nsamples = 35\nvalue = [14, 21]"] ;
691 -> 693 ;
694 [label="ProductsUsed <= 13.5\ngini = 0.446\nsamples = 3457\nvalue = [2299, 1158]"] ;
678 -> 694 ;
695 [label="totalBilled <= 4702.156\ngini = 0.415\nsamples = 1311\nvalue = [925, 386]"] ;
694 -> 695 ;
696 [label="customer_age <= 28.5\ngini = 0.42\nsamples = 1258\nvalue = [880, 378]"] ;
695 -> 696 ;
697 [label="gini = 0.479\nsamples = 123\nvalue = [74, 49]"] ;
696 -> 697 ;
698 [label="gini = 0.412\nsamples = 1135\nvalue = [806, 329]"] ;
696 -> 698 ;
699 [label="customer_age <= 73.0\ngini = 0.256\nsamples = 53\nvalue = [45, 8]"] ;
695 -> 699 ;
700 [label="gini = 0.305\nsamples = 32\nvalue = [26, 6]"] ;
699 -> 700 ;
701 [label="gini = 0.172\nsamples = 21\nvalue = [19, 2]"] ;
699 -> 701 ;
702 [label="customer_age <= 141.5\ngini = 0.461\nsamples = 2146\nvalue = [1374, 772]"] ;
694 -> 702 ;
703 [label="totalBilled <= 1945.971\ngini = 0.462\nsamples = 2125\nvalue = [1354, 771]"] ;
702 -> 703 ;
704 [label="gini = 0.492\nsamples = 177\nvalue = [100, 77]"] ;
703 -> 704 ;
705 [label="gini = 0.459\nsamples = 1948\nvalue = [1254, 694]"] ;
703 -> 705 ;
706 [label="gini = 0.091\nsamples = 21\nvalue = [20, 1]"] ;
702 -> 706 ;
707 [label="Geo_Code <= 3.5\ngini = 0.466\nsamples = 7197\nvalue = [4534, 2663]"] ;
649 -> 707 ;
708 [label="customer_age <= 51.5\ngini = 0.472\nsamples = 5745\nvalue = [3555, 2190]"] ;
707 -> 708 ;
709 [label="totalBilled <= 2471.006\ngini = 0.48\nsamples = 3416\nvalue = [2052, 1364]"] ;
708 -> 709 ;
710 [label="totalBilled <= 1280.966\ngini = 0.474\nsamples = 2286\nvalue = [1405, 881]"] ;
709 -> 710 ;
711 [label="totalBilled <= 1171.046\ngini = 0.487\nsamples = 655\nvalue = [380, 275]"] ;
710 -> 711 ;
712 [label="gini = 0.466\nsamples = 424\nvalue = [267, 157]"] ;
711 -> 712 ;
713 [label="gini = 0.5\nsamples = 231\nvalue = [113, 118]"] ;
711 -> 713 ;
714 [label="totalBilled <= 1354.16\ngini = 0.467\nsamples = 1631\nvalue = [1025, 606]"] ;
710 -> 714 ;
715 [label="gini = 0.394\nsamples = 152\nvalue = [111, 41]"] ;
714 -> 715 ;
716 [label="gini = 0.472\nsamples = 1479\nvalue = [914, 565]"] ;
714 -> 716 ;
717 [label="customer_age <= 10.5\ngini = 0.489\nsamples = 1130\nvalue = [647, 483]"] ;
709 -> 717 ;
718 [label="customer_age <= 3.5\ngini = 0.45\nsamples = 161\nvalue = [106, 55]"] ;
717 -> 718 ;
719 [label="gini = 0.495\nsamples = 31\nvalue = [14, 17]"] ;
718 -> 719 ;
720 [label="gini = 0.414\nsamples = 130\nvalue = [92, 38]"] ;
718 -> 720 ;
721 [label="customer_age <= 29.5\ngini = 0.493\nsamples = 969\nvalue = [541, 428]"] ;
717 -> 721 ;
722 [label="gini = 0.499\nsamples = 408\nvalue = [211, 197]"] ;
721 -> 722 ;
723 [label="gini = 0.484\nsamples = 561\nvalue = [330, 231]"] ;
721 -> 723 ;
724 [label="totalBilled <= 1394.58\ngini = 0.458\nsamples = 2329\nvalue = [1503, 826]"] ;
708 -> 724 ;
725 [label="customer_age <= 86.5\ngini = 0.404\nsamples = 524\nvalue = [377, 147]"] ;
724 -> 725 ;
726 [label="totalBilled <= 1221.908\ngini = 0.384\nsamples = 371\nvalue = [275, 96]"] ;
725 -> 726 ;
727 [label="gini = 0.349\nsamples = 226\nvalue = [175, 51]"] ;
726 -> 727 ;
728 [label="gini = 0.428\nsamples = 145\nvalue = [100, 45]"] ;
726 -> 728 ;
729 [label="customer_age <= 106.5\ngini = 0.444\nsamples = 153\nvalue = [102, 51]"] ;
725 -> 729 ;
730 [label="gini = 0.465\nsamples = 106\nvalue = [67, 39]"] ;
729 -> 730 ;
731 [label="gini = 0.38\nsamples = 47\nvalue = [35, 12]"] ;
729 -> 731 ;
732 [label="customer_age <= 140.5\ngini = 0.469\nsamples = 1805\nvalue = [1126, 679]"] ;
724 -> 732 ;
733 [label="totalBilled <= 2090.385\ngini = 0.468\nsamples = 1779\nvalue = [1116, 663]"] ;
732 -> 733 ;
734 [label="gini = 0.479\nsamples = 694\nvalue = [418, 276]"] ;
733 -> 734 ;
735 [label="gini = 0.459\nsamples = 1085\nvalue = [698, 387]"] ;
733 -> 735 ;
736 [label="gini = 0.473\nsamples = 26\nvalue = [10, 16]"] ;
732 -> 736 ;
737 [label="customer_age <= 88.5\ngini = 0.439\nsamples = 1452\nvalue = [979, 473]"] ;
707 -> 737 ;
738 [label="totalBilled <= 2068.625\ngini = 0.445\nsamples = 1373\nvalue = [915, 458]"] ;
737 -> 738 ;
739 [label="totalBilled <= 1992.085\ngini = 0.424\nsamples = 758\nvalue = [527, 231]"] ;
738 -> 739 ;
740 [label="totalBilled <= 1693.581\ngini = 0.433\nsamples = 711\nvalue = [486, 225]"] ;
739 -> 740 ;
741 [label="gini = 0.415\nsamples = 544\nvalue = [384, 160]"] ;
740 -> 741 ;
742 [label="gini = 0.475\nsamples = 167\nvalue = [102, 65]"] ;
740 -> 742 ;
743 [label="totalBilled <= 2036.852\ngini = 0.223\nsamples = 47\nvalue = [41, 6]"] ;
739 -> 743 ;
744 [label="gini = 0.147\nsamples = 25\nvalue = [23, 2]"] ;
743 -> 744 ;
745 [label="gini = 0.298\nsamples = 22\nvalue = [18, 4]"] ;
743 -> 745 ;
746 [label="customer_age <= 82.5\ngini = 0.466\nsamples = 615\nvalue = [388, 227]"] ;
738 -> 746 ;
747 [label="customer_age <= 61.5\ngini = 0.461\nsamples = 594\nvalue = [380, 214]"] ;
746 -> 747 ;
748 [label="gini = 0.47\nsamples = 512\nvalue = [319, 193]"] ;
747 -> 748 ;
749 [label="gini = 0.381\nsamples = 82\nvalue = [61, 21]"] ;
747 -> 749 ;
750 [label="gini = 0.472\nsamples = 21\nvalue = [8, 13]"] ;
746 -> 750 ;
751 [label="customer_age <= 113.5\ngini = 0.308\nsamples = 79\nvalue = [64, 15]"] ;
737 -> 751 ;
752 [label="ProductsUsed <= 13.5\ngini = 0.212\nsamples = 58\nvalue = [51, 7]"] ;
751 -> 752 ;
753 [label="gini = 0.32\nsamples = 20\nvalue = [16, 4]"] ;
752 -> 753 ;
754 [label="gini = 0.145\nsamples = 38\nvalue = [35, 3]"] ;
752 -> 754 ;
755 [label="gini = 0.472\nsamples = 21\nvalue = [13, 8]"] ;
751 -> 755 ;
756 [label="totalBilled <= 2242.453\ngini = 0.483\nsamples = 10039\nvalue = [5953, 4086]"] ;
648 -> 756 ;
757 [label="customer_age <= 40.5\ngini = 0.473\nsamples = 5259\nvalue = [3236, 2023]"] ;
756 -> 757 ;
758 [label="ProductsUsed <= 17.5\ngini = 0.484\nsamples = 2413\nvalue = [1425, 988]"] ;
757 -> 758 ;
759 [label="Geo_Code <= 0.5\ngini = 0.474\nsamples = 1453\nvalue = [891, 562]"] ;
758 -> 759 ;
760 [label="customer_age <= 35.5\ngini = 0.456\nsamples = 598\nvalue = [388, 210]"] ;
759 -> 760 ;
761 [label="customer_age <= 4.5\ngini = 0.469\nsamples = 475\nvalue = [297, 178]"] ;
760 -> 761 ;
762 [label="gini = 0.305\nsamples = 32\nvalue = [26, 6]"] ;
761 -> 762 ;
763 [label="gini = 0.475\nsamples = 443\nvalue = [271, 172]"] ;
761 -> 763 ;
764 [label="totalBilled <= 1452.125\ngini = 0.385\nsamples = 123\nvalue = [91, 32]"] ;
760 -> 764 ;
765 [label="gini = 0.453\nsamples = 52\nvalue = [34, 18]"] ;
764 -> 765 ;
766 [label="gini = 0.317\nsamples = 71\nvalue = [57, 14]"] ;
764 -> 766 ;
767 [label="customer_age <= 27.5\ngini = 0.484\nsamples = 855\nvalue = [503, 352]"] ;
759 -> 767 ;
768 [label="customer_age <= 24.5\ngini = 0.471\nsamples = 575\nvalue = [357, 218]"] ;
767 -> 768 ;
769 [label="gini = 0.479\nsamples = 510\nvalue = [307, 203]"] ;
768 -> 769 ;
770 [label="gini = 0.355\nsamples = 65\nvalue = [50, 15]"] ;
768 -> 770 ;
771 [label="Geo_Code <= 5.5\ngini = 0.499\nsamples = 280\nvalue = [146, 134]"] ;
767 -> 771 ;
772 [label="gini = 0.498\nsamples = 231\nvalue = [109, 122]"] ;
771 -> 772 ;
773 [label="gini = 0.37\nsamples = 49\nvalue = [37, 12]"] ;
771 -> 773 ;
774 [label="totalBilled <= 1035.811\ngini = 0.494\nsamples = 960\nvalue = [534, 426]"] ;
758 -> 774 ;
775 [label="totalBilled <= 1018.541\ngini = 0.482\nsamples = 42\nvalue = [17, 25]"] ;
774 -> 775 ;
776 [label="gini = 0.5\nsamples = 20\nvalue = [10, 10]"] ;
775 -> 776 ;
777 [label="gini = 0.434\nsamples = 22\nvalue = [7, 15]"] ;
775 -> 777 ;
778 [label="totalBilled <= 1999.193\ngini = 0.492\nsamples = 918\nvalue = [517, 401]"] ;
774 -> 778 ;
779 [label="totalBilled <= 1964.203\ngini = 0.489\nsamples = 814\nvalue = [468, 346]"] ;
778 -> 779 ;
780 [label="gini = 0.491\nsamples = 788\nvalue = [447, 341]"] ;
779 -> 780 ;
781 [label="gini = 0.311\nsamples = 26\nvalue = [21, 5]"] ;
779 -> 781 ;
782 [label="customer_age <= 14.5\ngini = 0.498\nsamples = 104\nvalue = [49, 55]"] ;
778 -> 782 ;
783 [label="gini = 0.417\nsamples = 27\nvalue = [19, 8]"] ;
782 -> 783 ;
784 [label="gini = 0.476\nsamples = 77\nvalue = [30, 47]"] ;
782 -> 784 ;
785 [label="customer_age <= 144.5\ngini = 0.463\nsamples = 2846\nvalue = [1811, 1035]"] ;
757 -> 785 ;
786 [label="customer_age <= 85.5\ngini = 0.461\nsamples = 2826\nvalue = [1806, 1020]"] ;
785 -> 786 ;
787 [label="totalBilled <= 1442.462\ngini = 0.468\nsamples = 2240\nvalue = [1403, 837]"] ;
786 -> 787 ;
788 [label="totalBilled <= 1045.959\ngini = 0.446\nsamples = 970\nvalue = [644, 326]"] ;
787 -> 788 ;
789 [label="gini = 0.496\nsamples = 105\nvalue = [57, 48]"] ;
788 -> 789 ;
790 [label="gini = 0.436\nsamples = 865\nvalue = [587, 278]"] ;
788 -> 790 ;
791 [label="customer_age <= 64.5\ngini = 0.481\nsamples = 1270\nvalue = [759, 511]"] ;
787 -> 791 ;
792 [label="gini = 0.47\nsamples = 846\nvalue = [526, 320]"] ;
791 -> 792 ;
793 [label="gini = 0.495\nsamples = 424\nvalue = [233, 191]"] ;
791 -> 793 ;
794 [label="totalBilled <= 1058.585\ngini = 0.43\nsamples = 586\nvalue = [403, 183]"] ;
786 -> 794 ;
795 [label="gini = 0.493\nsamples = 34\nvalue = [15, 19]"] ;
794 -> 795 ;
796 [label="totalBilled <= 2137.869\ngini = 0.418\nsamples = 552\nvalue = [388, 164]"] ;
794 -> 796 ;
797 [label="gini = 0.431\nsamples = 506\nvalue = [347, 159]"] ;
796 -> 797 ;
798 [label="gini = 0.194\nsamples = 46\nvalue = [41, 5]"] ;
796 -> 798 ;
799 [label="gini = 0.375\nsamples = 20\nvalue = [5, 15]"] ;
785 -> 799 ;
800 [label="Geo_Code <= 0.5\ngini = 0.491\nsamples = 4780\nvalue = [2717, 2063]"] ;
756 -> 800 ;
801 [label="customer_age <= 68.5\ngini = 0.482\nsamples = 2295\nvalue = [1363, 932]"] ;
800 -> 801 ;
802 [label="totalBilled <= 2790.661\ngini = 0.489\nsamples = 1566\nvalue = [897, 669]"] ;
801 -> 802 ;
803 [label="totalBilled <= 2620.063\ngini = 0.467\nsamples = 435\nvalue = [273, 162]"] ;
802 -> 803 ;
804 [label="totalBilled <= 2595.854\ngini = 0.481\nsamples = 322\nvalue = [192, 130]"] ;
803 -> 804 ;
805 [label="gini = 0.471\nsamples = 301\nvalue = [187, 114]"] ;
804 -> 805 ;
806 [label="gini = 0.363\nsamples = 21\nvalue = [5, 16]"] ;
804 -> 806 ;
807 [label="customer_age <= 39.5\ngini = 0.406\nsamples = 113\nvalue = [81, 32]"] ;
803 -> 807 ;
808 [label="gini = 0.259\nsamples = 59\nvalue = [50, 9]"] ;
807 -> 808 ;
809 [label="gini = 0.489\nsamples = 54\nvalue = [31, 23]"] ;
807 -> 809 ;
810 [label="totalBilled <= 3605.964\ngini = 0.495\nsamples = 1131\nvalue = [624, 507]"] ;
802 -> 810 ;
811 [label="totalBilled <= 3568.97\ngini = 0.499\nsamples = 560\nvalue = [291, 269]"] ;
810 -> 811 ;
812 [label="gini = 0.498\nsamples = 540\nvalue = [286, 254]"] ;
811 -> 812 ;
813 [label="gini = 0.375\nsamples = 20\nvalue = [5, 15]"] ;
811 -> 813 ;
814 [label="totalBilled <= 3655.958\ngini = 0.486\nsamples = 571\nvalue = [333, 238]"] ;
810 -> 814 ;
815 [label="gini = 0.32\nsamples = 20\nvalue = [16, 4]"] ;
814 -> 815 ;
816 [label="gini = 0.489\nsamples = 551\nvalue = [317, 234]"] ;
814 -> 816 ;
817 [label="customer_age <= 77.5\ngini = 0.461\nsamples = 729\nvalue = [466, 263]"] ;
801 -> 817 ;
818 [label="totalBilled <= 3727.645\ngini = 0.39\nsamples = 203\nvalue = [149, 54]"] ;
817 -> 818 ;
819 [label="customer_age <= 72.5\ngini = 0.335\nsamples = 122\nvalue = [96, 26]"] ;
818 -> 819 ;
820 [label="gini = 0.403\nsamples = 68\nvalue = [49, 19]"] ;
819 -> 820 ;
821 [label="gini = 0.226\nsamples = 54\nvalue = [47, 7]"] ;
819 -> 821 ;
822 [label="customer_age <= 73.5\ngini = 0.452\nsamples = 81\nvalue = [53, 28]"] ;
818 -> 822 ;
823 [label="gini = 0.38\nsamples = 47\nvalue = [35, 12]"] ;
822 -> 823 ;
824 [label="gini = 0.498\nsamples = 34\nvalue = [18, 16]"] ;
822 -> 824 ;
825 [label="ProductsUsed <= 17.5\ngini = 0.479\nsamples = 526\nvalue = [317, 209]"] ;
817 -> 825 ;
826 [label="totalBilled <= 4545.191\ngini = 0.454\nsamples = 310\nvalue = [202, 108]"] ;
825 -> 826 ;
827 [label="gini = 0.436\nsamples = 259\nvalue = [176, 83]"] ;
826 -> 827 ;
828 [label="gini = 0.5\nsamples = 51\nvalue = [26, 25]"] ;
826 -> 828 ;
829 [label="totalBilled <= 3828.208\ngini = 0.498\nsamples = 216\nvalue = [115, 101]"] ;
825 -> 829 ;
830 [label="gini = 0.498\nsamples = 141\nvalue = [66, 75]"] ;
829 -> 830 ;
831 [label="gini = 0.453\nsamples = 75\nvalue = [49, 26]"] ;
829 -> 831 ;
832 [label="Geo_Code <= 5.5\ngini = 0.496\nsamples = 2485\nvalue = [1354, 1131]"] ;
800 -> 832 ;
833 [label="customer_age <= 9.5\ngini = 0.499\nsamples = 1997\nvalue = [1050, 947]"] ;
832 -> 833 ;
834 [label="totalBilled <= 2825.022\ngini = 0.448\nsamples = 130\nvalue = [86, 44]"] ;
833 -> 834 ;
835 [label="totalBilled <= 2607.806\ngini = 0.499\nsamples = 46\nvalue = [24, 22]"] ;
834 -> 835 ;
836 [label="gini = 0.473\nsamples = 26\nvalue = [16, 10]"] ;
835 -> 836 ;
837 [label="gini = 0.48\nsamples = 20\nvalue = [8, 12]"] ;
835 -> 837 ;
838 [label="totalBilled <= 3834.626\ngini = 0.387\nsamples = 84\nvalue = [62, 22]"] ;
834 -> 838 ;
839 [label="gini = 0.328\nsamples = 58\nvalue = [46, 12]"] ;
838 -> 839 ;
840 [label="gini = 0.473\nsamples = 26\nvalue = [16, 10]"] ;
838 -> 840 ;
841 [label="totalBilled <= 4492.085\ngini = 0.499\nsamples = 1867\nvalue = [964, 903]"] ;
833 -> 841 ;
842 [label="ProductsUsed <= 18.5\ngini = 0.498\nsamples = 1664\nvalue = [879, 785]"] ;
841 -> 842 ;
843 [label="gini = 0.496\nsamples = 1343\nvalue = [728, 615]"] ;
842 -> 843 ;
844 [label="gini = 0.498\nsamples = 321\nvalue = [151, 170]"] ;
842 -> 844 ;
845 [label="totalBilled <= 4942.781\ngini = 0.487\nsamples = 203\nvalue = [85, 118]"] ;
841 -> 845 ;
846 [label="gini = 0.475\nsamples = 178\nvalue = [69, 109]"] ;
845 -> 846 ;
847 [label="gini = 0.461\nsamples = 25\nvalue = [16, 9]"] ;
845 -> 847 ;
848 [label="customer_age <= 92.5\ngini = 0.47\nsamples = 488\nvalue = [304, 184]"] ;
832 -> 848 ;
849 [label="customer_age <= 44.5\ngini = 0.478\nsamples = 456\nvalue = [276, 180]"] ;
848 -> 849 ;
850 [label="customer_age <= 18.5\ngini = 0.457\nsamples = 260\nvalue = [168, 92]"] ;
849 -> 850 ;
851 [label="gini = 0.492\nsamples = 96\nvalue = [54, 42]"] ;
850 -> 851 ;
852 [label="gini = 0.424\nsamples = 164\nvalue = [114, 50]"] ;
850 -> 852 ;
853 [label="customer_age <= 63.5\ngini = 0.495\nsamples = 196\nvalue = [108, 88]"] ;
849 -> 853 ;
854 [label="gini = 0.5\nsamples = 119\nvalue = [59, 60]"] ;
853 -> 854 ;
855 [label="gini = 0.463\nsamples = 77\nvalue = [49, 28]"] ;
853 -> 855 ;
856 [label="gini = 0.219\nsamples = 32\nvalue = [28, 4]"] ;
848 -> 856 ;
857 [label="ProductsUsed <= 16.5\ngini = 0.5\nsamples = 10002\nvalue = [5024, 4978]"] ;
647 -> 857 ;
858 [label="totalBilled <= 10163.205\ngini = 0.496\nsamples = 6142\nvalue = [3340, 2802]"] ;
857 -> 858 ;
859 [label="customer_age <= 77.5\ngini = 0.486\nsamples = 3652\nvalue = [2135, 1517]"] ;
858 -> 859 ;
860 [label="Geo_Code <= 2.5\ngini = 0.492\nsamples = 2742\nvalue = [1545, 1197]"] ;
859 -> 860 ;
861 [label="Geo_Code <= 1.5\ngini = 0.483\nsamples = 1831\nvalue = [1084, 747]"] ;
860 -> 861 ;
862 [label="totalBilled <= 5201.478\ngini = 0.486\nsamples = 1732\nvalue = [1013, 719]"] ;
861 -> 862 ;
863 [label="ProductsUsed <= 15.5\ngini = 0.446\nsamples = 137\nvalue = [91, 46]"] ;
862 -> 863 ;
864 [label="gini = 0.406\nsamples = 106\nvalue = [76, 30]"] ;
863 -> 864 ;
865 [label="gini = 0.499\nsamples = 31\nvalue = [15, 16]"] ;
863 -> 865 ;
866 [label="totalBilled <= 9989.649\ngini = 0.488\nsamples = 1595\nvalue = [922, 673]"] ;
862 -> 866 ;
867 [label="gini = 0.489\nsamples = 1563\nvalue = [898, 665]"] ;
866 -> 867 ;
868 [label="gini = 0.375\nsamples = 32\nvalue = [24, 8]"] ;
866 -> 868 ;
869 [label="totalBilled <= 8418.678\ngini = 0.406\nsamples = 99\nvalue = [71, 28]"] ;
861 -> 869 ;
870 [label="totalBilled <= 6637.829\ngini = 0.355\nsamples = 78\nvalue = [60, 18]"] ;
869 -> 870 ;
871 [label="gini = 0.44\nsamples = 49\nvalue = [33, 16]"] ;
870 -> 871 ;
872 [label="gini = 0.128\nsamples = 29\nvalue = [27, 2]"] ;
870 -> 872 ;
873 [label="gini = 0.499\nsamples = 21\nvalue = [11, 10]"] ;
869 -> 873 ;
874 [label="Geo_Code <= 3.5\ngini = 0.5\nsamples = 911\nvalue = [461, 450]"] ;
860 -> 874 ;
875 [label="customer_age <= 25.5\ngini = 0.495\nsamples = 596\nvalue = [269, 327]"] ;
874 -> 875 ;
876 [label="ProductsUsed <= 15.5\ngini = 0.415\nsamples = 119\nvalue = [35, 84]"] ;
875 -> 876 ;
877 [label="gini = 0.456\nsamples = 91\nvalue = [32, 59]"] ;
876 -> 877 ;
878 [label="gini = 0.191\nsamples = 28\nvalue = [3, 25]"] ;
876 -> 878 ;
879 [label="totalBilled <= 9453.406\ngini = 0.5\nsamples = 477\nvalue = [234, 243]"] ;
875 -> 879 ;
880 [label="gini = 0.498\nsamples = 452\nvalue = [213, 239]"] ;
879 -> 880 ;
881 [label="gini = 0.269\nsamples = 25\nvalue = [21, 4]"] ;
879 -> 881 ;
882 [label="totalBilled <= 6188.625\ngini = 0.476\nsamples = 315\nvalue = [192, 123]"] ;
874 -> 882 ;
883 [label="customer_age <= 24.5\ngini = 0.5\nsamples = 109\nvalue = [53, 56]"] ;
882 -> 883 ;
884 [label="gini = 0.444\nsamples = 39\nvalue = [13, 26]"] ;
883 -> 884 ;
885 [label="gini = 0.49\nsamples = 70\nvalue = [40, 30]"] ;
883 -> 885 ;
886 [label="totalBilled <= 6919.989\ngini = 0.439\nsamples = 206\nvalue = [139, 67]"] ;
882 -> 886 ;
887 [label="gini = 0.325\nsamples = 49\nvalue = [39, 10]"] ;
886 -> 887 ;
888 [label="gini = 0.462\nsamples = 157\nvalue = [100, 57]"] ;
886 -> 888 ;
889 [label="totalBilled <= 5194.932\ngini = 0.456\nsamples = 910\nvalue = [590, 320]"] ;
859 -> 889 ;
890 [label="ProductsUsed <= 13.5\ngini = 0.5\nsamples = 70\nvalue = [35, 35]"] ;
889 -> 890 ;
891 [label="gini = 0.466\nsamples = 27\nvalue = [17, 10]"] ;
890 -> 891 ;
892 [label="customer_age <= 98.5\ngini = 0.487\nsamples = 43\nvalue = [18, 25]"] ;
890 -> 892 ;
893 [label="gini = 0.496\nsamples = 22\nvalue = [10, 12]"] ;
892 -> 893 ;
894 [label="gini = 0.472\nsamples = 21\nvalue = [8, 13]"] ;
892 -> 894 ;
895 [label="totalBilled <= 9446.007\ngini = 0.448\nsamples = 840\nvalue = [555, 285]"] ;
889 -> 895 ;
896 [label="customer_age <= 141.5\ngini = 0.44\nsamples = 775\nvalue = [522, 253]"] ;
895 -> 896 ;
897 [label="ProductsUsed <= 15.5\ngini = 0.444\nsamples = 748\nvalue = [499, 249]"] ;
896 -> 897 ;
898 [label="gini = 0.432\nsamples = 584\nvalue = [400, 184]"] ;
897 -> 898 ;
899 [label="gini = 0.479\nsamples = 164\nvalue = [99, 65]"] ;
897 -> 899 ;
900 [label="gini = 0.252\nsamples = 27\nvalue = [23, 4]"] ;
896 -> 900 ;
901 [label="totalBilled <= 9902.343\ngini = 0.5\nsamples = 65\nvalue = [33, 32]"] ;
895 -> 901 ;
902 [label="totalBilled <= 9611.284\ngini = 0.491\nsamples = 44\nvalue = [19, 25]"] ;
901 -> 902 ;
903 [label="gini = 0.455\nsamples = 20\nvalue = [7, 13]"] ;
902 -> 903 ;
904 [label="gini = 0.5\nsamples = 24\nvalue = [12, 12]"] ;
902 -> 904 ;
905 [label="gini = 0.444\nsamples = 21\nvalue = [14, 7]"] ;
901 -> 905 ;
906 [label="Geo_Code <= 2.5\ngini = 0.499\nsamples = 2490\nvalue = [1205, 1285]"] ;
858 -> 906 ;
907 [label="Geo_Code <= 1.5\ngini = 0.5\nsamples = 1855\nvalue = [935, 920]"] ;
906 -> 907 ;
908 [label="Customer_size <= 0.5\ngini = 0.5\nsamples = 1731\nvalue = [852, 879]"] ;
907 -> 908 ;
909 [label="gini = 0.353\nsamples = 35\nvalue = [8, 27]"] ;
908 -> 909 ;
910 [label="totalBilled <= 10282.28\ngini = 0.5\nsamples = 1696\nvalue = [844, 852]"] ;
908 -> 910 ;
911 [label="gini = 0.287\nsamples = 23\nvalue = [4, 19]"] ;
910 -> 911 ;
912 [label="customer_age <= 35.5\ngini = 0.5\nsamples = 1673\nvalue = [840, 833]"] ;
910 -> 912 ;
913 [label="gini = 0.494\nsamples = 410\nvalue = [183, 227]"] ;
912 -> 913 ;
914 [label="gini = 0.499\nsamples = 1263\nvalue = [657, 606]"] ;
912 -> 914 ;
915 [label="totalBilled <= 11583.19\ngini = 0.443\nsamples = 124\nvalue = [83, 41]"] ;
907 -> 915 ;
916 [label="gini = 0.245\nsamples = 21\nvalue = [18, 3]"] ;
915 -> 916 ;
917 [label="customer_age <= 40.5\ngini = 0.466\nsamples = 103\nvalue = [65, 38]"] ;
915 -> 917 ;
918 [label="customer_age <= 15.5\ngini = 0.496\nsamples = 59\nvalue = [32, 27]"] ;
917 -> 918 ;
919 [label="gini = 0.455\nsamples = 20\nvalue = [13, 7]"] ;
918 -> 919 ;
920 [label="gini = 0.5\nsamples = 39\nvalue = [19, 20]"] ;
918 -> 920 ;
921 [label="totalBilled <= 16869.15\ngini = 0.375\nsamples = 44\nvalue = [33, 11]"] ;
917 -> 921 ;
922 [label="gini = 0.48\nsamples = 20\nvalue = [12, 8]"] ;
921 -> 922 ;
923 [label="gini = 0.219\nsamples = 24\nvalue = [21, 3]"] ;
921 -> 923 ;
924 [label="customer_age <= 50.5\ngini = 0.489\nsamples = 635\nvalue = [270, 365]"] ;
906 -> 924 ;
925 [label="totalBilled <= 29723.39\ngini = 0.457\nsamples = 291\nvalue = [103, 188]"] ;
924 -> 925 ;
926 [label="customer_age <= 28.5\ngini = 0.436\nsamples = 252\nvalue = [81, 171]"] ;
925 -> 926 ;
927 [label="Geo_Code <= 4.0\ngini = 0.49\nsamples = 105\nvalue = [45, 60]"] ;
926 -> 927 ;
928 [label="gini = 0.44\nsamples = 52\nvalue = [17, 35]"] ;
927 -> 928 ;
929 [label="gini = 0.498\nsamples = 53\nvalue = [28, 25]"] ;
927 -> 929 ;
930 [label="totalBilled <= 18685.085\ngini = 0.37\nsamples = 147\nvalue = [36, 111]"] ;
926 -> 930 ;
931 [label="gini = 0.405\nsamples = 110\nvalue = [31, 79]"] ;
930 -> 931 ;
932 [label="gini = 0.234\nsamples = 37\nvalue = [5, 32]"] ;
930 -> 932 ;
933 [label="gini = 0.492\nsamples = 39\nvalue = [22, 17]"] ;
925 -> 933 ;
934 [label="totalBilled <= 18827.045\ngini = 0.5\nsamples = 344\nvalue = [167, 177]"] ;
924 -> 934 ;
935 [label="totalBilled <= 15567.66\ngini = 0.495\nsamples = 222\nvalue = [122, 100]"] ;
934 -> 935 ;
936 [label="totalBilled <= 14590.55\ngini = 0.5\nsamples = 160\nvalue = [81, 79]"] ;
935 -> 936 ;
937 [label="gini = 0.497\nsamples = 140\nvalue = [75, 65]"] ;
936 -> 937 ;
938 [label="gini = 0.42\nsamples = 20\nvalue = [6, 14]"] ;
936 -> 938 ;
939 [label="totalBilled <= 16264.515\ngini = 0.448\nsamples = 62\nvalue = [41, 21]"] ;
935 -> 939 ;
940 [label="gini = 0.308\nsamples = 21\nvalue = [17, 4]"] ;
939 -> 940 ;
941 [label="gini = 0.485\nsamples = 41\nvalue = [24, 17]"] ;
939 -> 941 ;
942 [label="Geo_Code <= 5.5\ngini = 0.466\nsamples = 122\nvalue = [45, 77]"] ;
934 -> 942 ;
943 [label="customer_age <= 82.5\ngini = 0.412\nsamples = 93\nvalue = [27, 66]"] ;
942 -> 943 ;
944 [label="gini = 0.473\nsamples = 52\nvalue = [20, 32]"] ;
943 -> 944 ;
945 [label="gini = 0.283\nsamples = 41\nvalue = [7, 34]"] ;
943 -> 945 ;
946 [label="gini = 0.471\nsamples = 29\nvalue = [18, 11]"] ;
942 -> 946 ;
947 [label="totalBilled <= 11374.825\ngini = 0.492\nsamples = 3860\nvalue = [1684, 2176]"] ;
857 -> 947 ;
948 [label="customer_age <= 49.5\ngini = 0.499\nsamples = 2313\nvalue = [1106, 1207]"] ;
947 -> 948 ;
949 [label="Geo_Code <= 2.5\ngini = 0.49\nsamples = 1026\nvalue = [440, 586]"] ;
948 -> 949 ;
950 [label="customer_age <= 43.5\ngini = 0.498\nsamples = 673\nvalue = [315, 358]"] ;
949 -> 950 ;
951 [label="totalBilled <= 7089.948\ngini = 0.5\nsamples = 553\nvalue = [276, 277]"] ;
950 -> 951 ;
952 [label="totalBilled <= 6752.545\ngini = 0.493\nsamples = 278\nvalue = [123, 155]"] ;
951 -> 952 ;
953 [label="gini = 0.498\nsamples = 237\nvalue = [112, 125]"] ;
952 -> 953 ;
954 [label="gini = 0.393\nsamples = 41\nvalue = [11, 30]"] ;
952 -> 954 ;
955 [label="totalBilled <= 7955.001\ngini = 0.494\nsamples = 275\nvalue = [153, 122]"] ;
951 -> 955 ;
956 [label="gini = 0.447\nsamples = 74\nvalue = [49, 25]"] ;
955 -> 956 ;
957 [label="gini = 0.499\nsamples = 201\nvalue = [104, 97]"] ;
955 -> 957 ;
958 [label="ProductsUsed <= 18.5\ngini = 0.439\nsamples = 120\nvalue = [39, 81]"] ;
950 -> 958 ;
959 [label="customer_age <= 47.5\ngini = 0.471\nsamples = 92\nvalue = [35, 57]"] ;
958 -> 959 ;
960 [label="gini = 0.428\nsamples = 71\nvalue = [22, 49]"] ;
959 -> 960 ;
961 [label="gini = 0.472\nsamples = 21\nvalue = [13, 8]"] ;
959 -> 961 ;
962 [label="gini = 0.245\nsamples = 28\nvalue = [4, 24]"] ;
958 -> 962 ;
963 [label="totalBilled <= 5281.84\ngini = 0.457\nsamples = 353\nvalue = [125, 228]"] ;
949 -> 963 ;
964 [label="gini = 0.466\nsamples = 27\nvalue = [17, 10]"] ;
963 -> 964 ;
965 [label="totalBilled <= 5692.334\ngini = 0.443\nsamples = 326\nvalue = [108, 218]"] ;
963 -> 965 ;
966 [label="customer_age <= 29.5\ngini = 0.491\nsamples = 51\nvalue = [22, 29]"] ;
965 -> 966 ;
967 [label="gini = 0.469\nsamples = 24\nvalue = [15, 9]"] ;
966 -> 967 ;
968 [label="gini = 0.384\nsamples = 27\nvalue = [7, 20]"] ;
966 -> 968 ;
969 [label="customer_age <= 39.5\ngini = 0.43\nsamples = 275\nvalue = [86, 189]"] ;
965 -> 969 ;
970 [label="gini = 0.446\nsamples = 203\nvalue = [68, 135]"] ;
969 -> 970 ;
971 [label="gini = 0.375\nsamples = 72\nvalue = [18, 54]"] ;
969 -> 971 ;
972 [label="customer_age <= 136.5\ngini = 0.499\nsamples = 1287\nvalue = [666, 621]"] ;
948 -> 972 ;
973 [label="customer_age <= 117.5\ngini = 0.5\nsamples = 1259\nvalue = [645, 614]"] ;
972 -> 973 ;
974 [label="customer_age <= 92.5\ngini = 0.499\nsamples = 1183\nvalue = [616, 567]"] ;
973 -> 974 ;
975 [label="customer_age <= 67.5\ngini = 0.5\nsamples = 954\nvalue = [478, 476]"] ;
974 -> 975 ;
976 [label="gini = 0.495\nsamples = 481\nvalue = [265, 216]"] ;
975 -> 976 ;
977 [label="gini = 0.495\nsamples = 473\nvalue = [213, 260]"] ;
975 -> 977 ;
978 [label="totalBilled <= 6483.497\ngini = 0.479\nsamples = 229\nvalue = [138, 91]"] ;
974 -> 978 ;
979 [label="gini = 0.437\nsamples = 90\nvalue = [61, 29]"] ;
978 -> 979 ;
980 [label="gini = 0.494\nsamples = 139\nvalue = [77, 62]"] ;
978 -> 980 ;
981 [label="ProductsUsed <= 18.5\ngini = 0.472\nsamples = 76\nvalue = [29, 47]"] ;
973 -> 981 ;
982 [label="ProductsUsed <= 17.5\ngini = 0.38\nsamples = 51\nvalue = [13, 38]"] ;
981 -> 982 ;
983 [label="gini = 0.477\nsamples = 28\nvalue = [11, 17]"] ;
982 -> 983 ;
984 [label="gini = 0.159\nsamples = 23\nvalue = [2, 21]"] ;
982 -> 984 ;
985 [label="gini = 0.461\nsamples = 25\nvalue = [16, 9]"] ;
981 -> 985 ;
986 [label="gini = 0.375\nsamples = 28\nvalue = [21, 7]"] ;
972 -> 986 ;
987 [label="totalBilled <= 42615.141\ngini = 0.468\nsamples = 1547\nvalue = [578, 969]"] ;
947 -> 987 ;
988 [label="customer_age <= 58.5\ngini = 0.477\nsamples = 1383\nvalue = [542, 841]"] ;
987 -> 988 ;
989 [label="ProductsUsed <= 17.5\ngini = 0.449\nsamples = 677\nvalue = [230, 447]"] ;
988 -> 989 ;
990 [label="totalBilled <= 12440.73\ngini = 0.487\nsamples = 219\nvalue = [92, 127]"] ;
989 -> 990 ;
991 [label="gini = 0.384\nsamples = 27\nvalue = [7, 20]"] ;
990 -> 991 ;
992 [label="totalBilled <= 14054.82\ngini = 0.493\nsamples = 192\nvalue = [85, 107]"] ;
990 -> 992 ;
993 [label="gini = 0.474\nsamples = 44\nvalue = [27, 17]"] ;
992 -> 993 ;
994 [label="gini = 0.477\nsamples = 148\nvalue = [58, 90]"] ;
992 -> 994 ;
995 [label="customer_age <= 55.5\ngini = 0.421\nsamples = 458\nvalue = [138, 320]"] ;
989 -> 995 ;
996 [label="totalBilled <= 17149.955\ngini = 0.429\nsamples = 427\nvalue = [133, 294]"] ;
995 -> 996 ;
997 [label="gini = 0.391\nsamples = 236\nvalue = [63, 173]"] ;
996 -> 997 ;
998 [label="gini = 0.464\nsamples = 191\nvalue = [70, 121]"] ;
996 -> 998 ;
999 [label="gini = 0.271\nsamples = 31\nvalue = [5, 26]"] ;
995 -> 999 ;
1000 [label="customer_age <= 124.5\ngini = 0.493\nsamples = 706\nvalue = [312, 394]"] ;
988 -> 1000 ;
1001 [label="Geo_Code <= 0.5\ngini = 0.496\nsamples = 667\nvalue = [304, 363]"] ;
1000 -> 1001 ;
1002 [label="customer_age <= 73.5\ngini = 0.5\nsamples = 450\nvalue = [224, 226]"] ;
1001 -> 1002 ;
1003 [label="gini = 0.489\nsamples = 146\nvalue = [62, 84]"] ;
1002 -> 1003 ;
1004 [label="gini = 0.498\nsamples = 304\nvalue = [162, 142]"] ;
1002 -> 1004 ;
1005 [label="customer_age <= 63.5\ngini = 0.466\nsamples = 217\nvalue = [80, 137]"] ;
1001 -> 1005 ;
1006 [label="gini = 0.495\nsamples = 29\nvalue = [16, 13]"] ;
1005 -> 1006 ;
1007 [label="gini = 0.449\nsamples = 188\nvalue = [64, 124]"] ;
1005 -> 1007 ;
1008 [label="gini = 0.326\nsamples = 39\nvalue = [8, 31]"] ;
1000 -> 1008 ;
1009 [label="customer_age <= 48.5\ngini = 0.343\nsamples = 164\nvalue = [36, 128]"] ;
987 -> 1009 ;
1010 [label="customer_age <= 34.5\ngini = 0.2\nsamples = 62\nvalue = [7, 55]"] ;
1009 -> 1010 ;
1011 [label="gini = 0.32\nsamples = 35\nvalue = [7, 28]"] ;
1010 -> 1011 ;
1012 [label="gini = 0.0\nsamples = 27\nvalue = [0, 27]"] ;
1010 -> 1012 ;
1013 [label="totalBilled <= 64105.865\ngini = 0.407\nsamples = 102\nvalue = [29, 73]"] ;
1009 -> 1013 ;
1014 [label="totalBilled <= 49842.986\ngini = 0.468\nsamples = 59\nvalue = [22, 37]"] ;
1013 -> 1014 ;
1015 [label="gini = 0.269\nsamples = 25\nvalue = [4, 21]"] ;
1014 -> 1015 ;
1016 [label="gini = 0.498\nsamples = 34\nvalue = [18, 16]"] ;
1014 -> 1016 ;
1017 [label="totalBilled <= 74189.02\ngini = 0.273\nsamples = 43\nvalue = [7, 36]"] ;
1013 -> 1017 ;
1018 [label="gini = 0.159\nsamples = 23\nvalue = [2, 21]"] ;
1017 -> 1018 ;
1019 [label="gini = 0.375\nsamples = 20\nvalue = [5, 15]"] ;
1017 -> 1019 ;
1020 [label="totalBilled <= 13921.825\ngini = 0.476\nsamples = 13021\nvalue = [5092, 7929]"] ;
646 -> 1020 ;
1021 [label="ProductsUsed <= 24.5\ngini = 0.491\nsamples = 10137\nvalue = [4387, 5750]"] ;
1020 -> 1021 ;
1022 [label="totalBilled <= 5865.362\ngini = 0.498\nsamples = 7399\nvalue = [3439, 3960]"] ;
1021 -> 1022 ;
1023 [label="ProductsUsed <= 21.5\ngini = 0.5\nsamples = 5213\nvalue = [2551, 2662]"] ;
1022 -> 1023 ;
1024 [label="totalBilled <= 2059.965\ngini = 0.499\nsamples = 2916\nvalue = [1512, 1404]"] ;
1023 -> 1024 ;
1025 [label="totalBilled <= 2030.727\ngini = 0.495\nsamples = 1124\nvalue = [617, 507]"] ;
1024 -> 1025 ;
1026 [label="customer_age <= 110.0\ngini = 0.496\nsamples = 1104\nvalue = [600, 504]"] ;
1025 -> 1026 ;
1027 [label="customer_age <= 68.5\ngini = 0.495\nsamples = 1076\nvalue = [591, 485]"] ;
1026 -> 1027 ;
1028 [label="gini = 0.498\nsamples = 848\nvalue = [451, 397]"] ;
1027 -> 1028 ;
1029 [label="gini = 0.474\nsamples = 228\nvalue = [140, 88]"] ;
1027 -> 1029 ;
1030 [label="gini = 0.436\nsamples = 28\nvalue = [9, 19]"] ;
1026 -> 1030 ;
1031 [label="gini = 0.255\nsamples = 20\nvalue = [17, 3]"] ;
1025 -> 1031 ;
1032 [label="customer_age <= 113.5\ngini = 0.5\nsamples = 1792\nvalue = [895, 897]"] ;
1024 -> 1032 ;
1033 [label="totalBilled <= 2112.127\ngini = 0.5\nsamples = 1700\nvalue = [835, 865]"] ;
1032 -> 1033 ;
1034 [label="ProductsUsed <= 20.5\ngini = 0.411\nsamples = 45\nvalue = [13, 32]"] ;
1033 -> 1034 ;
1035 [label="gini = 0.32\nsamples = 25\nvalue = [5, 20]"] ;
1034 -> 1035 ;
1036 [label="gini = 0.48\nsamples = 20\nvalue = [8, 12]"] ;
1034 -> 1036 ;
1037 [label="customer_age <= 9.5\ngini = 0.5\nsamples = 1655\nvalue = [822, 833]"] ;
1033 -> 1037 ;
1038 [label="gini = 0.466\nsamples = 84\nvalue = [53, 31]"] ;
1037 -> 1038 ;
1039 [label="gini = 0.5\nsamples = 1571\nvalue = [769, 802]"] ;
1037 -> 1039 ;
1040 [label="customer_age <= 130.5\ngini = 0.454\nsamples = 92\nvalue = [60, 32]"] ;
1032 -> 1040 ;
1041 [label="customer_age <= 120.5\ngini = 0.403\nsamples = 68\nvalue = [49, 19]"] ;
1040 -> 1041 ;
1042 [label="gini = 0.486\nsamples = 36\nvalue = [21, 15]"] ;
1041 -> 1042 ;
1043 [label="gini = 0.219\nsamples = 32\nvalue = [28, 4]"] ;
1041 -> 1043 ;
1044 [label="gini = 0.497\nsamples = 24\nvalue = [11, 13]"] ;
1040 -> 1044 ;
1045 [label="Geo_Code <= 2.5\ngini = 0.495\nsamples = 2297\nvalue = [1039, 1258]"] ;
1023 -> 1045 ;
1046 [label="totalBilled <= 1914.337\ngini = 0.499\nsamples = 1374\nvalue = [650, 724]"] ;
1045 -> 1046 ;
1047 [label="Geo_Code <= 0.5\ngini = 0.488\nsamples = 403\nvalue = [170, 233]"] ;
1046 -> 1047 ;
1048 [label="customer_age <= 17.5\ngini = 0.475\nsamples = 312\nvalue = [121, 191]"] ;
1047 -> 1048 ;
1049 [label="gini = 0.245\nsamples = 28\nvalue = [4, 24]"] ;
1048 -> 1049 ;
1050 [label="gini = 0.485\nsamples = 284\nvalue = [117, 167]"] ;
1048 -> 1050 ;
1051 [label="customer_age <= 32.0\ngini = 0.497\nsamples = 91\nvalue = [49, 42]"] ;
1047 -> 1051 ;
1052 [label="gini = 0.401\nsamples = 36\nvalue = [26, 10]"] ;
1051 -> 1052 ;
1053 [label="gini = 0.487\nsamples = 55\nvalue = [23, 32]"] ;
1051 -> 1053 ;
1054 [label="customer_age <= 14.5\ngini = 0.5\nsamples = 971\nvalue = [480, 491]"] ;
1046 -> 1054 ;
1055 [label="totalBilled <= 3511.395\ngini = 0.463\nsamples = 85\nvalue = [54, 31]"] ;
1054 -> 1055 ;
1056 [label="gini = 0.413\nsamples = 48\nvalue = [34, 14]"] ;
1055 -> 1056 ;
1057 [label="gini = 0.497\nsamples = 37\nvalue = [20, 17]"] ;
1055 -> 1057 ;
1058 [label="ProductsUsed <= 23.5\ngini = 0.499\nsamples = 886\nvalue = [426, 460]"] ;
1054 -> 1058 ;
1059 [label="gini = 0.5\nsamples = 670\nvalue = [338, 332]"] ;
1058 -> 1059 ;
1060 [label="gini = 0.483\nsamples = 216\nvalue = [88, 128]"] ;
1058 -> 1060 ;
1061 [label="totalBilled <= 5190.976\ngini = 0.488\nsamples = 923\nvalue = [389, 534]"] ;
1045 -> 1061 ;
1062 [label="totalBilled <= 1663.891\ngini = 0.491\nsamples = 867\nvalue = [375, 492]"] ;
1061 -> 1062 ;
1063 [label="totalBilled <= 1266.168\ngini = 0.5\nsamples = 206\nvalue = [103, 103]"] ;
1062 -> 1063 ;
1064 [label="gini = 0.468\nsamples = 91\nvalue = [34, 57]"] ;
1063 -> 1064 ;
1065 [label="gini = 0.48\nsamples = 115\nvalue = [69, 46]"] ;
1063 -> 1065 ;
1066 [label="totalBilled <= 2336.017\ngini = 0.484\nsamples = 661\nvalue = [272, 389]"] ;
1062 -> 1066 ;
1067 [label="gini = 0.457\nsamples = 190\nvalue = [67, 123]"] ;
1066 -> 1067 ;
1068 [label="gini = 0.492\nsamples = 471\nvalue = [205, 266]"] ;
1066 -> 1068 ;
1069 [label="totalBilled <= 5457.715\ngini = 0.375\nsamples = 56\nvalue = [14, 42]"] ;
1061 -> 1069 ;
1070 [label="gini = 0.236\nsamples = 22\nvalue = [3, 19]"] ;
1069 -> 1070 ;
1071 [label="gini = 0.438\nsamples = 34\nvalue = [11, 23]"] ;
1069 -> 1071 ;
1072 [label="customer_age <= 42.5\ngini = 0.482\nsamples = 2186\nvalue = [888, 1298]"] ;
1022 -> 1072 ;
1073 [label="customer_age <= 9.5\ngini = 0.452\nsamples = 715\nvalue = [247, 468]"] ;
1072 -> 1073 ;
1074 [label="customer_age <= 5.5\ngini = 0.495\nsamples = 60\nvalue = [33, 27]"] ;
1073 -> 1074 ;
1075 [label="gini = 0.488\nsamples = 26\nvalue = [11, 15]"] ;
1074 -> 1075 ;
1076 [label="gini = 0.457\nsamples = 34\nvalue = [22, 12]"] ;
1074 -> 1076 ;
1077 [label="totalBilled <= 6157.319\ngini = 0.44\nsamples = 655\nvalue = [214, 441]"] ;
1073 -> 1077 ;
1078 [label="totalBilled <= 6025.059\ngini = 0.274\nsamples = 55\nvalue = [9, 46]"] ;
1077 -> 1078 ;
1079 [label="gini = 0.366\nsamples = 29\nvalue = [7, 22]"] ;
1078 -> 1079 ;
1080 [label="gini = 0.142\nsamples = 26\nvalue = [2, 24]"] ;
1078 -> 1080 ;
1081 [label="customer_age <= 13.5\ngini = 0.45\nsamples = 600\nvalue = [205, 395]"] ;
1077 -> 1081 ;
1082 [label="totalBilled <= 9610.806\ngini = 0.278\nsamples = 42\nvalue = [7, 35]"] ;
1081 -> 1082 ;
1083 [label="gini = 0.236\nsamples = 22\nvalue = [3, 19]"] ;
1082 -> 1083 ;
1084 [label="gini = 0.32\nsamples = 20\nvalue = [4, 16]"] ;
1082 -> 1084 ;
1085 [label="customer_age <= 15.5\ngini = 0.458\nsamples = 558\nvalue = [198, 360]"] ;
1081 -> 1085 ;
1086 [label="gini = 0.486\nsamples = 24\nvalue = [14, 10]"] ;
1085 -> 1086 ;
1087 [label="gini = 0.452\nsamples = 534\nvalue = [184, 350]"] ;
1085 -> 1087 ;
1088 [label="Geo_Code <= 0.5\ngini = 0.492\nsamples = 1471\nvalue = [641, 830]"] ;
1072 -> 1088 ;
1089 [label="totalBilled <= 7493.069\ngini = 0.496\nsamples = 886\nvalue = [405, 481]"] ;
1088 -> 1089 ;
1090 [label="totalBilled <= 6939.815\ngini = 0.499\nsamples = 281\nvalue = [147, 134]"] ;
1089 -> 1090 ;
1091 [label="ProductsUsed <= 20.5\ngini = 0.499\nsamples = 206\nvalue = [99, 107]"] ;
1090 -> 1091 ;
1092 [label="gini = 0.453\nsamples = 52\nvalue = [34, 18]"] ;
1091 -> 1092 ;
1093 [label="gini = 0.488\nsamples = 154\nvalue = [65, 89]"] ;
1091 -> 1093 ;
1094 [label="customer_age <= 59.5\ngini = 0.461\nsamples = 75\nvalue = [48, 27]"] ;
1090 -> 1094 ;
1095 [label="gini = 0.5\nsamples = 24\nvalue = [12, 12]"] ;
1094 -> 1095 ;
1096 [label="gini = 0.415\nsamples = 51\nvalue = [36, 15]"] ;
1094 -> 1096 ;
1097 [label="totalBilled <= 7676.231\ngini = 0.489\nsamples = 605\nvalue = [258, 347]"] ;
1089 -> 1097 ;
1098 [label="gini = 0.245\nsamples = 28\nvalue = [4, 24]"] ;
1097 -> 1098 ;
1099 [label="customer_age <= 104.5\ngini = 0.493\nsamples = 577\nvalue = [254, 323]"] ;
1097 -> 1099 ;
1100 [label="gini = 0.496\nsamples = 486\nvalue = [222, 264]"] ;
1099 -> 1100 ;
1101 [label="gini = 0.456\nsamples = 91\nvalue = [32, 59]"] ;
1099 -> 1101 ;
1102 [label="ProductsUsed <= 22.5\ngini = 0.481\nsamples = 585\nvalue = [236, 349]"] ;
1088 -> 1102 ;
1103 [label="totalBilled <= 7937.435\ngini = 0.494\nsamples = 378\nvalue = [169, 209]"] ;
1102 -> 1103 ;
1104 [label="totalBilled <= 7664.663\ngini = 0.478\nsamples = 157\nvalue = [62, 95]"] ;
1103 -> 1104 ;
1105 [label="gini = 0.488\nsamples = 137\nvalue = [58, 79]"] ;
1104 -> 1105 ;
1106 [label="gini = 0.32\nsamples = 20\nvalue = [4, 16]"] ;
1104 -> 1106 ;
1107 [label="totalBilled <= 12358.985\ngini = 0.499\nsamples = 221\nvalue = [107, 114]"] ;
1103 -> 1107 ;
1108 [label="gini = 0.5\nsamples = 185\nvalue = [95, 90]"] ;
1107 -> 1108 ;
1109 [label="gini = 0.444\nsamples = 36\nvalue = [12, 24]"] ;
1107 -> 1109 ;
1110 [label="customer_age <= 60.5\ngini = 0.438\nsamples = 207\nvalue = [67, 140]"] ;
1102 -> 1110 ;
1111 [label="customer_age <= 47.5\ngini = 0.497\nsamples = 69\nvalue = [32, 37]"] ;
1110 -> 1111 ;
1112 [label="gini = 0.423\nsamples = 23\nvalue = [7, 16]"] ;
1111 -> 1112 ;
1113 [label="gini = 0.496\nsamples = 46\nvalue = [25, 21]"] ;
1111 -> 1113 ;
1114 [label="totalBilled <= 9515.018\ngini = 0.379\nsamples = 138\nvalue = [35, 103]"] ;
1110 -> 1114 ;
1115 [label="gini = 0.284\nsamples = 76\nvalue = [13, 63]"] ;
1114 -> 1115 ;
1116 [label="gini = 0.458\nsamples = 62\nvalue = [22, 40]"] ;
1114 -> 1116 ;
1117 [label="totalBilled <= 2388.833\ngini = 0.453\nsamples = 2738\nvalue = [948, 1790]"] ;
1021 -> 1117 ;
1118 [label="ProductsUsed <= 32.5\ngini = 0.493\nsamples = 574\nvalue = [254, 320]"] ;
1117 -> 1118 ;
1119 [label="totalBilled <= 2291.566\ngini = 0.497\nsamples = 547\nvalue = [251, 296]"] ;
1118 -> 1119 ;
1120 [label="customer_age <= 90.5\ngini = 0.494\nsamples = 507\nvalue = [225, 282]"] ;
1119 -> 1120 ;
1121 [label="customer_age <= 82.5\ngini = 0.496\nsamples = 459\nvalue = [210, 249]"] ;
1120 -> 1121 ;
1122 [label="customer_age <= 75.5\ngini = 0.494\nsamples = 438\nvalue = [196, 242]"] ;
1121 -> 1122 ;
1123 [label="gini = 0.497\nsamples = 410\nvalue = [189, 221]"] ;
1122 -> 1123 ;
1124 [label="gini = 0.375\nsamples = 28\nvalue = [7, 21]"] ;
1122 -> 1124 ;
1125 [label="gini = 0.444\nsamples = 21\nvalue = [14, 7]"] ;
1121 -> 1125 ;
1126 [label="totalBilled <= 1667.375\ngini = 0.43\nsamples = 48\nvalue = [15, 33]"] ;
1120 -> 1126 ;
1127 [label="gini = 0.32\nsamples = 20\nvalue = [4, 16]"] ;
1126 -> 1127 ;
1128 [label="gini = 0.477\nsamples = 28\nvalue = [11, 17]"] ;
1126 -> 1128 ;
1129 [label="totalBilled <= 2340.827\ngini = 0.455\nsamples = 40\nvalue = [26, 14]"] ;
1119 -> 1129 ;
1130 [label="gini = 0.32\nsamples = 20\nvalue = [16, 4]"] ;
1129 -> 1130 ;
1131 [label="gini = 0.5\nsamples = 20\nvalue = [10, 10]"] ;
1129 -> 1131 ;
1132 [label="gini = 0.198\nsamples = 27\nvalue = [3, 24]"] ;
1118 -> 1132 ;
1133 [label="customer_age <= 8.5\ngini = 0.436\nsamples = 2164\nvalue = [694, 1470]"] ;
1117 -> 1133 ;
1134 [label="Geo_Code <= 2.0\ngini = 0.483\nsamples = 54\nvalue = [32, 22]"] ;
1133 -> 1134 ;
1135 [label="gini = 0.417\nsamples = 27\nvalue = [19, 8]"] ;
1134 -> 1135 ;
1136 [label="gini = 0.499\nsamples = 27\nvalue = [13, 14]"] ;
1134 -> 1136 ;
1137 [label="ProductsUsed <= 27.5\ngini = 0.431\nsamples = 2110\nvalue = [662, 1448]"] ;
1133 -> 1137 ;
1138 [label="Geo_Code <= 0.5\ngini = 0.457\nsamples = 1160\nvalue = [410, 750]"] ;
1137 -> 1138 ;
1139 [label="ProductsUsed <= 26.5\ngini = 0.475\nsamples = 625\nvalue = [242, 383]"] ;
1138 -> 1139 ;
1140 [label="totalBilled <= 12762.035\ngini = 0.461\nsamples = 474\nvalue = [171, 303]"] ;
1139 -> 1140 ;
1141 [label="gini = 0.456\nsamples = 453\nvalue = [159, 294]"] ;
1140 -> 1141 ;
1142 [label="gini = 0.49\nsamples = 21\nvalue = [12, 9]"] ;
1140 -> 1142 ;
1143 [label="customer_age <= 22.5\ngini = 0.498\nsamples = 151\nvalue = [71, 80]"] ;
1139 -> 1143 ;
1144 [label="gini = 0.42\nsamples = 20\nvalue = [14, 6]"] ;
1143 -> 1144 ;
1145 [label="gini = 0.492\nsamples = 131\nvalue = [57, 74]"] ;
1143 -> 1145 ;
1146 [label="customer_age <= 30.5\ngini = 0.431\nsamples = 535\nvalue = [168, 367]"] ;
1138 -> 1146 ;
