digraph Tree {
node [shape=box] ;
0 [label="ProductsUsed <= 12.5\ngini = 0.434\nsamples = 140018\nvalue = [95523, 44495]"] ;
1 [label="ProductsUsed <= 7.5\ngini = 0.347\nsamples = 85308\nvalue = [66278, 19030]"] ;
0 -> 1 [labeldistance=2.5, labelangle=45, headlabel="True"] ;
2 [label="ProductsUsed <= 3.5\ngini = 0.261\nsamples = 37254\nvalue = [31517, 5737]"] ;
1 -> 2 ;
3 [label="totalBilled <= 283.361\ngini = 0.162\nsamples = 8612\nvalue = [7848, 764]"] ;
2 -> 3 ;
4 [label="customer_age <= 19.5\ngini = 0.474\nsamples = 75\nvalue = [29, 46]"] ;
3 -> 4 ;
5 [label="gini = 0.49\nsamples = 21\nvalue = [12, 9]"] ;
4 -> 5 ;
6 [label="totalBilled <= 20.959\ngini = 0.431\nsamples = 54\nvalue = [17, 37]"] ;
4 -> 6 ;
7 [label="gini = 0.36\nsamples = 34\nvalue = [8, 26]"] ;
6 -> 7 ;
8 [label="gini = 0.495\nsamples = 20\nvalue = [9, 11]"] ;
6 -> 8 ;
9 [label="ProductsUsed <= 2.5\ngini = 0.154\nsamples = 8537\nvalue = [7819, 718]"] ;
3 -> 9 ;
10 [label="ProductsUsed <= 1.5\ngini = 0.116\nsamples = 4617\nvalue = [4331, 286]"] ;
9 -> 10 ;
11 [label="customer_age <= 113.5\ngini = 0.084\nsamples = 1653\nvalue = [1580, 73]"] ;
10 -> 11 ;
12 [label="Geo_Code <= 2.5\ngini = 0.08\nsamples = 1626\nvalue = [1558, 68]"] ;
11 -> 12 ;
13 [label="customer_age <= 45.5\ngini = 0.089\nsamples = 1456\nvalue = [1388, 68]"] ;
12 -> 13 ;
14 [label="customer_age <= 40.5\ngini = 0.106\nsamples = 993\nvalue = [937, 56]"] ;
13 -> 14 ;
15 [label="gini = 0.1\nsamples = 950\nvalue = [900, 50]"] ;
14 -> 15 ;
16 [label="gini = 0.24\nsamples = 43\nvalue = [37, 6]"] ;
14 -> 16 ;
17 [label="customer_age <= 80.5\ngini = 0.05\nsamples = 463\nvalue = [451, 12]"] ;
13 -> 17 ;
18 [label="gini = 0.029\nsamples = 401\nvalue = [395, 6]"] ;
17 -> 18 ;
19 [label="gini = 0.175\nsamples = 62\nvalue = [56, 6]"] ;
17 -> 19 ;
20 [label="gini = 0.0\nsamples = 170\nvalue = [170, 0]"] ;
12 -> 20 ;
21 [label="gini = 0.302\nsamples = 27\nvalue = [22, 5]"] ;
11 -> 21 ;
22 [label="totalBilled <= 1572.762\ngini = 0.133\nsamples = 2964\nvalue = [2751, 213]"] ;
10 -> 22 ;
23 [label="customer_age <= 2.5\ngini = 0.1\nsamples = 1400\nvalue = [1326, 74]"] ;
22 -> 23 ;
24 [label="totalBilled <= 1102.867\ngini = 0.013\nsamples = 152\nvalue = [151, 1]"] ;
23 -> 24 ;
25 [label="gini = 0.077\nsamples = 25\nvalue = [24, 1]"] ;
24 -> 25 ;
26 [label="gini = 0.0\nsamples = 127\nvalue = [127, 0]"] ;
24 -> 26 ;
27 [label="totalBilled <= 1237.587\ngini = 0.11\nsamples = 1248\nvalue = [1175, 73]"] ;
23 -> 27 ;
28 [label="customer_age <= 9.5\ngini = 0.132\nsamples = 664\nvalue = [617, 47]"] ;
27 -> 28 ;
29 [label="gini = 0.251\nsamples = 102\nvalue = [87, 15]"] ;
28 -> 29 ;
30 [label="gini = 0.107\nsamples = 562\nvalue = [530, 32]"] ;
28 -> 30 ;
31 [label="customer_age <= 17.5\ngini = 0.085\nsamples = 584\nvalue = [558, 26]"] ;
27 -> 31 ;
32 [label="gini = 0.038\nsamples = 205\nvalue = [201, 4]"] ;
31 -> 32 ;
33 [label="gini = 0.109\nsamples = 379\nvalue = [357, 22]"] ;
31 -> 33 ;
34 [label="totalBilled <= 1601.23\ngini = 0.162\nsamples = 1564\nvalue = [1425, 139]"] ;
22 -> 34 ;
35 [label="customer_age <= 42.0\ngini = 0.348\nsamples = 49\nvalue = [38, 11]"] ;
34 -> 35 ;
36 [label="gini = 0.444\nsamples = 27\nvalue = [18, 9]"] ;
35 -> 36 ;
37 [label="gini = 0.165\nsamples = 22\nvalue = [20, 2]"] ;
35 -> 37 ;
38 [label="customer_age <= 113.5\ngini = 0.155\nsamples = 1515\nvalue = [1387, 128]"] ;
34 -> 38 ;
39 [label="Geo_Code <= 1.5\ngini = 0.15\nsamples = 1491\nvalue = [1369, 122]"] ;
38 -> 39 ;
40 [label="gini = 0.168\nsamples = 887\nvalue = [805, 82]"] ;
39 -> 40 ;
41 [label="gini = 0.124\nsamples = 604\nvalue = [564, 40]"] ;
39 -> 41 ;
42 [label="gini = 0.375\nsamples = 24\nvalue = [18, 6]"] ;
38 -> 42 ;
43 [label="totalBilled <= 1391.716\ngini = 0.196\nsamples = 3920\nvalue = [3488, 432]"] ;
9 -> 43 ;
44 [label="totalBilled <= 1022.369\ngini = 0.17\nsamples = 1518\nvalue = [1376, 142]"] ;
43 -> 44 ;
45 [label="Geo_Code <= 2.5\ngini = 0.288\nsamples = 149\nvalue = [123, 26]"] ;
44 -> 45 ;
46 [label="totalBilled <= 1014.045\ngini = 0.181\nsamples = 109\nvalue = [98, 11]"] ;
45 -> 46 ;
47 [label="totalBilled <= 1006.046\ngini = 0.069\nsamples = 84\nvalue = [81, 3]"] ;
46 -> 47 ;
48 [label="gini = 0.165\nsamples = 33\nvalue = [30, 3]"] ;
47 -> 48 ;
49 [label="gini = 0.0\nsamples = 51\nvalue = [51, 0]"] ;
47 -> 49 ;
50 [label="gini = 0.435\nsamples = 25\nvalue = [17, 8]"] ;
46 -> 50 ;
51 [label="customer_age <= 35.5\ngini = 0.469\nsamples = 40\nvalue = [25, 15]"] ;
45 -> 51 ;
52 [label="gini = 0.455\nsamples = 20\nvalue = [13, 7]"] ;
51 -> 52 ;
53 [label="gini = 0.48\nsamples = 20\nvalue = [12, 8]"] ;
51 -> 53 ;
54 [label="totalBilled <= 1331.291\ngini = 0.155\nsamples = 1369\nvalue = [1253, 116]"] ;
44 -> 54 ;
55 [label="totalBilled <= 1324.643\ngini = 0.167\nsamples = 1200\nvalue = [1090, 110]"] ;
54 -> 55 ;
56 [label="customer_age <= 99.5\ngini = 0.16\nsamples = 1178\nvalue = [1075, 103]"] ;
55 -> 56 ;
57 [label="gini = 0.152\nsamples = 1120\nvalue = [1027, 93]"] ;
56 -> 57 ;
58 [label="gini = 0.285\nsamples = 58\nvalue = [48, 10]"] ;
56 -> 58 ;
59 [label="gini = 0.434\nsamples = 22\nvalue = [15, 7]"] ;
55 -> 59 ;
60 [label="customer_age <= 4.5\ngini = 0.068\nsamples = 169\nvalue = [163, 6]"] ;
54 -> 60 ;
61 [label="gini = 0.172\nsamples = 21\nvalue = [19, 2]"] ;
60 -> 61 ;
62 [label="totalBilled <= 1369.911\ngini = 0.053\nsamples = 148\nvalue = [144, 4]"] ;
60 -> 62 ;
63 [label="gini = 0.081\nsamples = 95\nvalue = [91, 4]"] ;
62 -> 63 ;
64 [label="gini = 0.0\nsamples = 53\nvalue = [53, 0]"] ;
62 -> 64 ;
65 [label="customer_age <= 32.5\ngini = 0.212\nsamples = 2402\nvalue = [2112, 290]"] ;
43 -> 65 ;
66 [label="customer_age <= 14.5\ngini = 0.237\nsamples = 1275\nvalue = [1100, 175]"] ;
65 -> 66 ;
67 [label="Geo_Code <= 1.5\ngini = 0.199\nsamples = 722\nvalue = [641, 81]"] ;
66 -> 67 ;
68 [label="totalBilled <= 1562.79\ngini = 0.224\nsamples = 427\nvalue = [372, 55]"] ;
67 -> 68 ;
69 [label="gini = 0.328\nsamples = 63\nvalue = [50, 13]"] ;
68 -> 69 ;
70 [label="gini = 0.204\nsamples = 364\nvalue = [322, 42]"] ;
68 -> 70 ;
71 [label="totalBilled <= 1594.902\ngini = 0.161\nsamples = 295\nvalue = [269, 26]"] ;
67 -> 71 ;
72 [label="gini = 0.0\nsamples = 47\nvalue = [47, 0]"] ;
71 -> 72 ;
73 [label="gini = 0.188\nsamples = 248\nvalue = [222, 26]"] ;
71 -> 73 ;
74 [label="totalBilled <= 1892.194\ngini = 0.282\nsamples = 553\nvalue = [459, 94]"] ;
66 -> 74 ;
75 [label="customer_age <= 30.5\ngini = 0.357\nsamples = 198\nvalue = [152, 46]"] ;
74 -> 75 ;
76 [label="gini = 0.331\nsamples = 177\nvalue = [140, 37]"] ;
75 -> 76 ;
77 [label="gini = 0.49\nsamples = 21\nvalue = [12, 9]"] ;
75 -> 77 ;
78 [label="totalBilled <= 3039.855\ngini = 0.234\nsamples = 355\nvalue = [307, 48]"] ;
74 -> 78 ;
79 [label="gini = 0.181\nsamples = 179\nvalue = [161, 18]"] ;
78 -> 79 ;
80 [label="gini = 0.283\nsamples = 176\nvalue = [146, 30]"] ;
78 -> 80 ;
81 [label="customer_age <= 92.5\ngini = 0.183\nsamples = 1127\nvalue = [1012, 115]"] ;
65 -> 81 ;
82 [label="customer_age <= 71.5\ngini = 0.169\nsamples = 968\nvalue = [878, 90]"] ;
81 -> 82 ;
83 [label="customer_age <= 67.5\ngini = 0.188\nsamples = 754\nvalue = [675, 79]"] ;
82 -> 83 ;
84 [label="gini = 0.172\nsamples = 696\nvalue = [630, 66]"] ;
83 -> 84 ;
85 [label="gini = 0.348\nsamples = 58\nvalue = [45, 13]"] ;
83 -> 85 ;
86 [label="customer_age <= 82.5\ngini = 0.098\nsamples = 214\nvalue = [203, 11]"] ;
82 -> 86 ;
87 [label="gini = 0.021\nsamples = 96\nvalue = [95, 1]"] ;
86 -> 87 ;
88 [label="gini = 0.155\nsamples = 118\nvalue = [108, 10]"] ;
86 -> 88 ;
89 [label="customer_age <= 111.5\ngini = 0.265\nsamples = 159\nvalue = [134, 25]"] ;
81 -> 89 ;
90 [label="totalBilled <= 1841.653\ngini = 0.312\nsamples = 88\nvalue = [71, 17]"] ;
89 -> 90 ;
91 [label="gini = 0.381\nsamples = 39\nvalue = [29, 10]"] ;
90 -> 91 ;
92 [label="gini = 0.245\nsamples = 49\nvalue = [42, 7]"] ;
90 -> 92 ;
93 [label="totalBilled <= 2217.908\ngini = 0.2\nsamples = 71\nvalue = [63, 8]"] ;
89 -> 93 ;
94 [label="gini = 0.255\nsamples = 40\nvalue = [34, 6]"] ;
93 -> 94 ;
95 [label="gini = 0.121\nsamples = 31\nvalue = [29, 2]"] ;
93 -> 95 ;
96 [label="totalBilled <= 3851.057\ngini = 0.287\nsamples = 28642\nvalue = [23669, 4973]"] ;
2 -> 96 ;
97 [label="ProductsUsed <= 5.5\ngini = 0.273\nsamples = 24400\nvalue = [20424, 3976]"] ;
96 -> 97 ;
98 [label="customer_age <= 28.5\ngini = 0.245\nsamples = 10150\nvalue = [8700, 1450]"] ;
97 -> 98 ;
99 [label="Geo_Code <= 2.5\ngini = 0.267\nsamples = 4012\nvalue = [3375, 637]"] ;
98 -> 99 ;
100 [label="Geo_Code <= 1.5\ngini = 0.254\nsamples = 2997\nvalue = [2550, 447]"] ;
99 -> 100 ;
101 [label="totalBilled <= 1097.109\ngini = 0.271\nsamples = 2467\nvalue = [2068, 399]"] ;
100 -> 101 ;
102 [label="customer_age <= 16.5\ngini = 0.164\nsamples = 278\nvalue = [253, 25]"] ;
101 -> 102 ;
103 [label="gini = 0.209\nsamples = 169\nvalue = [149, 20]"] ;
102 -> 103 ;
104 [label="gini = 0.088\nsamples = 109\nvalue = [104, 5]"] ;
102 -> 104 ;
105 [label="totalBilled <= 1105.378\ngini = 0.283\nsamples = 2189\nvalue = [1815, 374]"] ;
101 -> 105 ;
106 [label="gini = 0.431\nsamples = 35\nvalue = [24, 11]"] ;
105 -> 106 ;
107 [label="gini = 0.28\nsamples = 2154\nvalue = [1791, 363]"] ;
105 -> 107 ;
108 [label="totalBilled <= 3029.436\ngini = 0.165\nsamples = 530\nvalue = [482, 48]"] ;
100 -> 108 ;
109 [label="totalBilled <= 1081.995\ngini = 0.146\nsamples = 455\nvalue = [419, 36]"] ;
108 -> 109 ;
110 [label="gini = 0.295\nsamples = 39\nvalue = [32, 7]"] ;
109 -> 110 ;
111 [label="gini = 0.13\nsamples = 416\nvalue = [387, 29]"] ;
109 -> 111 ;
112 [label="customer_age <= 18.5\ngini = 0.269\nsamples = 75\nvalue = [63, 12]"] ;
108 -> 112 ;
113 [label="gini = 0.346\nsamples = 54\nvalue = [42, 12]"] ;
112 -> 113 ;
114 [label="gini = 0.0\nsamples = 21\nvalue = [21, 0]"] ;
112 -> 114 ;
115 [label="Geo_Code <= 3.5\ngini = 0.304\nsamples = 1015\nvalue = [825, 190]"] ;
99 -> 115 ;
116 [label="customer_age <= 22.5\ngini = 0.33\nsamples = 709\nvalue = [561, 148]"] ;
115 -> 116 ;
117 [label="totalBilled <= 1109.417\ngini = 0.314\nsamples = 579\nvalue = [466, 113]"] ;
116 -> 117 ;
118 [label="gini = 0.367\nsamples = 99\nvalue = [75, 24]"] ;
117 -> 118 ;
119 [label="gini = 0.302\nsamples = 480\nvalue = [391, 89]"] ;
117 -> 119 ;
120 [label="totalBilled <= 1176.845\ngini = 0.393\nsamples = 130\nvalue = [95, 35]"] ;
116 -> 120 ;
121 [label="gini = 0.499\nsamples = 27\nvalue = [13, 14]"] ;
120 -> 121 ;
122 [label="gini = 0.325\nsamples = 103\nvalue = [82, 21]"] ;
120 -> 122 ;
123 [label="customer_age <= 6.5\ngini = 0.237\nsamples = 306\nvalue = [264, 42]"] ;
115 -> 123 ;
124 [label="customer_age <= 3.5\ngini = 0.368\nsamples = 70\nvalue = [53, 17]"] ;
123 -> 124 ;
125 [label="gini = 0.295\nsamples = 39\nvalue = [32, 7]"] ;
124 -> 125 ;
126 [label="gini = 0.437\nsamples = 31\nvalue = [21, 10]"] ;
124 -> 126 ;
127 [label="totalBilled <= 1748.655\ngini = 0.189\nsamples = 236\nvalue = [211, 25]"] ;
123 -> 127 ;
128 [label="gini = 0.14\nsamples = 159\nvalue = [147, 12]"] ;
127 -> 128 ;
129 [label="gini = 0.281\nsamples = 77\nvalue = [64, 13]"] ;
127 -> 129 ;
130 [label="totalBilled <= 1628.174\ngini = 0.23\nsamples = 6138\nvalue = [5325, 813]"] ;
98 -> 130 ;
131 [label="totalBilled <= 1240.561\ngini = 0.213\nsamples = 3537\nvalue = [3108, 429]"] ;
130 -> 131 ;
132 [label="totalBilled <= 1128.003\ngini = 0.235\nsamples = 1760\nvalue = [1521, 239]"] ;
131 -> 132 ;
133 [label="totalBilled <= 1008.378\ngini = 0.203\nsamples = 1045\nvalue = [925, 120]"] ;
132 -> 133 ;
134 [label="gini = 0.1\nsamples = 114\nvalue = [108, 6]"] ;
133 -> 134 ;
135 [label="gini = 0.215\nsamples = 931\nvalue = [817, 114]"] ;
133 -> 135 ;
136 [label="totalBilled <= 1182.138\ngini = 0.277\nsamples = 715\nvalue = [596, 119]"] ;
132 -> 136 ;
137 [label="gini = 0.323\nsamples = 351\nvalue = [280, 71]"] ;
136 -> 137 ;
138 [label="gini = 0.229\nsamples = 364\nvalue = [316, 48]"] ;
136 -> 138 ;
139 [label="customer_age <= 37.5\ngini = 0.191\nsamples = 1777\nvalue = [1587, 190]"] ;
131 -> 139 ;
140 [label="Geo_Code <= 5.5\ngini = 0.25\nsamples = 342\nvalue = [292, 50]"] ;
139 -> 140 ;
141 [label="gini = 0.263\nsamples = 321\nvalue = [271, 50]"] ;
140 -> 141 ;
142 [label="gini = 0.0\nsamples = 21\nvalue = [21, 0]"] ;
140 -> 142 ;
143 [label="ProductsUsed <= 4.5\ngini = 0.176\nsamples = 1435\nvalue = [1295, 140]"] ;
139 -> 143 ;
144 [label="gini = 0.145\nsamples = 623\nvalue = [574, 49]"] ;
143 -> 144 ;
145 [label="gini = 0.199\nsamples = 812\nvalue = [721, 91]"] ;
143 -> 145 ;
146 [label="Geo_Code <= 2.5\ngini = 0.252\nsamples = 2601\nvalue = [2217, 384]"] ;
130 -> 146 ;
147 [label="customer_age <= 134.5\ngini = 0.235\nsamples = 1996\nvalue = [1724, 272]"] ;
146 -> 147 ;
148 [label="customer_age <= 74.5\ngini = 0.232\nsamples = 1960\nvalue = [1698, 262]"] ;
147 -> 148 ;
149 [label="gini = 0.249\nsamples = 1405\nvalue = [1200, 205]"] ;
148 -> 149 ;
150 [label="gini = 0.184\nsamples = 555\nvalue = [498, 57]"] ;
148 -> 150 ;
151 [label="gini = 0.401\nsamples = 36\nvalue = [26, 10]"] ;
147 -> 151 ;
152 [label="totalBilled <= 1654.276\ngini = 0.302\nsamples = 605\nvalue = [493, 112]"] ;
146 -> 152 ;
153 [label="gini = 0.495\nsamples = 20\nvalue = [11, 9]"] ;
152 -> 153 ;
154 [label="customer_age <= 91.5\ngini = 0.29\nsamples = 585\nvalue = [482, 103]"] ;
152 -> 154 ;
155 [label="gini = 0.313\nsamples = 474\nvalue = [382, 92]"] ;
154 -> 155 ;
156 [label="gini = 0.179\nsamples = 111\nvalue = [100, 11]"] ;
154 -> 156 ;
157 [label="customer_age <= 24.5\ngini = 0.292\nsamples = 14250\nvalue = [11724, 2526]"] ;
97 -> 157 ;
158 [label="Geo_Code <= 1.5\ngini = 0.327\nsamples = 4236\nvalue = [3364, 872]"] ;
157 -> 158 ;
159 [label="totalBilled <= 1684.555\ngini = 0.345\nsamples = 2470\nvalue = [1923, 547]"] ;
158 -> 159 ;
160 [label="totalBilled <= 1041.028\ngini = 0.325\nsamples = 1395\nvalue = [1110, 285]"] ;
159 -> 160 ;
161 [label="ProductsUsed <= 6.5\ngini = 0.408\nsamples = 126\nvalue = [90, 36]"] ;
160 -> 161 ;
162 [label="gini = 0.32\nsamples = 65\nvalue = [52, 13]"] ;
161 -> 162 ;
163 [label="gini = 0.47\nsamples = 61\nvalue = [38, 23]"] ;
161 -> 163 ;
164 [label="totalBilled <= 1084.231\ngini = 0.315\nsamples = 1269\nvalue = [1020, 249]"] ;
160 -> 164 ;
165 [label="gini = 0.172\nsamples = 116\nvalue = [105, 11]"] ;
164 -> 165 ;
166 [label="gini = 0.328\nsamples = 1153\nvalue = [915, 238]"] ;
164 -> 166 ;
167 [label="totalBilled <= 2021.208\ngini = 0.369\nsamples = 1075\nvalue = [813, 262]"] ;
159 -> 167 ;
168 [label="totalBilled <= 1984.728\ngini = 0.411\nsamples = 339\nvalue = [241, 98]"] ;
167 -> 168 ;
169 [label="gini = 0.401\nsamples = 317\nvalue = [229, 88]"] ;
168 -> 169 ;
170 [label="gini = 0.496\nsamples = 22\nvalue = [12, 10]"] ;
168 -> 170 ;
171 [label="customer_age <= 17.5\ngini = 0.346\nsamples = 736\nvalue = [572, 164]"] ;
167 -> 171 ;
172 [label="gini = 0.328\nsamples = 537\nvalue = [426, 111]"] ;
171 -> 172 ;
173 [label="gini = 0.391\nsamples = 199\nvalue = [146, 53]"] ;
171 -> 173 ;
174 [label="Geo_Code <= 2.5\ngini = 0.3\nsamples = 1766\nvalue = [1441, 325]"] ;
158 -> 174 ;
175 [label="ProductsUsed <= 6.5\ngini = 0.236\nsamples = 490\nvalue = [423, 67]"] ;
174 -> 175 ;
176 [label="totalBilled <= 1384.38\ngini = 0.182\nsamples = 247\nvalue = [222, 25]"] ;
175 -> 176 ;
177 [label="gini = 0.105\nsamples = 72\nvalue = [68, 4]"] ;
176 -> 177 ;
178 [label="gini = 0.211\nsamples = 175\nvalue = [154, 21]"] ;
176 -> 178 ;
179 [label="totalBilled <= 1220.848\ngini = 0.286\nsamples = 243\nvalue = [201, 42]"] ;
175 -> 179 ;
180 [label="gini = 0.412\nsamples = 31\nvalue = [22, 9]"] ;
179 -> 180 ;
181 [label="gini = 0.263\nsamples = 212\nvalue = [179, 33]"] ;
179 -> 181 ;
182 [label="Geo_Code <= 5.5\ngini = 0.323\nsamples = 1276\nvalue = [1018, 258]"] ;
174 -> 182 ;
183 [label="totalBilled <= 2005.647\ngini = 0.347\nsamples = 825\nvalue = [641, 184]"] ;
182 -> 183 ;
184 [label="gini = 0.318\nsamples = 580\nvalue = [465, 115]"] ;
183 -> 184 ;
185 [label="gini = 0.405\nsamples = 245\nvalue = [176, 69]"] ;
183 -> 185 ;
186 [label="totalBilled <= 1054.599\ngini = 0.274\nsamples = 451\nvalue = [377, 74]"] ;
182 -> 186 ;
187 [label="gini = 0.0\nsamples = 29\nvalue = [29, 0]"] ;
186 -> 187 ;
188 [label="gini = 0.289\nsamples = 422\nvalue = [348, 74]"] ;
186 -> 188 ;
189 [label="Geo_Code <= 2.5\ngini = 0.276\nsamples = 10014\nvalue = [8360, 1654]"] ;
157 -> 189 ;
190 [label="customer_age <= 71.5\ngini = 0.262\nsamples = 7152\nvalue = [6041, 1111]"] ;
189 -> 190 ;
191 [label="Geo_Code <= 1.5\ngini = 0.28\nsamples = 4825\nvalue = [4014, 811]"] ;
190 -> 191 ;
192 [label="totalBilled <= 2358.758\ngini = 0.286\nsamples = 4456\nvalue = [3684, 772]"] ;
191 -> 192 ;
193 [label="gini = 0.273\nsamples = 3502\nvalue = [2932, 570]"] ;
192 -> 193 ;
194 [label="gini = 0.334\nsamples = 954\nvalue = [752, 202]"] ;
192 -> 194 ;
195 [label="ProductsUsed <= 6.5\ngini = 0.189\nsamples = 369\nvalue = [330, 39]"] ;
191 -> 195 ;
196 [label="gini = 0.111\nsamples = 187\nvalue = [176, 11]"] ;
195 -> 196 ;
197 [label="gini = 0.26\nsamples = 182\nvalue = [154, 28]"] ;
195 -> 197 ;
198 [label="totalBilled <= 1960.005\ngini = 0.225\nsamples = 2327\nvalue = [2027, 300]"] ;
190 -> 198 ;
199 [label="customer_age <= 89.5\ngini = 0.2\nsamples = 1516\nvalue = [1345, 171]"] ;
198 -> 199 ;
200 [label="gini = 0.235\nsamples = 737\nvalue = [637, 100]"] ;
199 -> 200 ;
201 [label="gini = 0.166\nsamples = 779\nvalue = [708, 71]"] ;
199 -> 201 ;
202 [label="totalBilled <= 2050.313\ngini = 0.268\nsamples = 811\nvalue = [682, 129]"] ;
198 -> 202 ;
203 [label="gini = 0.425\nsamples = 62\nvalue = [43, 19]"] ;
202 -> 203 ;
204 [label="gini = 0.251\nsamples = 749\nvalue = [639, 110]"] ;
202 -> 204 ;
205 [label="Geo_Code <= 4.0\ngini = 0.307\nsamples = 2862\nvalue = [2319, 543]"] ;
189 -> 205 ;
206 [label="totalBilled <= 1256.817\ngini = 0.324\nsamples = 1997\nvalue = [1591, 406]"] ;
205 -> 206 ;
207 [label="customer_age <= 55.5\ngini = 0.36\nsamples = 514\nvalue = [393, 121]"] ;
206 -> 207 ;
208 [label="gini = 0.412\nsamples = 248\nvalue = [176, 72]"] ;
207 -> 208 ;
209 [label="gini = 0.301\nsamples = 266\nvalue = [217, 49]"] ;
207 -> 209 ;
210 [label="totalBilled <= 1548.367\ngini = 0.31\nsamples = 1483\nvalue = [1198, 285]"] ;
206 -> 210 ;
211 [label="gini = 0.262\nsamples = 445\nvalue = [376, 69]"] ;
210 -> 211 ;
212 [label="gini = 0.33\nsamples = 1038\nvalue = [822, 216]"] ;
210 -> 212 ;
213 [label="totalBilled <= 2369.179\ngini = 0.267\nsamples = 865\nvalue = [728, 137]"] ;
205 -> 213 ;
214 [label="customer_age <= 64.5\ngini = 0.234\nsamples = 671\nvalue = [580, 91]"] ;
213 -> 214 ;
215 [label="gini = 0.207\nsamples = 503\nvalue = [444, 59]"] ;
214 -> 215 ;
216 [label="gini = 0.308\nsamples = 168\nvalue = [136, 32]"] ;
214 -> 216 ;
217 [label="customer_age <= 32.5\ngini = 0.362\nsamples = 194\nvalue = [148, 46]"] ;
213 -> 217 ;
218 [label="gini = 0.184\nsamples = 39\nvalue = [35, 4]"] ;
217 -> 218 ;
219 [label="gini = 0.395\nsamples = 155\nvalue = [113, 42]"] ;
217 -> 219 ;
220 [label="totalBilled <= 5904.14\ngini = 0.36\nsamples = 4242\nvalue = [3245, 997]"] ;
96 -> 220 ;
221 [label="customer_age <= 56.5\ngini = 0.332\nsamples = 2159\nvalue = [1706, 453]"] ;
220 -> 221 ;
222 [label="totalBilled <= 3924.921\ngini = 0.355\nsamples = 1482\nvalue = [1140, 342]"] ;
221 -> 222 ;
223 [label="customer_age <= 37.5\ngini = 0.444\nsamples = 87\nvalue = [58, 29]"] ;
222 -> 223 ;
224 [label="totalBilled <= 3878.74\ngini = 0.391\nsamples = 60\nvalue = [44, 16]"] ;
223 -> 224 ;
225 [label="gini = 0.245\nsamples = 21\nvalue = [18, 3]"] ;
224 -> 225 ;
226 [label="gini = 0.444\nsamples = 39\nvalue = [26, 13]"] ;
224 -> 226 ;
227 [label="gini = 0.499\nsamples = 27\nvalue = [14, 13]"] ;
223 -> 227 ;
228 [label="totalBilled <= 3970.037\ngini = 0.348\nsamples = 1395\nvalue = [1082, 313]"] ;
222 -> 228 ;
229 [label="totalBilled <= 3947.71\ngini = 0.147\nsamples = 50\nvalue = [46, 4]"] ;
228 -> 229 ;
230 [label="gini = 0.252\nsamples = 27\nvalue = [23, 4]"] ;
229 -> 230 ;
231 [label="gini = 0.0\nsamples = 23\nvalue = [23, 0]"] ;
229 -> 231 ;
232 [label="totalBilled <= 4014.367\ngini = 0.354\nsamples = 1345\nvalue = [1036, 309]"] ;
228 -> 232 ;
233 [label="Geo_Code <= 0.5\ngini = 0.483\nsamples = 44\nvalue = [26, 18]"] ;
232 -> 233 ;
234 [label="gini = 0.386\nsamples = 23\nvalue = [17, 6]"] ;
233 -> 234 ;
235 [label="gini = 0.49\nsamples = 21\nvalue = [9, 12]"] ;
233 -> 235 ;
236 [label="Geo_Code <= 0.5\ngini = 0.347\nsamples = 1301\nvalue = [1010, 291]"] ;
232 -> 236 ;
237 [label="gini = 0.369\nsamples = 597\nvalue = [451, 146]"] ;
236 -> 237 ;
238 [label="gini = 0.327\nsamples = 704\nvalue = [559, 145]"] ;
236 -> 238 ;
239 [label="totalBilled <= 3991.562\ngini = 0.274\nsamples = 677\nvalue = [566, 111]"] ;
221 -> 239 ;
240 [label="totalBilled <= 3927.259\ngini = 0.413\nsamples = 79\nvalue = [56, 23]"] ;
239 -> 240 ;
241 [label="gini = 0.245\nsamples = 35\nvalue = [30, 5]"] ;
240 -> 241 ;
242 [label="totalBilled <= 3960.974\ngini = 0.483\nsamples = 44\nvalue = [26, 18]"] ;
240 -> 242 ;
243 [label="gini = 0.499\nsamples = 23\nvalue = [11, 12]"] ;
242 -> 243 ;
244 [label="gini = 0.408\nsamples = 21\nvalue = [15, 6]"] ;
242 -> 244 ;
245 [label="ProductsUsed <= 4.5\ngini = 0.251\nsamples = 598\nvalue = [510, 88]"] ;
239 -> 245 ;
246 [label="customer_age <= 76.5\ngini = 0.095\nsamples = 80\nvalue = [76, 4]"] ;
245 -> 246 ;
247 [label="totalBilled <= 4609.825\ngini = 0.169\nsamples = 43\nvalue = [39, 4]"] ;
246 -> 247 ;
248 [label="gini = 0.18\nsamples = 20\nvalue = [18, 2]"] ;
247 -> 248 ;
249 [label="gini = 0.159\nsamples = 23\nvalue = [21, 2]"] ;
247 -> 249 ;
250 [label="gini = 0.0\nsamples = 37\nvalue = [37, 0]"] ;
246 -> 250 ;
251 [label="totalBilled <= 4188.316\ngini = 0.272\nsamples = 518\nvalue = [434, 84]"] ;
245 -> 251 ;
252 [label="customer_age <= 81.0\ngini = 0.147\nsamples = 75\nvalue = [69, 6]"] ;
251 -> 252 ;
253 [label="gini = 0.0\nsamples = 29\nvalue = [29, 0]"] ;
252 -> 253 ;
254 [label="gini = 0.227\nsamples = 46\nvalue = [40, 6]"] ;
252 -> 254 ;
255 [label="totalBilled <= 5755.986\ngini = 0.29\nsamples = 443\nvalue = [365, 78]"] ;
251 -> 255 ;
256 [label="gini = 0.3\nsamples = 419\nvalue = [342, 77]"] ;
255 -> 256 ;
257 [label="gini = 0.08\nsamples = 24\nvalue = [23, 1]"] ;
255 -> 257 ;
258 [label="ProductsUsed <= 5.5\ngini = 0.386\nsamples = 2083\nvalue = [1539, 544]"] ;
220 -> 258 ;
259 [label="Geo_Code <= 1.5\ngini = 0.335\nsamples = 739\nvalue = [582, 157]"] ;
258 -> 259 ;
260 [label="customer_age <= 93.5\ngini = 0.366\nsamples = 472\nvalue = [358, 114]"] ;
259 -> 260 ;
261 [label="customer_age <= 5.5\ngini = 0.385\nsamples = 427\nvalue = [316, 111]"] ;
260 -> 261 ;
262 [label="gini = 0.499\nsamples = 25\nvalue = [13, 12]"] ;
261 -> 262 ;
263 [label="customer_age <= 32.5\ngini = 0.371\nsamples = 402\nvalue = [303, 99]"] ;
261 -> 263 ;
264 [label="gini = 0.329\nsamples = 178\nvalue = [141, 37]"] ;
263 -> 264 ;
265 [label="gini = 0.4\nsamples = 224\nvalue = [162, 62]"] ;
263 -> 265 ;
266 [label="customer_age <= 106.5\ngini = 0.124\nsamples = 45\nvalue = [42, 3]"] ;
260 -> 266 ;
267 [label="gini = 0.227\nsamples = 23\nvalue = [20, 3]"] ;
266 -> 267 ;
268 [label="gini = 0.0\nsamples = 22\nvalue = [22, 0]"] ;
266 -> 268 ;
269 [label="totalBilled <= 6561.747\ngini = 0.27\nsamples = 267\nvalue = [224, 43]"] ;
259 -> 269 ;
270 [label="customer_age <= 34.0\ngini = 0.402\nsamples = 43\nvalue = [31, 12]"] ;
269 -> 270 ;
271 [label="gini = 0.255\nsamples = 20\nvalue = [17, 3]"] ;
270 -> 271 ;
272 [label="gini = 0.476\nsamples = 23\nvalue = [14, 9]"] ;
270 -> 272 ;
273 [label="customer_age <= 53.5\ngini = 0.238\nsamples = 224\nvalue = [193, 31]"] ;
269 -> 273 ;
274 [label="customer_age <= 42.5\ngini = 0.276\nsamples = 157\nvalue = [131, 26]"] ;
273 -> 274 ;
275 [label="gini = 0.24\nsamples = 136\nvalue = [117, 19]"] ;
274 -> 275 ;
276 [label="gini = 0.444\nsamples = 21\nvalue = [14, 7]"] ;
274 -> 276 ;
277 [label="customer_age <= 72.5\ngini = 0.138\nsamples = 67\nvalue = [62, 5]"] ;
273 -> 277 ;
278 [label="gini = 0.0\nsamples = 23\nvalue = [23, 0]"] ;
277 -> 278 ;
279 [label="gini = 0.201\nsamples = 44\nvalue = [39, 5]"] ;
277 -> 279 ;
280 [label="Geo_Code <= 2.5\ngini = 0.41\nsamples = 1344\nvalue = [957, 387]"] ;
258 -> 280 ;
281 [label="Geo_Code <= 1.5\ngini = 0.395\nsamples = 1043\nvalue = [760, 283]"] ;
280 -> 281 ;
282 [label="customer_age <= 43.5\ngini = 0.414\nsamples = 882\nvalue = [624, 258]"] ;
281 -> 282 ;
283 [label="totalBilled <= 8097.792\ngini = 0.443\nsamples = 387\nvalue = [259, 128]"] ;
282 -> 283 ;
284 [label="gini = 0.475\nsamples = 170\nvalue = [104, 66]"] ;
283 -> 284 ;
285 [label="gini = 0.408\nsamples = 217\nvalue = [155, 62]"] ;
283 -> 285 ;
286 [label="totalBilled <= 11194.565\ngini = 0.387\nsamples = 495\nvalue = [365, 130]"] ;
282 -> 286 ;
287 [label="gini = 0.354\nsamples = 339\nvalue = [261, 78]"] ;
286 -> 287 ;
288 [label="gini = 0.444\nsamples = 156\nvalue = [104, 52]"] ;
286 -> 288 ;
289 [label="customer_age <= 54.5\ngini = 0.262\nsamples = 161\nvalue = [136, 25]"] ;
281 -> 289 ;
290 [label="totalBilled <= 6484.673\ngini = 0.212\nsamples = 141\nvalue = [124, 17]"] ;
289 -> 290 ;
291 [label="gini = 0.375\nsamples = 20\nvalue = [15, 5]"] ;
290 -> 291 ;
292 [label="gini = 0.179\nsamples = 121\nvalue = [109, 12]"] ;
290 -> 292 ;
293 [label="gini = 0.48\nsamples = 20\nvalue = [12, 8]"] ;
289 -> 293 ;
294 [label="customer_age <= 17.5\ngini = 0.452\nsamples = 301\nvalue = [197, 104]"] ;
280 -> 294 ;
295 [label="customer_age <= 11.5\ngini = 0.342\nsamples = 64\nvalue = [50, 14]"] ;
294 -> 295 ;
296 [label="gini = 0.48\nsamples = 25\nvalue = [15, 10]"] ;
295 -> 296 ;
297 [label="gini = 0.184\nsamples = 39\nvalue = [35, 4]"] ;
295 -> 297 ;
298 [label="totalBilled <= 6814.703\ngini = 0.471\nsamples = 237\nvalue = [147, 90]"] ;
294 -> 298 ;
299 [label="totalBilled <= 6291.793\ngini = 0.347\nsamples = 76\nvalue = [59, 17]"] ;
298 -> 299 ;
300 [label="gini = 0.469\nsamples = 32\nvalue = [20, 12]"] ;
299 -> 300 ;
301 [label="gini = 0.201\nsamples = 44\nvalue = [39, 5]"] ;
299 -> 301 ;
302 [label="customer_age <= 86.0\ngini = 0.496\nsamples = 161\nvalue = [88, 73]"] ;
298 -> 302 ;
303 [label="gini = 0.5\nsamples = 138\nvalue = [70, 68]"] ;
302 -> 303 ;
304 [label="gini = 0.34\nsamples = 23\nvalue = [18, 5]"] ;
302 -> 304 ;
305 [label="totalBilled <= 3743.728\ngini = 0.4\nsamples = 48054\nvalue = [34761, 13293]"] ;
1 -> 305 ;
306 [label="ProductsUsed <= 10.5\ngini = 0.378\nsamples = 36390\nvalue = [27186, 9204]"] ;
305 -> 306 ;
307 [label="customer_age <= 38.5\ngini = 0.354\nsamples = 23149\nvalue = [17821, 5328]"] ;
306 -> 307 ;
308 [label="Geo_Code <= 5.5\ngini = 0.379\nsamples = 10294\nvalue = [7680, 2614]"] ;
307 -> 308 ;
309 [label="Geo_Code <= 2.5\ngini = 0.388\nsamples = 8934\nvalue = [6581, 2353]"] ;
308 -> 309 ;
310 [label="Geo_Code <= 1.5\ngini = 0.376\nsamples = 6678\nvalue = [4999, 1679]"] ;
309 -> 310 ;
311 [label="Geo_Code <= 0.5\ngini = 0.386\nsamples = 6032\nvalue = [4459, 1573]"] ;
310 -> 311 ;
312 [label="customer_age <= 11.5\ngini = 0.374\nsamples = 4297\nvalue = [3226, 1071]"] ;
311 -> 312 ;
313 [label="gini = 0.419\nsamples = 952\nvalue = [667, 285]"] ;
312 -> 313 ;
314 [label="gini = 0.36\nsamples = 3345\nvalue = [2559, 786]"] ;
312 -> 314 ;
315 [label="customer_age <= 9.5\ngini = 0.411\nsamples = 1735\nvalue = [1233, 502]"] ;
311 -> 315 ;
316 [label="gini = 0.364\nsamples = 434\nvalue = [330, 104]"] ;
315 -> 316 ;
317 [label="gini = 0.425\nsamples = 1301\nvalue = [903, 398]"] ;
315 -> 317 ;
318 [label="customer_age <= 3.5\ngini = 0.274\nsamples = 646\nvalue = [540, 106]"] ;
310 -> 318 ;
319 [label="totalBilled <= 2243.61\ngini = 0.355\nsamples = 104\nvalue = [80, 24]"] ;
318 -> 319 ;
320 [label="gini = 0.397\nsamples = 77\nvalue = [56, 21]"] ;
319 -> 320 ;
321 [label="gini = 0.198\nsamples = 27\nvalue = [24, 3]"] ;
319 -> 321 ;
322 [label="customer_age <= 11.5\ngini = 0.257\nsamples = 542\nvalue = [460, 82]"] ;
318 -> 322 ;
323 [label="gini = 0.201\nsamples = 203\nvalue = [180, 23]"] ;
322 -> 323 ;
324 [label="gini = 0.288\nsamples = 339\nvalue = [280, 59]"] ;
322 -> 324 ;
325 [label="totalBilled <= 2730.063\ngini = 0.419\nsamples = 2256\nvalue = [1582, 674]"] ;
309 -> 325 ;
326 [label="customer_age <= 21.5\ngini = 0.409\nsamples = 1954\nvalue = [1393, 561]"] ;
325 -> 326 ;
327 [label="customer_age <= 2.5\ngini = 0.381\nsamples = 1025\nvalue = [762, 263]"] ;
326 -> 327 ;
328 [label="gini = 0.452\nsamples = 55\nvalue = [36, 19]"] ;
327 -> 328 ;
329 [label="gini = 0.377\nsamples = 970\nvalue = [726, 244]"] ;
327 -> 329 ;
330 [label="totalBilled <= 1823.147\ngini = 0.436\nsamples = 929\nvalue = [631, 298]"] ;
326 -> 330 ;
331 [label="gini = 0.451\nsamples = 671\nvalue = [441, 230]"] ;
330 -> 331 ;
332 [label="gini = 0.388\nsamples = 258\nvalue = [190, 68]"] ;
330 -> 332 ;
333 [label="ProductsUsed <= 9.5\ngini = 0.468\nsamples = 302\nvalue = [189, 113]"] ;
325 -> 333 ;
334 [label="customer_age <= 26.5\ngini = 0.434\nsamples = 192\nvalue = [131, 61]"] ;
333 -> 334 ;
335 [label="gini = 0.479\nsamples = 118\nvalue = [71, 47]"] ;
334 -> 335 ;
336 [label="gini = 0.307\nsamples = 74\nvalue = [60, 14]"] ;
334 -> 336 ;
337 [label="totalBilled <= 3531.741\ngini = 0.499\nsamples = 110\nvalue = [58, 52]"] ;
333 -> 337 ;
338 [label="gini = 0.5\nsamples = 90\nvalue = [44, 46]"] ;
337 -> 338 ;
339 [label="gini = 0.42\nsamples = 20\nvalue = [14, 6]"] ;
337 -> 339 ;
340 [label="customer_age <= 13.5\ngini = 0.31\nsamples = 1360\nvalue = [1099, 261]"] ;
308 -> 340 ;
341 [label="customer_age <= 5.5\ngini = 0.363\nsamples = 444\nvalue = [338, 106]"] ;
340 -> 341 ;
342 [label="totalBilled <= 2365.325\ngini = 0.402\nsamples = 140\nvalue = [101, 39]"] ;
341 -> 342 ;
343 [label="totalBilled <= 1717.657\ngini = 0.429\nsamples = 109\nvalue = [75, 34]"] ;
342 -> 343 ;
344 [label="gini = 0.387\nsamples = 84\nvalue = [62, 22]"] ;
343 -> 344 ;
345 [label="gini = 0.499\nsamples = 25\nvalue = [13, 12]"] ;
343 -> 345 ;
346 [label="gini = 0.271\nsamples = 31\nvalue = [26, 5]"] ;
342 -> 346 ;
347 [label="totalBilled <= 1268.877\ngini = 0.344\nsamples = 304\nvalue = [237, 67]"] ;
341 -> 347 ;
348 [label="totalBilled <= 1180.268\ngini = 0.292\nsamples = 107\nvalue = [88, 19]"] ;
347 -> 348 ;
349 [label="gini = 0.369\nsamples = 78\nvalue = [59, 19]"] ;
348 -> 349 ;
350 [label="gini = 0.0\nsamples = 29\nvalue = [29, 0]"] ;
348 -> 350 ;
351 [label="totalBilled <= 1520.756\ngini = 0.369\nsamples = 197\nvalue = [149, 48]"] ;
347 -> 351 ;
352 [label="gini = 0.462\nsamples = 58\nvalue = [37, 21]"] ;
351 -> 352 ;
353 [label="gini = 0.313\nsamples = 139\nvalue = [112, 27]"] ;
351 -> 353 ;
354 [label="totalBilled <= 1238.177\ngini = 0.281\nsamples = 916\nvalue = [761, 155]"] ;
340 -> 354 ;
355 [label="customer_age <= 28.5\ngini = 0.34\nsamples = 221\nvalue = [173, 48]"] ;
354 -> 355 ;
356 [label="customer_age <= 19.5\ngini = 0.397\nsamples = 139\nvalue = [101, 38]"] ;
355 -> 356 ;
357 [label="gini = 0.303\nsamples = 59\nvalue = [48, 11]"] ;
356 -> 357 ;
358 [label="gini = 0.447\nsamples = 80\nvalue = [53, 27]"] ;
356 -> 358 ;
359 [label="customer_age <= 31.5\ngini = 0.214\nsamples = 82\nvalue = [72, 10]"] ;
355 -> 359 ;
360 [label="gini = 0.074\nsamples = 26\nvalue = [25, 1]"] ;
359 -> 360 ;
361 [label="gini = 0.27\nsamples = 56\nvalue = [47, 9]"] ;
359 -> 361 ;
362 [label="totalBilled <= 2052.475\ngini = 0.261\nsamples = 695\nvalue = [588, 107]"] ;
354 -> 362 ;
363 [label="customer_age <= 23.5\ngini = 0.212\nsamples = 406\nvalue = [357, 49]"] ;
362 -> 363 ;
364 [label="gini = 0.263\nsamples = 173\nvalue = [146, 27]"] ;
363 -> 364 ;
365 [label="gini = 0.171\nsamples = 233\nvalue = [211, 22]"] ;
363 -> 365 ;
366 [label="customer_age <= 33.5\ngini = 0.321\nsamples = 289\nvalue = [231, 58]"] ;
362 -> 366 ;
367 [label="gini = 0.281\nsamples = 231\nvalue = [192, 39]"] ;
366 -> 367 ;
368 [label="gini = 0.441\nsamples = 58\nvalue = [39, 19]"] ;
366 -> 368 ;
369 [label="totalBilled <= 1727.285\ngini = 0.333\nsamples = 12855\nvalue = [10141, 2714]"] ;
307 -> 369 ;
370 [label="ProductsUsed <= 9.5\ngini = 0.309\nsamples = 6722\nvalue = [5438, 1284]"] ;
369 -> 370 ;
371 [label="customer_age <= 144.5\ngini = 0.289\nsamples = 4567\nvalue = [3767, 800]"] ;
370 -> 371 ;
372 [label="customer_age <= 117.5\ngini = 0.286\nsamples = 4529\nvalue = [3747, 782]"] ;
371 -> 372 ;
373 [label="customer_age <= 57.5\ngini = 0.292\nsamples = 4298\nvalue = [3534, 764]"] ;
372 -> 373 ;
374 [label="gini = 0.317\nsamples = 1740\nvalue = [1396, 344]"] ;
373 -> 374 ;
375 [label="gini = 0.274\nsamples = 2558\nvalue = [2138, 420]"] ;
373 -> 375 ;
376 [label="Geo_Code <= 0.5\ngini = 0.144\nsamples = 231\nvalue = [213, 18]"] ;
372 -> 376 ;
377 [label="gini = 0.091\nsamples = 167\nvalue = [159, 8]"] ;
376 -> 377 ;
378 [label="gini = 0.264\nsamples = 64\nvalue = [54, 10]"] ;
376 -> 378 ;
379 [label="gini = 0.499\nsamples = 38\nvalue = [20, 18]"] ;
371 -> 379 ;
380 [label="customer_age <= 68.5\ngini = 0.348\nsamples = 2155\nvalue = [1671, 484]"] ;
370 -> 380 ;
381 [label="totalBilled <= 1363.811\ngini = 0.366\nsamples = 1223\nvalue = [928, 295]"] ;
380 -> 381 ;
382 [label="customer_age <= 49.5\ngini = 0.337\nsamples = 731\nvalue = [574, 157]"] ;
381 -> 382 ;
383 [label="gini = 0.292\nsamples = 344\nvalue = [283, 61]"] ;
382 -> 383 ;
384 [label="gini = 0.373\nsamples = 387\nvalue = [291, 96]"] ;
382 -> 384 ;
385 [label="customer_age <= 42.5\ngini = 0.404\nsamples = 492\nvalue = [354, 138]"] ;
381 -> 385 ;
386 [label="gini = 0.285\nsamples = 64\nvalue = [53, 11]"] ;
385 -> 386 ;
387 [label="gini = 0.417\nsamples = 428\nvalue = [301, 127]"] ;
385 -> 387 ;
388 [label="totalBilled <= 1460.036\ngini = 0.323\nsamples = 932\nvalue = [743, 189]"] ;
380 -> 388 ;
389 [label="totalBilled <= 1295.484\ngini = 0.35\nsamples = 640\nvalue = [495, 145]"] ;
388 -> 389 ;
390 [label="gini = 0.319\nsamples = 442\nvalue = [354, 88]"] ;
389 -> 390 ;
391 [label="gini = 0.41\nsamples = 198\nvalue = [141, 57]"] ;
389 -> 391 ;
392 [label="customer_age <= 89.5\ngini = 0.256\nsamples = 292\nvalue = [248, 44]"] ;
388 -> 392 ;
393 [label="gini = 0.176\nsamples = 154\nvalue = [139, 15]"] ;
392 -> 393 ;
394 [label="gini = 0.332\nsamples = 138\nvalue = [109, 29]"] ;
392 -> 394 ;
395 [label="totalBilled <= 1730.747\ngini = 0.358\nsamples = 6133\nvalue = [4703, 1430]"] ;
369 -> 395 ;
396 [label="gini = 0.496\nsamples = 22\nvalue = [10, 12]"] ;
395 -> 396 ;
397 [label="Geo_Code <= 0.5\ngini = 0.356\nsamples = 6111\nvalue = [4693, 1418]"] ;
395 -> 397 ;
398 [label="customer_age <= 84.5\ngini = 0.341\nsamples = 3526\nvalue = [2758, 768]"] ;
397 -> 398 ;
399 [label="customer_age <= 81.5\ngini = 0.355\nsamples = 2435\nvalue = [1874, 561]"] ;
398 -> 399 ;
400 [label="gini = 0.348\nsamples = 2337\nvalue = [1813, 524]"] ;
399 -> 400 ;
401 [label="gini = 0.47\nsamples = 98\nvalue = [61, 37]"] ;
399 -> 401 ;
402 [label="customer_age <= 115.5\ngini = 0.307\nsamples = 1091\nvalue = [884, 207]"] ;
398 -> 402 ;
403 [label="gini = 0.284\nsamples = 777\nvalue = [644, 133]"] ;
402 -> 403 ;
404 [label="gini = 0.36\nsamples = 314\nvalue = [240, 74]"] ;
402 -> 404 ;
405 [label="ProductsUsed <= 9.5\ngini = 0.376\nsamples = 2585\nvalue = [1935, 650]"] ;
397 -> 405 ;
406 [label="customer_age <= 70.5\ngini = 0.357\nsamples = 1639\nvalue = [1257, 382]"] ;
405 -> 406 ;
407 [label="gini = 0.387\nsamples = 984\nvalue = [726, 258]"] ;
406 -> 407 ;
408 [label="gini = 0.307\nsamples = 655\nvalue = [531, 124]"] ;
406 -> 408 ;
409 [label="customer_age <= 63.5\ngini = 0.406\nsamples = 946\nvalue = [678, 268]"] ;
405 -> 409 ;
410 [label="gini = 0.354\nsamples = 500\nvalue = [385, 115]"] ;
409 -> 410 ;
411 [label="gini = 0.451\nsamples = 446\nvalue = [293, 153]"] ;
409 -> 411 ;
412 [label="customer_age <= 64.5\ngini = 0.414\nsamples = 13241\nvalue = [9365, 3876]"] ;
306 -> 412 ;
413 [label="totalBilled <= 2475.562\ngini = 0.427\nsamples = 9421\nvalue = [6511, 2910]"] ;
412 -> 413 ;
414 [label="customer_age <= 50.5\ngini = 0.419\nsamples = 7227\nvalue = [5064, 2163]"] ;
413 -> 414 ;
415 [label="Geo_Code <= 3.5\ngini = 0.426\nsamples = 5818\nvalue = [4029, 1789]"] ;
414 -> 415 ;
416 [label="Geo_Code <= 0.5\ngini = 0.43\nsamples = 5058\nvalue = [3475, 1583]"] ;
415 -> 416 ;
417 [label="customer_age <= 29.5\ngini = 0.417\nsamples = 2551\nvalue = [1795, 756]"] ;
416 -> 417 ;
418 [label="gini = 0.441\nsamples = 1322\nvalue = [889, 433]"] ;
417 -> 418 ;
419 [label="gini = 0.387\nsamples = 1229\nvalue = [906, 323]"] ;
417 -> 419 ;
420 [label="customer_age <= 9.5\ngini = 0.442\nsamples = 2507\nvalue = [1680, 827]"] ;
416 -> 420 ;
421 [label="gini = 0.39\nsamples = 396\nvalue = [291, 105]"] ;
420 -> 421 ;
422 [label="gini = 0.45\nsamples = 2111\nvalue = [1389, 722]"] ;
420 -> 422 ;
423 [label="totalBilled <= 1947.293\ngini = 0.395\nsamples = 760\nvalue = [554, 206]"] ;
415 -> 423 ;
424 [label="totalBilled <= 1129.766\ngini = 0.375\nsamples = 595\nvalue = [446, 149]"] ;
423 -> 424 ;
425 [label="gini = 0.439\nsamples = 132\nvalue = [89, 43]"] ;
424 -> 425 ;
426 [label="gini = 0.353\nsamples = 463\nvalue = [357, 106]"] ;
424 -> 426 ;
427 [label="ProductsUsed <= 11.5\ngini = 0.452\nsamples = 165\nvalue = [108, 57]"] ;
423 -> 427 ;
428 [label="gini = 0.412\nsamples = 93\nvalue = [66, 27]"] ;
427 -> 428 ;
429 [label="gini = 0.486\nsamples = 72\nvalue = [42, 30]"] ;
427 -> 429 ;
430 [label="customer_age <= 57.5\ngini = 0.39\nsamples = 1409\nvalue = [1035, 374]"] ;
414 -> 430 ;
431 [label="totalBilled <= 1908.036\ngini = 0.369\nsamples = 743\nvalue = [562, 181]"] ;
430 -> 431 ;
432 [label="totalBilled <= 1840.752\ngini = 0.345\nsamples = 518\nvalue = [403, 115]"] ;
431 -> 432 ;
433 [label="gini = 0.357\nsamples = 485\nvalue = [372, 113]"] ;
432 -> 433 ;
434 [label="gini = 0.114\nsamples = 33\nvalue = [31, 2]"] ;
432 -> 434 ;
435 [label="totalBilled <= 2142.236\ngini = 0.415\nsamples = 225\nvalue = [159, 66]"] ;
431 -> 435 ;
436 [label="gini = 0.475\nsamples = 98\nvalue = [60, 38]"] ;
435 -> 436 ;
437 [label="gini = 0.344\nsamples = 127\nvalue = [99, 28]"] ;
435 -> 437 ;
438 [label="Geo_Code <= 2.5\ngini = 0.412\nsamples = 666\nvalue = [473, 193]"] ;
430 -> 438 ;
439 [label="totalBilled <= 1072.137\ngini = 0.394\nsamples = 460\nvalue = [336, 124]"] ;
438 -> 439 ;
440 [label="gini = 0.48\nsamples = 40\nvalue = [24, 16]"] ;
439 -> 440 ;
441 [label="gini = 0.382\nsamples = 420\nvalue = [312, 108]"] ;
439 -> 441 ;
442 [label="totalBilled <= 2169.248\ngini = 0.446\nsamples = 206\nvalue = [137, 69]"] ;
438 -> 442 ;
443 [label="gini = 0.469\nsamples = 168\nvalue = [105, 63]"] ;
442 -> 443 ;
444 [label="gini = 0.266\nsamples = 38\nvalue = [32, 6]"] ;
442 -> 444 ;
445 [label="Geo_Code <= 2.5\ngini = 0.449\nsamples = 2194\nvalue = [1447, 747]"] ;
413 -> 445 ;
446 [label="totalBilled <= 2652.003\ngini = 0.43\nsamples = 1443\nvalue = [992, 451]"] ;
445 -> 446 ;
447 [label="totalBilled <= 2565.942\ngini = 0.473\nsamples = 304\nvalue = [187, 117]"] ;
446 -> 447 ;
448 [label="totalBilled <= 2551.738\ngini = 0.434\nsamples = 163\nvalue = [111, 52]"] ;
447 -> 448 ;
449 [label="gini = 0.448\nsamples = 142\nvalue = [94, 48]"] ;
448 -> 449 ;
450 [label="gini = 0.308\nsamples = 21\nvalue = [17, 4]"] ;
448 -> 450 ;
451 [label="customer_age <= 36.5\ngini = 0.497\nsamples = 141\nvalue = [76, 65]"] ;
447 -> 451 ;
452 [label="gini = 0.49\nsamples = 63\nvalue = [27, 36]"] ;
451 -> 452 ;
453 [label="gini = 0.467\nsamples = 78\nvalue = [49, 29]"] ;
451 -> 453 ;
454 [label="totalBilled <= 2719.572\ngini = 0.415\nsamples = 1139\nvalue = [805, 334]"] ;
446 -> 454 ;
455 [label="customer_age <= 18.0\ngini = 0.306\nsamples = 90\nvalue = [73, 17]"] ;
454 -> 455 ;
456 [label="gini = 0.423\nsamples = 23\nvalue = [16, 7]"] ;
455 -> 456 ;
457 [label="gini = 0.254\nsamples = 67\nvalue = [57, 10]"] ;
455 -> 457 ;
458 [label="customer_age <= 36.5\ngini = 0.422\nsamples = 1049\nvalue = [732, 317]"] ;
454 -> 458 ;
459 [label="gini = 0.394\nsamples = 585\nvalue = [427, 158]"] ;
458 -> 459 ;
460 [label="gini = 0.45\nsamples = 464\nvalue = [305, 159]"] ;
458 -> 460 ;
461 [label="Geo_Code <= 5.5\ngini = 0.478\nsamples = 751\nvalue = [455, 296]"] ;
445 -> 461 ;
462 [label="totalBilled <= 2948.941\ngini = 0.493\nsamples = 493\nvalue = [276, 217]"] ;
461 -> 462 ;
463 [label="customer_age <= 21.5\ngini = 0.5\nsamples = 246\nvalue = [125, 121]"] ;
462 -> 463 ;
464 [label="gini = 0.478\nsamples = 86\nvalue = [52, 34]"] ;
463 -> 464 ;
465 [label="gini = 0.496\nsamples = 160\nvalue = [73, 87]"] ;
463 -> 465 ;
466 [label="customer_age <= 43.5\ngini = 0.475\nsamples = 247\nvalue = [151, 96]"] ;
462 -> 466 ;
467 [label="gini = 0.453\nsamples = 176\nvalue = [115, 61]"] ;
466 -> 467 ;
468 [label="gini = 0.5\nsamples = 71\nvalue = [36, 35]"] ;
466 -> 468 ;
469 [label="customer_age <= 30.5\ngini = 0.425\nsamples = 258\nvalue = [179, 79]"] ;
461 -> 469 ;
470 [label="customer_age <= 20.5\ngini = 0.469\nsamples = 104\nvalue = [65, 39]"] ;
469 -> 470 ;
471 [label="gini = 0.408\nsamples = 63\nvalue = [45, 18]"] ;
470 -> 471 ;
472 [label="gini = 0.5\nsamples = 41\nvalue = [20, 21]"] ;
470 -> 472 ;
473 [label="totalBilled <= 3580.296\ngini = 0.385\nsamples = 154\nvalue = [114, 40]"] ;
469 -> 473 ;
474 [label="gini = 0.348\nsamples = 134\nvalue = [104, 30]"] ;
473 -> 474 ;
475 [label="gini = 0.5\nsamples = 20\nvalue = [10, 10]"] ;
473 -> 475 ;
476 [label="totalBilled <= 2109.8\ngini = 0.378\nsamples = 3820\nvalue = [2854, 966]"] ;
412 -> 476 ;
477 [label="totalBilled <= 1773.609\ngini = 0.361\nsamples = 2368\nvalue = [1808, 560]"] ;
476 -> 477 ;
478 [label="totalBilled <= 1018.32\ngini = 0.374\nsamples = 1856\nvalue = [1394, 462]"] ;
477 -> 478 ;
479 [label="ProductsUsed <= 11.5\ngini = 0.216\nsamples = 73\nvalue = [64, 9]"] ;
478 -> 479 ;
480 [label="customer_age <= 85.5\ngini = 0.049\nsamples = 40\nvalue = [39, 1]"] ;
479 -> 480 ;
481 [label="gini = 0.0\nsamples = 20\nvalue = [20, 0]"] ;
480 -> 481 ;
482 [label="gini = 0.095\nsamples = 20\nvalue = [19, 1]"] ;
480 -> 482 ;
483 [label="gini = 0.367\nsamples = 33\nvalue = [25, 8]"] ;
479 -> 483 ;
484 [label="totalBilled <= 1728.94\ngini = 0.379\nsamples = 1783\nvalue = [1330, 453]"] ;
478 -> 484 ;
485 [label="totalBilled <= 1593.678\ngini = 0.375\nsamples = 1701\nvalue = [1276, 425]"] ;
484 -> 485 ;
486 [label="gini = 0.381\nsamples = 1451\nvalue = [1079, 372]"] ;
485 -> 486 ;
487 [label="gini = 0.334\nsamples = 250\nvalue = [197, 53]"] ;
485 -> 487 ;
488 [label="ProductsUsed <= 11.5\ngini = 0.45\nsamples = 82\nvalue = [54, 28]"] ;
484 -> 488 ;
489 [label="gini = 0.489\nsamples = 47\nvalue = [27, 20]"] ;
488 -> 489 ;
490 [label="gini = 0.353\nsamples = 35\nvalue = [27, 8]"] ;
488 -> 490 ;
491 [label="customer_age <= 69.5\ngini = 0.31\nsamples = 512\nvalue = [414, 98]"] ;
477 -> 491 ;
492 [label="Geo_Code <= 0.5\ngini = 0.419\nsamples = 67\nvalue = [47, 20]"] ;
491 -> 492 ;
493 [label="totalBilled <= 1900.266\ngini = 0.289\nsamples = 40\nvalue = [33, 7]"] ;
492 -> 493 ;
494 [label="gini = 0.255\nsamples = 20\nvalue = [17, 3]"] ;
493 -> 494 ;
495 [label="gini = 0.32\nsamples = 20\nvalue = [16, 4]"] ;
493 -> 495 ;
496 [label="gini = 0.499\nsamples = 27\nvalue = [14, 13]"] ;
492 -> 496 ;
497 [label="totalBilled <= 1802.325\ngini = 0.289\nsamples = 445\nvalue = [367, 78]"] ;
491 -> 497 ;
498 [label="customer_age <= 86.5\ngini = 0.117\nsamples = 48\nvalue = [45, 3]"] ;
497 -> 498 ;
499 [label="gini = 0.069\nsamples = 28\nvalue = [27, 1]"] ;
498 -> 499 ;
500 [label="gini = 0.18\nsamples = 20\nvalue = [18, 2]"] ;
498 -> 500 ;
501 [label="totalBilled <= 1998.164\ngini = 0.306\nsamples = 397\nvalue = [322, 75]"] ;
497 -> 501 ;
502 [label="gini = 0.343\nsamples = 264\nvalue = [206, 58]"] ;
501 -> 502 ;
503 [label="gini = 0.223\nsamples = 133\nvalue = [116, 17]"] ;
501 -> 503 ;
504 [label="Geo_Code <= 0.5\ngini = 0.403\nsamples = 1452\nvalue = [1046, 406]"] ;
476 -> 504 ;
505 [label="customer_age <= 70.5\ngini = 0.375\nsamples = 847\nvalue = [635, 212]"] ;
504 -> 505 ;
506 [label="customer_age <= 67.5\ngini = 0.179\nsamples = 121\nvalue = [109, 12]"] ;
505 -> 506 ;
507 [label="totalBilled <= 3121.321\ngini = 0.256\nsamples = 53\nvalue = [45, 8]"] ;
506 -> 507 ;
508 [label="gini = 0.35\nsamples = 31\nvalue = [24, 7]"] ;
507 -> 508 ;
509 [label="gini = 0.087\nsamples = 22\nvalue = [21, 1]"] ;
507 -> 509 ;
510 [label="ProductsUsed <= 11.5\ngini = 0.111\nsamples = 68\nvalue = [64, 4]"] ;
506 -> 510 ;
511 [label="gini = 0.059\nsamples = 33\nvalue = [32, 1]"] ;
510 -> 511 ;
512 [label="gini = 0.157\nsamples = 35\nvalue = [32, 3]"] ;
510 -> 512 ;
513 [label="customer_age <= 105.5\ngini = 0.399\nsamples = 726\nvalue = [526, 200]"] ;
505 -> 513 ;
514 [label="customer_age <= 92.5\ngini = 0.376\nsamples = 506\nvalue = [379, 127]"] ;
513 -> 514 ;
515 [label="gini = 0.398\nsamples = 375\nvalue = [272, 103]"] ;
514 -> 515 ;
516 [label="gini = 0.299\nsamples = 131\nvalue = [107, 24]"] ;
514 -> 516 ;
517 [label="totalBilled <= 3399.011\ngini = 0.443\nsamples = 220\nvalue = [147, 73]"] ;
513 -> 517 ;
518 [label="gini = 0.422\nsamples = 185\nvalue = [129, 56]"] ;
517 -> 518 ;
519 [label="gini = 0.5\nsamples = 35\nvalue = [18, 17]"] ;
517 -> 519 ;
520 [label="totalBilled <= 2559.333\ngini = 0.436\nsamples = 605\nvalue = [411, 194]"] ;
504 -> 520 ;
521 [label="customer_age <= 74.5\ngini = 0.474\nsamples = 225\nvalue = [138, 87]"] ;
520 -> 521 ;
522 [label="totalBilled <= 2366.371\ngini = 0.5\nsamples = 60\nvalue = [30, 30]"] ;
521 -> 522 ;
523 [label="gini = 0.491\nsamples = 37\nvalue = [16, 21]"] ;
522 -> 523 ;
524 [label="gini = 0.476\nsamples = 23\nvalue = [14, 9]"] ;
522 -> 524 ;
525 [label="customer_age <= 80.5\ngini = 0.452\nsamples = 165\nvalue = [108, 57]"] ;
521 -> 525 ;
526 [label="gini = 0.255\nsamples = 40\nvalue = [34, 6]"] ;
525 -> 526 ;
527 [label="gini = 0.483\nsamples = 125\nvalue = [74, 51]"] ;
525 -> 527 ;
528 [label="totalBilled <= 3235.67\ngini = 0.405\nsamples = 380\nvalue = [273, 107]"] ;
520 -> 528 ;
529 [label="customer_age <= 68.5\ngini = 0.361\nsamples = 262\nvalue = [200, 62]"] ;
528 -> 529 ;
530 [label="gini = 0.48\nsamples = 30\nvalue = [18, 12]"] ;
529 -> 530 ;
531 [label="gini = 0.338\nsamples = 232\nvalue = [182, 50]"] ;
529 -> 531 ;
532 [label="totalBilled <= 3320.228\ngini = 0.472\nsamples = 118\nvalue = [73, 45]"] ;
528 -> 532 ;
533 [label="gini = 0.499\nsamples = 23\nvalue = [11, 12]"] ;
532 -> 533 ;
534 [label="gini = 0.453\nsamples = 95\nvalue = [62, 33]"] ;
532 -> 534 ;
535 [label="totalBilled <= 11697.969\ngini = 0.455\nsamples = 11664\nvalue = [7575, 4089]"] ;
305 -> 535 ;
536 [label="customer_age <= 75.5\ngini = 0.445\nsamples = 9688\nvalue = [6457, 3231]"] ;
535 -> 536 ;
537 [label="Geo_Code <= 2.5\ngini = 0.456\nsamples = 7453\nvalue = [4837, 2616]"] ;
536 -> 537 ;
538 [label="Geo_Code <= 1.5\ngini = 0.446\nsamples = 5377\nvalue = [3573, 1804]"] ;
537 -> 538 ;
539 [label="Geo_Code <= 0.5\ngini = 0.458\nsamples = 4793\nvalue = [3087, 1706]"] ;
538 -> 539 ;
540 [label="customer_age <= 6.5\ngini = 0.451\nsamples = 3732\nvalue = [2452, 1280]"] ;
539 -> 540 ;
541 [label="totalBilled <= 5595.775\ngini = 0.497\nsamples = 147\nvalue = [79, 68]"] ;
540 -> 541 ;
542 [label="gini = 0.473\nsamples = 78\nvalue = [48, 30]"] ;
541 -> 542 ;
543 [label="gini = 0.495\nsamples = 69\nvalue = [31, 38]"] ;
541 -> 543 ;
544 [label="totalBilled <= 8191.105\ngini = 0.448\nsamples = 3585\nvalue = [2373, 1212]"] ;
540 -> 544 ;
545 [label="gini = 0.441\nsamples = 2920\nvalue = [1962, 958]"] ;
544 -> 545 ;
546 [label="gini = 0.472\nsamples = 665\nvalue = [411, 254]"] ;
544 -> 546 ;
547 [label="customer_age <= 12.5\ngini = 0.481\nsamples = 1061\nvalue = [635, 426]"] ;
539 -> 547 ;
548 [label="totalBilled <= 6033.019\ngini = 0.406\nsamples = 219\nvalue = [157, 62]"] ;
547 -> 548 ;
549 [label="gini = 0.339\nsamples = 134\nvalue = [105, 29]"] ;
548 -> 549 ;
550 [label="gini = 0.475\nsamples = 85\nvalue = [52, 33]"] ;
548 -> 550 ;
551 [label="ProductsUsed <= 11.5\ngini = 0.491\nsamples = 842\nvalue = [478, 364]"] ;
547 -> 551 ;
552 [label="gini = 0.481\nsamples = 661\nvalue = [395, 266]"] ;
551 -> 552 ;
553 [label="gini = 0.497\nsamples = 181\nvalue = [83, 98]"] ;
551 -> 553 ;
554 [label="customer_age <= 57.5\ngini = 0.279\nsamples = 584\nvalue = [486, 98]"] ;
538 -> 554 ;
555 [label="customer_age <= 30.5\ngini = 0.269\nsamples = 555\nvalue = [466, 89]"] ;
554 -> 555 ;
556 [label="customer_age <= 25.5\ngini = 0.306\nsamples = 376\nvalue = [305, 71]"] ;
555 -> 556 ;
557 [label="gini = 0.274\nsamples = 330\nvalue = [276, 54]"] ;
556 -> 557 ;
558 [label="gini = 0.466\nsamples = 46\nvalue = [29, 17]"] ;
556 -> 558 ;
559 [label="totalBilled <= 10345.475\ngini = 0.181\nsamples = 179\nvalue = [161, 18]"] ;
555 -> 559 ;
560 [label="gini = 0.15\nsamples = 159\nvalue = [146, 13]"] ;
559 -> 560 ;
561 [label="gini = 0.375\nsamples = 20\nvalue = [15, 5]"] ;
559 -> 561 ;
562 [label="gini = 0.428\nsamples = 29\nvalue = [20, 9]"] ;
554 -> 562 ;
563 [label="Geo_Code <= 5.5\ngini = 0.476\nsamples = 2076\nvalue = [1264, 812]"] ;
537 -> 563 ;
564 [label="ProductsUsed <= 8.5\ngini = 0.489\nsamples = 1321\nvalue = [760, 561]"] ;
563 -> 564 ;
565 [label="customer_age <= 56.5\ngini = 0.45\nsamples = 211\nvalue = [139, 72]"] ;
564 -> 565 ;
566 [label="customer_age <= 45.5\ngini = 0.469\nsamples = 152\nvalue = [95, 57]"] ;
565 -> 566 ;
567 [label="gini = 0.419\nsamples = 114\nvalue = [80, 34]"] ;
566 -> 567 ;
568 [label="gini = 0.478\nsamples = 38\nvalue = [15, 23]"] ;
566 -> 568 ;
569 [label="customer_age <= 69.5\ngini = 0.379\nsamples = 59\nvalue = [44, 15]"] ;
565 -> 569 ;
570 [label="gini = 0.301\nsamples = 38\nvalue = [31, 7]"] ;
569 -> 570 ;
571 [label="gini = 0.472\nsamples = 21\nvalue = [13, 8]"] ;
569 -> 571 ;
572 [label="customer_age <= 68.5\ngini = 0.493\nsamples = 1110\nvalue = [621, 489]"] ;
564 -> 572 ;
573 [label="totalBilled <= 4084.166\ngini = 0.495\nsamples = 1014\nvalue = [557, 457]"] ;
572 -> 573 ;
574 [label="gini = 0.498\nsamples = 131\nvalue = [61, 70]"] ;
573 -> 574 ;
575 [label="gini = 0.492\nsamples = 883\nvalue = [496, 387]"] ;
573 -> 575 ;
576 [label="totalBilled <= 4842.214\ngini = 0.444\nsamples = 96\nvalue = [64, 32]"] ;
572 -> 576 ;
577 [label="gini = 0.357\nsamples = 43\nvalue = [33, 10]"] ;
576 -> 577 ;
578 [label="gini = 0.486\nsamples = 53\nvalue = [31, 22]"] ;
576 -> 578 ;
579 [label="customer_age <= 7.5\ngini = 0.444\nsamples = 755\nvalue = [504, 251]"] ;
563 -> 579 ;
580 [label="customer_age <= 3.5\ngini = 0.496\nsamples = 53\nvalue = [24, 29]"] ;
579 -> 580 ;
581 [label="gini = 0.469\nsamples = 24\nvalue = [15, 9]"] ;
580 -> 581 ;
582 [label="gini = 0.428\nsamples = 29\nvalue = [9, 20]"] ;
580 -> 582 ;
583 [label="customer_age <= 59.5\ngini = 0.432\nsamples = 702\nvalue = [480, 222]"] ;
579 -> 583 ;
584 [label="totalBilled <= 6015.131\ngini = 0.418\nsamples = 574\nvalue = [403, 171]"] ;
583 -> 584 ;
585 [label="gini = 0.444\nsamples = 363\nvalue = [242, 121]"] ;
584 -> 585 ;
586 [label="gini = 0.362\nsamples = 211\nvalue = [161, 50]"] ;
584 -> 586 ;
587 [label="totalBilled <= 7634.022\ngini = 0.479\nsamples = 128\nvalue = [77, 51]"] ;
583 -> 587 ;
588 [label="gini = 0.431\nsamples = 102\nvalue = [70, 32]"] ;
587 -> 588 ;
589 [label="gini = 0.393\nsamples = 26\nvalue = [7, 19]"] ;
587 -> 589 ;
590 [label="Geo_Code <= 5.5\ngini = 0.399\nsamples = 2235\nvalue = [1620, 615]"] ;
536 -> 590 ;
591 [label="totalBilled <= 5033.512\ngini = 0.406\nsamples = 2125\nvalue = [1524, 601]"] ;
590 -> 591 ;
592 [label="customer_age <= 145.5\ngini = 0.377\nsamples = 765\nvalue = [572, 193]"] ;
591 -> 592 ;
593 [label="customer_age <= 85.5\ngini = 0.383\nsamples = 736\nvalue = [546, 190]"] ;
592 -> 593 ;
594 [label="totalBilled <= 4203.688\ngini = 0.339\nsamples = 236\nvalue = [185, 51]"] ;
593 -> 594 ;
595 [label="gini = 0.421\nsamples = 93\nvalue = [65, 28]"] ;
594 -> 595 ;
596 [label="gini = 0.27\nsamples = 143\nvalue = [120, 23]"] ;
594 -> 596 ;
597 [label="customer_age <= 88.5\ngini = 0.401\nsamples = 500\nvalue = [361, 139]"] ;
593 -> 597 ;
598 [label="gini = 0.497\nsamples = 48\nvalue = [26, 22]"] ;
597 -> 598 ;
599 [label="gini = 0.384\nsamples = 452\nvalue = [335, 117]"] ;
597 -> 599 ;
600 [label="gini = 0.185\nsamples = 29\nvalue = [26, 3]"] ;
592 -> 600 ;
601 [label="totalBilled <= 5106.016\ngini = 0.42\nsamples = 1360\nvalue = [952, 408]"] ;
591 -> 601 ;
602 [label="gini = 0.496\nsamples = 35\nvalue = [16, 19]"] ;
601 -> 602 ;
603 [label="totalBilled <= 5582.455\ngini = 0.415\nsamples = 1325\nvalue = [936, 389]"] ;
601 -> 603 ;
604 [label="ProductsUsed <= 9.5\ngini = 0.451\nsamples = 198\nvalue = [130, 68]"] ;
603 -> 604 ;
605 [label="gini = 0.389\nsamples = 72\nvalue = [53, 19]"] ;
604 -> 605 ;
606 [label="gini = 0.475\nsamples = 126\nvalue = [77, 49]"] ;
604 -> 606 ;
607 [label="customer_age <= 80.5\ngini = 0.407\nsamples = 1127\nvalue = [806, 321]"] ;
603 -> 607 ;
608 [label="gini = 0.364\nsamples = 188\nvalue = [143, 45]"] ;
607 -> 608 ;
609 [label="gini = 0.415\nsamples = 939\nvalue = [663, 276]"] ;
607 -> 609 ;
610 [label="totalBilled <= 5783.977\ngini = 0.222\nsamples = 110\nvalue = [96, 14]"] ;
590 -> 610 ;
611 [label="customer_age <= 85.5\ngini = 0.289\nsamples = 57\nvalue = [47, 10]"] ;
610 -> 611 ;
612 [label="gini = 0.413\nsamples = 24\nvalue = [17, 7]"] ;
611 -> 612 ;
613 [label="gini = 0.165\nsamples = 33\nvalue = [30, 3]"] ;
611 -> 613 ;
614 [label="totalBilled <= 7969.28\ngini = 0.14\nsamples = 53\nvalue = [49, 4]"] ;
610 -> 614 ;
615 [label="gini = 0.0\nsamples = 26\nvalue = [26, 0]"] ;
614 -> 615 ;
616 [label="gini = 0.252\nsamples = 27\nvalue = [23, 4]"] ;
614 -> 616 ;
617 [label="Geo_Code <= 1.5\ngini = 0.491\nsamples = 1976\nvalue = [1118, 858]"] ;
535 -> 617 ;
618 [label="totalBilled <= 38092.809\ngini = 0.498\nsamples = 1323\nvalue = [700, 623]"] ;
617 -> 618 ;
619 [label="customer_age <= 61.5\ngini = 0.497\nsamples = 1233\nvalue = [668, 565]"] ;
618 -> 619 ;
620 [label="totalBilled <= 14543.925\ngini = 0.5\nsamples = 725\nvalue = [362, 363]"] ;
619 -> 620 ;
621 [label="totalBilled <= 12197.355\ngini = 0.495\nsamples = 275\nvalue = [151, 124]"] ;
620 -> 621 ;
622 [label="customer_age <= 34.5\ngini = 0.48\nsamples = 55\nvalue = [22, 33]"] ;
621 -> 622 ;
623 [label="gini = 0.375\nsamples = 28\nvalue = [7, 21]"] ;
622 -> 623 ;
624 [label="gini = 0.494\nsamples = 27\nvalue = [15, 12]"] ;
622 -> 624 ;
625 [label="totalBilled <= 12450.517\ngini = 0.485\nsamples = 220\nvalue = [129, 91]"] ;
621 -> 625 ;
626 [label="gini = 0.346\nsamples = 27\nvalue = [21, 6]"] ;
625 -> 626 ;
627 [label="gini = 0.493\nsamples = 193\nvalue = [108, 85]"] ;
625 -> 627 ;
628 [label="customer_age <= 26.5\ngini = 0.498\nsamples = 450\nvalue = [211, 239]"] ;
620 -> 628 ;
629 [label="customer_age <= 14.5\ngini = 0.481\nsamples = 154\nvalue = [62, 92]"] ;
628 -> 629 ;
630 [label="gini = 0.499\nsamples = 67\nvalue = [35, 32]"] ;
629 -> 630 ;
631 [label="gini = 0.428\nsamples = 87\nvalue = [27, 60]"] ;
629 -> 631 ;
632 [label="customer_age <= 41.5\ngini = 0.5\nsamples = 296\nvalue = [149, 147]"] ;
628 -> 632 ;
633 [label="gini = 0.489\nsamples = 99\nvalue = [57, 42]"] ;
632 -> 633 ;
634 [label="gini = 0.498\nsamples = 197\nvalue = [92, 105]"] ;
632 -> 634 ;
635 [label="totalBilled <= 20933.865\ngini = 0.479\nsamples = 508\nvalue = [306, 202]"] ;
619 -> 635 ;
636 [label="ProductsUsed <= 10.5\ngini = 0.49\nsamples = 362\nvalue = [206, 156]"] ;
635 -> 636 ;
637 [label="customer_age <= 70.5\ngini = 0.467\nsamples = 199\nvalue = [125, 74]"] ;
636 -> 637 ;
638 [label="gini = 0.315\nsamples = 51\nvalue = [41, 10]"] ;
637 -> 638 ;
639 [label="gini = 0.491\nsamples = 148\nvalue = [84, 64]"] ;
637 -> 639 ;
640 [label="totalBilled <= 13191.705\ngini = 0.5\nsamples = 163\nvalue = [81, 82]"] ;
636 -> 640 ;
641 [label="gini = 0.481\nsamples = 72\nvalue = [29, 43]"] ;
640 -> 641 ;
642 [label="gini = 0.49\nsamples = 91\nvalue = [52, 39]"] ;
640 -> 642 ;
643 [label="customer_age <= 71.5\ngini = 0.432\nsamples = 146\nvalue = [100, 46]"] ;
635 -> 643 ;
644 [label="gini = 0.5\nsamples = 33\nvalue = [17, 16]"] ;
643 -> 644 ;
645 [label="customer_age <= 111.5\ngini = 0.39\nsamples = 113\nvalue = [83, 30]"] ;
643 -> 645 ;
646 [label="gini = 0.422\nsamples = 86\nvalue = [60, 26]"] ;
645 -> 646 ;
647 [label="gini = 0.252\nsamples = 27\nvalue = [23, 4]"] ;
645 -> 647 ;
648 [label="customer_age <= 27.5\ngini = 0.458\nsamples = 90\nvalue = [32, 58]"] ;
618 -> 648 ;
649 [label="gini = 0.255\nsamples = 20\nvalue = [3, 17]"] ;
648 -> 649 ;
650 [label="customer_age <= 52.5\ngini = 0.485\nsamples = 70\nvalue = [29, 41]"] ;
648 -> 650 ;
651 [label="gini = 0.455\nsamples = 20\nvalue = [13, 7]"] ;
650 -> 651 ;
652 [label="totalBilled <= 51564.371\ngini = 0.435\nsamples = 50\nvalue = [16, 34]"] ;
650 -> 652 ;
653 [label="gini = 0.366\nsamples = 29\nvalue = [7, 22]"] ;
652 -> 653 ;
654 [label="gini = 0.49\nsamples = 21\nvalue = [9, 12]"] ;
652 -> 654 ;
655 [label="Geo_Code <= 2.5\ngini = 0.461\nsamples = 653\nvalue = [418, 235]"] ;
617 -> 655 ;
656 [label="totalBilled <= 34505.576\ngini = 0.316\nsamples = 219\nvalue = [176, 43]"] ;
655 -> 656 ;
657 [label="totalBilled <= 13234.57\ngini = 0.352\nsamples = 180\nvalue = [139, 41]"] ;
656 -> 657 ;
658 [label="customer_age <= 38.0\ngini = 0.124\nsamples = 45\nvalue = [42, 3]"] ;
657 -> 658 ;
659 [label="gini = 0.077\nsamples = 25\nvalue = [24, 1]"] ;
658 -> 659 ;
660 [label="gini = 0.18\nsamples = 20\nvalue = [18, 2]"] ;
658 -> 660 ;
661 [label="customer_age <= 35.5\ngini = 0.404\nsamples = 135\nvalue = [97, 38]"] ;
657 -> 661 ;
662 [label="customer_age <= 13.5\ngini = 0.339\nsamples = 88\nvalue = [69, 19]"] ;
661 -> 662 ;
663 [label="gini = 0.477\nsamples = 28\nvalue = [17, 11]"] ;
662 -> 663 ;
664 [label="gini = 0.231\nsamples = 60\nvalue = [52, 8]"] ;
662 -> 664 ;
665 [label="ProductsUsed <= 9.5\ngini = 0.482\nsamples = 47\nvalue = [28, 19]"] ;
661 -> 665 ;
666 [label="gini = 0.435\nsamples = 25\nvalue = [17, 8]"] ;
665 -> 666 ;
667 [label="gini = 0.5\nsamples = 22\nvalue = [11, 11]"] ;
665 -> 667 ;
668 [label="gini = 0.097\nsamples = 39\nvalue = [37, 2]"] ;
656 -> 668 ;
669 [label="totalBilled <= 19944.485\ngini = 0.493\nsamples = 434\nvalue = [242, 192]"] ;
655 -> 669 ;
670 [label="customer_age <= 71.5\ngini = 0.479\nsamples = 296\nvalue = [178, 118]"] ;
669 -> 670 ;
671 [label="customer_age <= 28.5\ngini = 0.495\nsamples = 205\nvalue = [113, 92]"] ;
670 -> 671 ;
672 [label="customer_age <= 18.5\ngini = 0.454\nsamples = 92\nvalue = [60, 32]"] ;
671 -> 672 ;
673 [label="gini = 0.49\nsamples = 58\nvalue = [33, 25]"] ;
672 -> 673 ;
674 [label="gini = 0.327\nsamples = 34\nvalue = [27, 7]"] ;
672 -> 674 ;
675 [label="customer_age <= 45.0\ngini = 0.498\nsamples = 113\nvalue = [53, 60]"] ;
671 -> 675 ;
676 [label="gini = 0.408\nsamples = 35\nvalue = [10, 25]"] ;
675 -> 676 ;
677 [label="gini = 0.495\nsamples = 78\nvalue = [43, 35]"] ;
675 -> 677 ;
678 [label="customer_age <= 97.5\ngini = 0.408\nsamples = 91\nvalue = [65, 26]"] ;
670 -> 678 ;
679 [label="totalBilled <= 13893.175\ngini = 0.299\nsamples = 60\nvalue = [49, 11]"] ;
678 -> 679 ;
680 [label="gini = 0.413\nsamples = 24\nvalue = [17, 7]"] ;
679 -> 680 ;
681 [label="gini = 0.198\nsamples = 36\nvalue = [32, 4]"] ;
679 -> 681 ;
682 [label="gini = 0.499\nsamples = 31\nvalue = [16, 15]"] ;
678 -> 682 ;
683 [label="customer_age <= 54.5\ngini = 0.497\nsamples = 138\nvalue = [64, 74]"] ;
669 -> 683 ;
684 [label="totalBilled <= 27543.502\ngini = 0.47\nsamples = 74\nvalue = [28, 46]"] ;
683 -> 684 ;
685 [label="totalBilled <= 23573.553\ngini = 0.393\nsamples = 41\nvalue = [11, 30]"] ;
684 -> 685 ;
686 [label="gini = 0.455\nsamples = 20\nvalue = [7, 13]"] ;
685 -> 686 ;
687 [label="gini = 0.308\nsamples = 21\nvalue = [4, 17]"] ;
685 -> 687 ;
688 [label="gini = 0.5\nsamples = 33\nvalue = [17, 16]"] ;
684 -> 688 ;
689 [label="customer_age <= 89.0\ngini = 0.492\nsamples = 64\nvalue = [36, 28]"] ;
683 -> 689 ;
690 [label="ProductsUsed <= 10.5\ngini = 0.449\nsamples = 44\nvalue = [29, 15]"] ;
689 -> 690 ;
691 [label="gini = 0.496\nsamples = 22\nvalue = [12, 10]"] ;
690 -> 691 ;
692 [label="gini = 0.351\nsamples = 22\nvalue = [17, 5]"] ;
690 -> 692 ;
693 [label="gini = 0.455\nsamples = 20\nvalue = [7, 13]"] ;
689 -> 693 ;
694 [label="ProductsUsed <= 19.5\ngini = 0.498\nsamples = 54710\nvalue = [29245, 25465]"] ;
0 -> 694 [labeldistance=2.5, labelangle=-45, headlabel="False"] ;
695 [label="totalBilled <= 9299.139\ngini = 0.484\nsamples = 39579\nvalue = [23320, 16259]"] ;
694 -> 695 ;
696 [label="ProductsUsed <= 15.5\ngini = 0.475\nsamples = 34018\nvalue = [20820, 13198]"] ;
695 -> 696 ;
697 [label="totalBilled <= 2505.436\ngini = 0.46\nsamples = 19189\nvalue = [12297, 6892]"] ;
696 -> 697 ;
698 [label="Geo_Code <= 0.5\ngini = 0.446\nsamples = 10444\nvalue = [6944, 3500]"] ;
697 -> 698 ;
699 [label="customer_age <= 35.5\ngini = 0.427\nsamples = 4862\nvalue = [3361, 1501]"] ;
698 -> 699 ;
700 [label="ProductsUsed <= 14.5\ngini = 0.448\nsamples = 1815\nvalue = [1200, 615]"] ;
699 -> 700 ;
701 [label="totalBilled <= 1022.968\ngini = 0.437\nsamples = 1328\nvalue = [899, 429]"] ;
700 -> 701 ;
702 [label="gini = 0.301\nsamples = 38\nvalue = [31, 7]"] ;
701 -> 702 ;
703 [label="totalBilled <= 1031.101\ngini = 0.44\nsamples = 1290\nvalue = [868, 422]"] ;
701 -> 703 ;
704 [label="gini = 0.495\nsamples = 20\nvalue = [9, 11]"] ;
703 -> 704 ;
705 [label="gini = 0.438\nsamples = 1270\nvalue = [859, 411]"] ;
703 -> 705 ;
706 [label="totalBilled <= 2082.523\ngini = 0.472\nsamples = 487\nvalue = [301, 186]"] ;
700 -> 706 ;
707 [label="totalBilled <= 1052.372\ngini = 0.458\nsamples = 406\nvalue = [262, 144]"] ;
706 -> 707 ;
708 [label="gini = 0.454\nsamples = 23\nvalue = [8, 15]"] ;
707 -> 708 ;
709 [label="gini = 0.447\nsamples = 383\nvalue = [254, 129]"] ;
707 -> 709 ;
710 [label="totalBilled <= 2371.621\ngini = 0.499\nsamples = 81\nvalue = [39, 42]"] ;
706 -> 710 ;
711 [label="gini = 0.484\nsamples = 61\nvalue = [25, 36]"] ;
710 -> 711 ;
712 [label="gini = 0.42\nsamples = 20\nvalue = [14, 6]"] ;
710 -> 712 ;
713 [label="totalBilled <= 1783.471\ngini = 0.412\nsamples = 3047\nvalue = [2161, 886]"] ;
699 -> 713 ;
714 [label="customer_age <= 40.5\ngini = 0.392\nsamples = 1859\nvalue = [1361, 498]"] ;
713 -> 714 ;
715 [label="totalBilled <= 1536.955\ngini = 0.296\nsamples = 205\nvalue = [168, 37]"] ;
714 -> 715 ;
716 [label="gini = 0.26\nsamples = 156\nvalue = [132, 24]"] ;
715 -> 716 ;
717 [label="gini = 0.39\nsamples = 49\nvalue = [36, 13]"] ;
715 -> 717 ;
718 [label="totalBilled <= 1758.052\ngini = 0.402\nsamples = 1654\nvalue = [1193, 461]"] ;
714 -> 718 ;
719 [label="gini = 0.406\nsamples = 1616\nvalue = [1159, 457]"] ;
718 -> 719 ;
720 [label="gini = 0.188\nsamples = 38\nvalue = [34, 4]"] ;
718 -> 720 ;
721 [label="totalBilled <= 2288.574\ngini = 0.44\nsamples = 1188\nvalue = [800, 388]"] ;
713 -> 721 ;
722 [label="ProductsUsed <= 13.5\ngini = 0.456\nsamples = 904\nvalue = [586, 318]"] ;
721 -> 722 ;
723 [label="gini = 0.42\nsamples = 377\nvalue = [264, 113]"] ;
722 -> 723 ;
724 [label="gini = 0.475\nsamples = 527\nvalue = [322, 205]"] ;
722 -> 724 ;
725 [label="customer_age <= 45.5\ngini = 0.371\nsamples = 284\nvalue = [214, 70]"] ;
721 -> 725 ;
726 [label="gini = 0.241\nsamples = 50\nvalue = [43, 7]"] ;
725 -> 726 ;
727 [label="gini = 0.393\nsamples = 234\nvalue = [171, 63]"] ;
725 -> 727 ;
728 [label="Geo_Code <= 3.5\ngini = 0.46\nsamples = 5582\nvalue = [3583, 1999]"] ;
698 -> 728 ;
729 [label="totalBilled <= 1098.815\ngini = 0.466\nsamples = 4466\nvalue = [2812, 1654]"] ;
728 -> 729 ;
730 [label="customer_age <= 50.5\ngini = 0.429\nsamples = 498\nvalue = [343, 155]"] ;
729 -> 730 ;
731 [label="Geo_Code <= 2.5\ngini = 0.461\nsamples = 299\nvalue = [191, 108]"] ;
730 -> 731 ;
732 [label="gini = 0.41\nsamples = 125\nvalue = [89, 36]"] ;
731 -> 732 ;
733 [label="gini = 0.485\nsamples = 174\nvalue = [102, 72]"] ;
731 -> 733 ;
734 [label="ProductsUsed <= 14.5\ngini = 0.361\nsamples = 199\nvalue = [152, 47]"] ;
730 -> 734 ;
735 [label="gini = 0.306\nsamples = 138\nvalue = [112, 26]"] ;
734 -> 735 ;
736 [label="gini = 0.451\nsamples = 61\nvalue = [40, 21]"] ;
734 -> 736 ;
737 [label="customer_age <= 138.5\ngini = 0.47\nsamples = 3968\nvalue = [2469, 1499]"] ;
729 -> 737 ;
738 [label="customer_age <= 104.5\ngini = 0.469\nsamples = 3946\nvalue = [2462, 1484]"] ;
737 -> 738 ;
739 [label="gini = 0.472\nsamples = 3775\nvalue = [2338, 1437]"] ;
738 -> 739 ;
740 [label="gini = 0.399\nsamples = 171\nvalue = [124, 47]"] ;
738 -> 740 ;
741 [label="gini = 0.434\nsamples = 22\nvalue = [7, 15]"] ;
737 -> 741 ;
742 [label="customer_age <= 77.5\ngini = 0.427\nsamples = 1116\nvalue = [771, 345]"] ;
728 -> 742 ;
743 [label="totalBilled <= 1325.584\ngini = 0.434\nsamples = 1026\nvalue = [699, 327]"] ;
742 -> 743 ;
744 [label="totalBilled <= 1288.008\ngini = 0.409\nsamples = 349\nvalue = [249, 100]"] ;
743 -> 744 ;
745 [label="gini = 0.42\nsamples = 320\nvalue = [224, 96]"] ;
744 -> 745 ;
746 [label="gini = 0.238\nsamples = 29\nvalue = [25, 4]"] ;
744 -> 746 ;
747 [label="customer_age <= 65.5\ngini = 0.446\nsamples = 677\nvalue = [450, 227]"] ;
743 -> 747 ;
748 [label="gini = 0.436\nsamples = 616\nvalue = [418, 198]"] ;
747 -> 748 ;
749 [label="gini = 0.499\nsamples = 61\nvalue = [32, 29]"] ;
747 -> 749 ;
750 [label="totalBilled <= 1454.835\ngini = 0.32\nsamples = 90\nvalue = [72, 18]"] ;
742 -> 750 ;
751 [label="gini = 0.188\nsamples = 38\nvalue = [34, 4]"] ;
750 -> 751 ;
752 [label="totalBilled <= 1763.669\ngini = 0.393\nsamples = 52\nvalue = [38, 14]"] ;
750 -> 752 ;
753 [label="gini = 0.476\nsamples = 23\nvalue = [14, 9]"] ;
752 -> 753 ;
754 [label="gini = 0.285\nsamples = 29\nvalue = [24, 5]"] ;
752 -> 754 ;
755 [label="customer_age <= 53.5\ngini = 0.475\nsamples = 8745\nvalue = [5353, 3392]"] ;
697 -> 755 ;
756 [label="totalBilled <= 6821.645\ngini = 0.486\nsamples = 4653\nvalue = [2721, 1932]"] ;
755 -> 756 ;
757 [label="Geo_Code <= 2.5\ngini = 0.482\nsamples = 4008\nvalue = [2380, 1628]"] ;
756 -> 757 ;
758 [label="Geo_Code <= 1.5\ngini = 0.475\nsamples = 2572\nvalue = [1572, 1000]"] ;
757 -> 758 ;
759 [label="totalBilled <= 3024.096\ngini = 0.479\nsamples = 2440\nvalue = [1471, 969]"] ;
758 -> 759 ;
760 [label="gini = 0.494\nsamples = 619\nvalue = [343, 276]"] ;
759 -> 760 ;
761 [label="gini = 0.471\nsamples = 1821\nvalue = [1128, 693]"] ;
759 -> 761 ;
762 [label="totalBilled <= 3822.314\ngini = 0.359\nsamples = 132\nvalue = [101, 31]"] ;
758 -> 762 ;
763 [label="gini = 0.269\nsamples = 50\nvalue = [42, 8]"] ;
762 -> 763 ;
764 [label="gini = 0.404\nsamples = 82\nvalue = [59, 23]"] ;
762 -> 764 ;
765 [label="Geo_Code <= 3.5\ngini = 0.492\nsamples = 1436\nvalue = [808, 628]"] ;
757 -> 765 ;
766 [label="totalBilled <= 4332.266\ngini = 0.498\nsamples = 970\nvalue = [512, 458]"] ;
765 -> 766 ;
767 [label="gini = 0.493\nsamples = 643\nvalue = [360, 283]"] ;
766 -> 767 ;
768 [label="gini = 0.498\nsamples = 327\nvalue = [152, 175]"] ;
766 -> 768 ;
769 [label="customer_age <= 29.5\ngini = 0.463\nsamples = 466\nvalue = [296, 170]"] ;
765 -> 769 ;
770 [label="gini = 0.484\nsamples = 255\nvalue = [150, 105]"] ;
769 -> 770 ;
771 [label="gini = 0.426\nsamples = 211\nvalue = [146, 65]"] ;
769 -> 771 ;
772 [label="customer_age <= 8.5\ngini = 0.498\nsamples = 645\nvalue = [341, 304]"] ;
756 -> 772 ;
773 [label="customer_age <= 4.5\ngini = 0.419\nsamples = 57\nvalue = [40, 17]"] ;
772 -> 773 ;
774 [label="gini = 0.495\nsamples = 20\nvalue = [11, 9]"] ;
773 -> 774 ;
775 [label="gini = 0.339\nsamples = 37\nvalue = [29, 8]"] ;
773 -> 775 ;
776 [label="Geo_Code <= 4.0\ngini = 0.5\nsamples = 588\nvalue = [301, 287]"] ;
772 -> 776 ;
777 [label="Geo_Code <= 2.5\ngini = 0.5\nsamples = 503\nvalue = [246, 257]"] ;
776 -> 777 ;
778 [label="gini = 0.5\nsamples = 399\nvalue = [204, 195]"] ;
777 -> 778 ;
779 [label="gini = 0.482\nsamples = 104\nvalue = [42, 62]"] ;
777 -> 779 ;
780 [label="customer_age <= 37.5\ngini = 0.457\nsamples = 85\nvalue = [55, 30]"] ;
776 -> 780 ;
781 [label="gini = 0.406\nsamples = 60\nvalue = [43, 17]"] ;
780 -> 781 ;
782 [label="gini = 0.499\nsamples = 25\nvalue = [12, 13]"] ;
780 -> 782 ;
783 [label="customer_age <= 143.5\ngini = 0.459\nsamples = 4092\nvalue = [2632, 1460]"] ;
755 -> 783 ;
784 [label="Geo_Code <= 2.5\ngini = 0.461\nsamples = 4026\nvalue = [2575, 1451]"] ;
783 -> 784 ;
785 [label="Geo_Code <= 1.5\ngini = 0.452\nsamples = 2769\nvalue = [1815, 954]"] ;
784 -> 785 ;
786 [label="totalBilled <= 3685.737\ngini = 0.454\nsamples = 2723\nvalue = [1776, 947]"] ;
785 -> 786 ;
787 [label="gini = 0.435\nsamples = 1018\nvalue = [692, 326]"] ;
786 -> 787 ;
788 [label="gini = 0.463\nsamples = 1705\nvalue = [1084, 621]"] ;
786 -> 788 ;
789 [label="customer_age <= 70.5\ngini = 0.258\nsamples = 46\nvalue = [39, 7]"] ;
785 -> 789 ;
790 [label="gini = 0.091\nsamples = 21\nvalue = [20, 1]"] ;
789 -> 790 ;
791 [label="gini = 0.365\nsamples = 25\nvalue = [19, 6]"] ;
789 -> 791 ;
792 [label="totalBilled <= 4913.724\ngini = 0.478\nsamples = 1257\nvalue = [760, 497]"] ;
784 -> 792 ;
793 [label="customer_age <= 99.5\ngini = 0.461\nsamples = 790\nvalue = [505, 285]"] ;
792 -> 793 ;
794 [label="gini = 0.451\nsamples = 647\nvalue = [425, 222]"] ;
793 -> 794 ;
795 [label="gini = 0.493\nsamples = 143\nvalue = [80, 63]"] ;
793 -> 795 ;
796 [label="customer_age <= 79.5\ngini = 0.496\nsamples = 467\nvalue = [255, 212]"] ;
792 -> 796 ;
797 [label="gini = 0.5\nsamples = 261\nvalue = [128, 133]"] ;
796 -> 797 ;
798 [label="gini = 0.473\nsamples = 206\nvalue = [127, 79]"] ;
796 -> 798 ;
799 [label="ProductsUsed <= 13.5\ngini = 0.236\nsamples = 66\nvalue = [57, 9]"] ;
783 -> 799 ;
800 [label="gini = 0.384\nsamples = 27\nvalue = [20, 7]"] ;
799 -> 800 ;
801 [label="gini = 0.097\nsamples = 39\nvalue = [37, 2]"] ;
799 -> 801 ;
802 [label="totalBilled <= 2714.752\ngini = 0.489\nsamples = 14829\nvalue = [8523, 6306]"] ;
696 -> 802 ;
803 [label="ProductsUsed <= 18.5\ngini = 0.476\nsamples = 7639\nvalue = [4654, 2985]"] ;
802 -> 803 ;
804 [label="Geo_Code <= 0.5\ngini = 0.471\nsamples = 6309\nvalue = [3911, 2398]"] ;
803 -> 804 ;
805 [label="ProductsUsed <= 17.5\ngini = 0.462\nsamples = 2859\nvalue = [1825, 1034]"] ;
804 -> 805 ;
806 [label="totalBilled <= 2665.527\ngini = 0.451\nsamples = 2103\nvalue = [1380, 723]"] ;
805 -> 806 ;
807 [label="customer_age <= 32.5\ngini = 0.454\nsamples = 2072\nvalue = [1351, 721]"] ;
806 -> 807 ;
808 [label="gini = 0.476\nsamples = 596\nvalue = [363, 233]"] ;
807 -> 808 ;
809 [label="gini = 0.443\nsamples = 1476\nvalue = [988, 488]"] ;
807 -> 809 ;
810 [label="gini = 0.121\nsamples = 31\nvalue = [29, 2]"] ;
806 -> 810 ;
811 [label="customer_age <= 9.5\ngini = 0.484\nsamples = 756\nvalue = [445, 311]"] ;
805 -> 811 ;
812 [label="totalBilled <= 1420.589\ngini = 0.494\nsamples = 45\nvalue = [20, 25]"] ;
811 -> 812 ;
813 [label="gini = 0.42\nsamples = 20\nvalue = [6, 14]"] ;
812 -> 813 ;
814 [label="gini = 0.493\nsamples = 25\nvalue = [14, 11]"] ;
812 -> 814 ;
815 [label="customer_age <= 105.5\ngini = 0.481\nsamples = 711\nvalue = [425, 286]"] ;
811 -> 815 ;
816 [label="gini = 0.477\nsamples = 673\nvalue = [408, 265]"] ;
815 -> 816 ;
817 [label="gini = 0.494\nsamples = 38\nvalue = [17, 21]"] ;
815 -> 817 ;
818 [label="customer_age <= 102.5\ngini = 0.478\nsamples = 3450\nvalue = [2086, 1364]"] ;
804 -> 818 ;
819 [label="Geo_Code <= 5.5\ngini = 0.48\nsamples = 3264\nvalue = [1960, 1304]"] ;
818 -> 819 ;
820 [label="customer_age <= 93.5\ngini = 0.484\nsamples = 2621\nvalue = [1548, 1073]"] ;
819 -> 820 ;
821 [label="gini = 0.482\nsamples = 2555\nvalue = [1520, 1035]"] ;
820 -> 821 ;
822 [label="gini = 0.489\nsamples = 66\nvalue = [28, 38]"] ;
820 -> 822 ;
823 [label="customer_age <= 5.5\ngini = 0.46\nsamples = 643\nvalue = [412, 231]"] ;
819 -> 823 ;
824 [label="gini = 0.491\nsamples = 44\nvalue = [19, 25]"] ;
823 -> 824 ;
825 [label="gini = 0.451\nsamples = 599\nvalue = [393, 206]"] ;
823 -> 825 ;
826 [label="customer_age <= 108.5\ngini = 0.437\nsamples = 186\nvalue = [126, 60]"] ;
818 -> 826 ;
827 [label="gini = 0.257\nsamples = 33\nvalue = [28, 5]"] ;
826 -> 827 ;
828 [label="totalBilled <= 1805.551\ngini = 0.461\nsamples = 153\nvalue = [98, 55]"] ;
826 -> 828 ;
829 [label="gini = 0.491\nsamples = 92\nvalue = [52, 40]"] ;
828 -> 829 ;
830 [label="gini = 0.371\nsamples = 61\nvalue = [46, 15]"] ;
828 -> 830 ;
831 [label="totalBilled <= 2602.912\ngini = 0.493\nsamples = 1330\nvalue = [743, 587]"] ;
803 -> 831 ;
832 [label="customer_age <= 71.5\ngini = 0.49\nsamples = 1274\nvalue = [725, 549]"] ;
831 -> 832 ;
833 [label="totalBilled <= 1041.345\ngini = 0.496\nsamples = 1018\nvalue = [557, 461]"] ;
832 -> 833 ;
834 [label="gini = 0.415\nsamples = 34\nvalue = [10, 24]"] ;
833 -> 834 ;
835 [label="totalBilled <= 1147.281\ngini = 0.494\nsamples = 984\nvalue = [547, 437]"] ;
833 -> 835 ;
836 [label="gini = 0.434\nsamples = 107\nvalue = [73, 34]"] ;
835 -> 836 ;
837 [label="gini = 0.497\nsamples = 877\nvalue = [474, 403]"] ;
835 -> 837 ;
838 [label="customer_age <= 130.5\ngini = 0.451\nsamples = 256\nvalue = [168, 88]"] ;
832 -> 838 ;
839 [label="totalBilled <= 2109.74\ngini = 0.43\nsamples = 233\nvalue = [160, 73]"] ;
838 -> 839 ;
840 [label="gini = 0.391\nsamples = 169\nvalue = [124, 45]"] ;
839 -> 840 ;
841 [label="gini = 0.492\nsamples = 64\nvalue = [36, 28]"] ;
839 -> 841 ;
842 [label="gini = 0.454\nsamples = 23\nvalue = [8, 15]"] ;
838 -> 842 ;
843 [label="customer_age <= 49.5\ngini = 0.436\nsamples = 56\nvalue = [18, 38]"] ;
831 -> 843 ;
844 [label="gini = 0.478\nsamples = 33\nvalue = [13, 20]"] ;
843 -> 844 ;
845 [label="gini = 0.34\nsamples = 23\nvalue = [5, 18]"] ;
843 -> 845 ;
846 [label="totalBilled <= 5389.606\ngini = 0.497\nsamples = 7190\nvalue = [3869, 3321]"] ;
802 -> 846 ;
847 [label="customer_age <= 68.5\ngini = 0.493\nsamples = 4589\nvalue = [2567, 2022]"] ;
846 -> 847 ;
848 [label="customer_age <= 9.5\ngini = 0.497\nsamples = 3271\nvalue = [1768, 1503]"] ;
847 -> 848 ;
849 [label="totalBilled <= 2905.076\ngini = 0.462\nsamples = 232\nvalue = [148, 84]"] ;
848 -> 849 ;
850 [label="gini = 0.334\nsamples = 33\nvalue = [26, 7]"] ;
849 -> 850 ;
851 [label="totalBilled <= 3091.281\ngini = 0.474\nsamples = 199\nvalue = [122, 77]"] ;
849 -> 851 ;
852 [label="gini = 0.477\nsamples = 28\nvalue = [11, 17]"] ;
851 -> 852 ;
853 [label="gini = 0.456\nsamples = 171\nvalue = [111, 60]"] ;
851 -> 853 ;
854 [label="totalBilled <= 3181.47\ngini = 0.498\nsamples = 3039\nvalue = [1620, 1419]"] ;
848 -> 854 ;
855 [label="totalBilled <= 2969.004\ngini = 0.5\nsamples = 817\nvalue = [405, 412]"] ;
854 -> 855 ;
856 [label="gini = 0.499\nsamples = 478\nvalue = [249, 229]"] ;
855 -> 856 ;
857 [label="gini = 0.497\nsamples = 339\nvalue = [156, 183]"] ;
855 -> 857 ;
858 [label="totalBilled <= 4487.648\ngini = 0.496\nsamples = 2222\nvalue = [1215, 1007]"] ;
854 -> 858 ;
859 [label="gini = 0.493\nsamples = 1490\nvalue = [836, 654]"] ;
858 -> 859 ;
860 [label="gini = 0.499\nsamples = 732\nvalue = [379, 353]"] ;
858 -> 860 ;
861 [label="Geo_Code <= 0.5\ngini = 0.477\nsamples = 1318\nvalue = [799, 519]"] ;
847 -> 861 ;
862 [label="totalBilled <= 5194.932\ngini = 0.458\nsamples = 731\nvalue = [471, 260]"] ;
861 -> 862 ;
863 [label="customer_age <= 76.5\ngini = 0.464\nsamples = 694\nvalue = [440, 254]"] ;
862 -> 863 ;
864 [label="gini = 0.405\nsamples = 181\nvalue = [130, 51]"] ;
863 -> 864 ;
865 [label="gini = 0.478\nsamples = 513\nvalue = [310, 203]"] ;
863 -> 865 ;
866 [label="gini = 0.272\nsamples = 37\nvalue = [31, 6]"] ;
862 -> 866 ;
867 [label="Geo_Code <= 5.5\ngini = 0.493\nsamples = 587\nvalue = [328, 259]"] ;
861 -> 867 ;
868 [label="totalBilled <= 3510.776\ngini = 0.499\nsamples = 489\nvalue = [257, 232]"] ;
867 -> 868 ;
869 [label="gini = 0.499\nsamples = 225\nvalue = [107, 118]"] ;
868 -> 869 ;
870 [label="gini = 0.491\nsamples = 264\nvalue = [150, 114]"] ;
868 -> 870 ;
871 [label="customer_age <= 92.5\ngini = 0.399\nsamples = 98\nvalue = [71, 27]"] ;
867 -> 871 ;
872 [label="gini = 0.464\nsamples = 60\nvalue = [38, 22]"] ;
871 -> 872 ;
873 [label="gini = 0.229\nsamples = 38\nvalue = [33, 5]"] ;
871 -> 873 ;
874 [label="Geo_Code <= 2.5\ngini = 0.5\nsamples = 2601\nvalue = [1302, 1299]"] ;
846 -> 874 ;
875 [label="ProductsUsed <= 17.5\ngini = 0.498\nsamples = 1808\nvalue = [958, 850]"] ;
874 -> 875 ;
876 [label="customer_age <= 126.5\ngini = 0.492\nsamples = 962\nvalue = [541, 421]"] ;
875 -> 876 ;
877 [label="customer_age <= 117.5\ngini = 0.494\nsamples = 931\nvalue = [517, 414]"] ;
876 -> 877 ;
878 [label="gini = 0.492\nsamples = 903\nvalue = [508, 395]"] ;
877 -> 878 ;
879 [label="gini = 0.436\nsamples = 28\nvalue = [9, 19]"] ;
877 -> 879 ;
880 [label="gini = 0.35\nsamples = 31\nvalue = [24, 7]"] ;
876 -> 880 ;
881 [label="totalBilled <= 9098.064\ngini = 0.5\nsamples = 846\nvalue = [417, 429]"] ;
875 -> 881 ;
882 [label="totalBilled <= 8812.339\ngini = 0.5\nsamples = 813\nvalue = [394, 419]"] ;
881 -> 882 ;
883 [label="gini = 0.5\nsamples = 768\nvalue = [380, 388]"] ;
882 -> 883 ;
884 [label="gini = 0.429\nsamples = 45\nvalue = [14, 31]"] ;
882 -> 884 ;
885 [label="gini = 0.422\nsamples = 33\nvalue = [23, 10]"] ;
881 -> 885 ;
886 [label="Geo_Code <= 4.0\ngini = 0.491\nsamples = 793\nvalue = [344, 449]"] ;
874 -> 886 ;
887 [label="customer_age <= 50.5\ngini = 0.478\nsamples = 595\nvalue = [235, 360]"] ;
886 -> 887 ;
888 [label="totalBilled <= 6102.367\ngini = 0.438\nsamples = 296\nvalue = [96, 200]"] ;
887 -> 888 ;
889 [label="gini = 0.487\nsamples = 93\nvalue = [39, 54]"] ;
888 -> 889 ;
890 [label="gini = 0.404\nsamples = 203\nvalue = [57, 146]"] ;
888 -> 890 ;
891 [label="customer_age <= 120.5\ngini = 0.498\nsamples = 299\nvalue = [139, 160]"] ;
887 -> 891 ;
892 [label="gini = 0.5\nsamples = 271\nvalue = [132, 139]"] ;
891 -> 892 ;
893 [label="gini = 0.375\nsamples = 28\nvalue = [7, 21]"] ;
891 -> 893 ;
894 [label="totalBilled <= 6258.097\ngini = 0.495\nsamples = 198\nvalue = [109, 89]"] ;
886 -> 894 ;
895 [label="totalBilled <= 5573.572\ngini = 0.488\nsamples = 76\nvalue = [32, 44]"] ;
894 -> 895 ;
896 [label="gini = 0.469\nsamples = 24\nvalue = [15, 9]"] ;
895 -> 896 ;
897 [label="gini = 0.44\nsamples = 52\nvalue = [17, 35]"] ;
895 -> 897 ;
898 [label="totalBilled <= 6792.427\ngini = 0.466\nsamples = 122\nvalue = [77, 45]"] ;
894 -> 898 ;
899 [label="gini = 0.272\nsamples = 37\nvalue = [31, 6]"] ;
898 -> 899 ;
900 [label="gini = 0.497\nsamples = 85\nvalue = [46, 39]"] ;
898 -> 900 ;
901 [label="ProductsUsed <= 16.5\ngini = 0.495\nsamples = 5561\nvalue = [2500, 3061]"] ;
695 -> 901 ;
902 [label="totalBilled <= 10184.91\ngini = 0.5\nsamples = 3236\nvalue = [1591, 1645]"] ;
901 -> 902 ;
903 [label="totalBilled <= 10003.635\ngini = 0.482\nsamples = 352\nvalue = [209, 143]"] ;
902 -> 903 ;
904 [label="customer_age <= 58.5\ngini = 0.493\nsamples = 278\nvalue = [155, 123]"] ;
903 -> 904 ;
905 [label="customer_age <= 46.5\ngini = 0.473\nsamples = 141\nvalue = [87, 54]"] ;
904 -> 905 ;
906 [label="ProductsUsed <= 13.5\ngini = 0.49\nsamples = 114\nvalue = [65, 49]"] ;
905 -> 906 ;
907 [label="gini = 0.438\nsamples = 34\nvalue = [23, 11]"] ;
906 -> 907 ;
908 [label="customer_age <= 30.5\ngini = 0.499\nsamples = 80\nvalue = [42, 38]"] ;
906 -> 908 ;
909 [label="gini = 0.48\nsamples = 50\nvalue = [30, 20]"] ;
908 -> 909 ;
910 [label="gini = 0.48\nsamples = 30\nvalue = [12, 18]"] ;
908 -> 910 ;
911 [label="gini = 0.302\nsamples = 27\nvalue = [22, 5]"] ;
905 -> 911 ;
912 [label="Geo_Code <= 2.5\ngini = 0.5\nsamples = 137\nvalue = [68, 69]"] ;
904 -> 912 ;
913 [label="customer_age <= 70.5\ngini = 0.495\nsamples = 100\nvalue = [45, 55]"] ;
912 -> 913 ;
914 [label="gini = 0.43\nsamples = 32\nvalue = [10, 22]"] ;
913 -> 914 ;
915 [label="customer_age <= 89.5\ngini = 0.5\nsamples = 68\nvalue = [35, 33]"] ;
913 -> 915 ;
916 [label="gini = 0.48\nsamples = 35\nvalue = [21, 14]"] ;
915 -> 916 ;
917 [label="gini = 0.489\nsamples = 33\nvalue = [14, 19]"] ;
915 -> 917 ;
918 [label="gini = 0.47\nsamples = 37\nvalue = [23, 14]"] ;
912 -> 918 ;
919 [label="totalBilled <= 10114.46\ngini = 0.394\nsamples = 74\nvalue = [54, 20]"] ;
903 -> 919 ;
920 [label="totalBilled <= 10053.06\ngini = 0.278\nsamples = 42\nvalue = [35, 7]"] ;
919 -> 920 ;
921 [label="gini = 0.236\nsamples = 22\nvalue = [19, 3]"] ;
920 -> 921 ;
922 [label="gini = 0.32\nsamples = 20\nvalue = [16, 4]"] ;
920 -> 922 ;
923 [label="gini = 0.482\nsamples = 32\nvalue = [19, 13]"] ;
919 -> 923 ;
924 [label="customer_age <= 35.5\ngini = 0.499\nsamples = 2884\nvalue = [1382, 1502]"] ;
902 -> 924 ;
925 [label="customer_age <= 6.5\ngini = 0.487\nsamples = 750\nvalue = [315, 435]"] ;
924 -> 925 ;
926 [label="totalBilled <= 13792.555\ngini = 0.451\nsamples = 70\nvalue = [46, 24]"] ;
925 -> 926 ;
927 [label="gini = 0.495\nsamples = 29\nvalue = [13, 16]"] ;
926 -> 927 ;
928 [label="totalBilled <= 18297.69\ngini = 0.314\nsamples = 41\nvalue = [33, 8]"] ;
926 -> 928 ;
929 [label="gini = 0.172\nsamples = 21\nvalue = [19, 2]"] ;
928 -> 929 ;
930 [label="gini = 0.42\nsamples = 20\nvalue = [14, 6]"] ;
928 -> 930 ;
931 [label="customer_age <= 27.5\ngini = 0.478\nsamples = 680\nvalue = [269, 411]"] ;
925 -> 931 ;
932 [label="ProductsUsed <= 15.5\ngini = 0.493\nsamples = 460\nvalue = [202, 258]"] ;
931 -> 932 ;
933 [label="totalBilled <= 11099.145\ngini = 0.485\nsamples = 352\nvalue = [146, 206]"] ;
932 -> 933 ;
934 [label="gini = 0.427\nsamples = 55\nvalue = [17, 38]"] ;
933 -> 934 ;
935 [label="gini = 0.491\nsamples = 297\nvalue = [129, 168]"] ;
933 -> 935 ;
936 [label="totalBilled <= 24368.525\ngini = 0.499\nsamples = 108\nvalue = [56, 52]"] ;
932 -> 936 ;
937 [label="gini = 0.481\nsamples = 82\nvalue = [49, 33]"] ;
936 -> 937 ;
938 [label="gini = 0.393\nsamples = 26\nvalue = [7, 19]"] ;
936 -> 938 ;
939 [label="Geo_Code <= 4.0\ngini = 0.424\nsamples = 220\nvalue = [67, 153]"] ;
931 -> 939 ;
940 [label="Geo_Code <= 1.5\ngini = 0.401\nsamples = 198\nvalue = [55, 143]"] ;
939 -> 940 ;
941 [label="gini = 0.434\nsamples = 157\nvalue = [50, 107]"] ;
940 -> 941 ;
942 [label="gini = 0.214\nsamples = 41\nvalue = [5, 36]"] ;
940 -> 942 ;
943 [label="gini = 0.496\nsamples = 22\nvalue = [12, 10]"] ;
939 -> 943 ;
944 [label="totalBilled <= 23105.26\ngini = 0.5\nsamples = 2134\nvalue = [1067, 1067]"] ;
924 -> 944 ;
945 [label="Geo_Code <= 2.5\ngini = 0.499\nsamples = 1588\nvalue = [829, 759]"] ;
944 -> 945 ;
946 [label="customer_age <= 51.5\ngini = 0.497\nsamples = 1174\nvalue = [635, 539]"] ;
945 -> 946 ;
947 [label="Geo_Code <= 1.5\ngini = 0.467\nsamples = 318\nvalue = [200, 118]"] ;
946 -> 947 ;
948 [label="gini = 0.474\nsamples = 290\nvalue = [178, 112]"] ;
947 -> 948 ;
949 [label="gini = 0.337\nsamples = 28\nvalue = [22, 6]"] ;
947 -> 949 ;
950 [label="Geo_Code <= 1.5\ngini = 0.5\nsamples = 856\nvalue = [435, 421]"] ;
946 -> 950 ;
951 [label="gini = 0.5\nsamples = 830\nvalue = [416, 414]"] ;
950 -> 951 ;
952 [label="gini = 0.393\nsamples = 26\nvalue = [19, 7]"] ;
950 -> 952 ;
953 [label="customer_age <= 50.5\ngini = 0.498\nsamples = 414\nvalue = [194, 220]"] ;
945 -> 953 ;
954 [label="totalBilled <= 16806.896\ngini = 0.403\nsamples = 100\nvalue = [28, 72]"] ;
953 -> 954 ;
955 [label="gini = 0.441\nsamples = 73\nvalue = [24, 49]"] ;
954 -> 955 ;
956 [label="gini = 0.252\nsamples = 27\nvalue = [4, 23]"] ;
954 -> 956 ;
957 [label="customer_age <= 117.0\ngini = 0.498\nsamples = 314\nvalue = [166, 148]"] ;
953 -> 957 ;
958 [label="gini = 0.495\nsamples = 291\nvalue = [160, 131]"] ;
957 -> 958 ;
959 [label="gini = 0.386\nsamples = 23\nvalue = [6, 17]"] ;
957 -> 959 ;
960 [label="ProductsUsed <= 15.5\ngini = 0.492\nsamples = 546\nvalue = [238, 308]"] ;
944 -> 960 ;
961 [label="Geo_Code <= 2.5\ngini = 0.499\nsamples = 393\nvalue = [186, 207]"] ;
960 -> 961 ;
962 [label="customer_age <= 49.5\ngini = 0.5\nsamples = 305\nvalue = [154, 151]"] ;
961 -> 962 ;
963 [label="gini = 0.435\nsamples = 50\nvalue = [34, 16]"] ;
962 -> 963 ;
964 [label="gini = 0.498\nsamples = 255\nvalue = [120, 135]"] ;
962 -> 964 ;
965 [label="totalBilled <= 41720.281\ngini = 0.463\nsamples = 88\nvalue = [32, 56]"] ;
961 -> 965 ;
966 [label="gini = 0.422\nsamples = 66\nvalue = [20, 46]"] ;
965 -> 966 ;
967 [label="gini = 0.496\nsamples = 22\nvalue = [12, 10]"] ;
965 -> 967 ;
968 [label="customer_age <= 105.5\ngini = 0.449\nsamples = 153\nvalue = [52, 101]"] ;
960 -> 968 ;
969 [label="Geo_Code <= 1.5\ngini = 0.417\nsamples = 128\nvalue = [38, 90]"] ;
968 -> 969 ;
970 [label="gini = 0.343\nsamples = 82\nvalue = [18, 64]"] ;
969 -> 970 ;
971 [label="gini = 0.491\nsamples = 46\nvalue = [20, 26]"] ;
969 -> 971 ;
972 [label="gini = 0.493\nsamples = 25\nvalue = [14, 11]"] ;
968 -> 972 ;
973 [label="customer_age <= 73.5\ngini = 0.476\nsamples = 2325\nvalue = [909, 1416]"] ;
901 -> 973 ;
974 [label="totalBilled <= 45741.67\ngini = 0.459\nsamples = 1522\nvalue = [542, 980]"] ;
973 -> 974 ;
975 [label="ProductsUsed <= 17.5\ngini = 0.467\nsamples = 1419\nvalue = [526, 893]"] ;
974 -> 975 ;
976 [label="customer_age <= 67.5\ngini = 0.484\nsamples = 493\nvalue = [203, 290]"] ;
975 -> 976 ;
977 [label="customer_age <= 18.5\ngini = 0.489\nsamples = 431\nvalue = [184, 247]"] ;
976 -> 977 ;
978 [label="Geo_Code <= 0.5\ngini = 0.46\nsamples = 64\nvalue = [23, 41]"] ;
977 -> 978 ;
979 [label="gini = 0.366\nsamples = 29\nvalue = [7, 22]"] ;
978 -> 979 ;
980 [label="gini = 0.496\nsamples = 35\nvalue = [16, 19]"] ;
978 -> 980 ;
981 [label="customer_age <= 39.5\ngini = 0.492\nsamples = 367\nvalue = [161, 206]"] ;
977 -> 981 ;
982 [label="gini = 0.5\nsamples = 146\nvalue = [71, 75]"] ;
981 -> 982 ;
983 [label="gini = 0.483\nsamples = 221\nvalue = [90, 131]"] ;
981 -> 983 ;
984 [label="totalBilled <= 15835.16\ngini = 0.425\nsamples = 62\nvalue = [19, 43]"] ;
976 -> 984 ;
985 [label="gini = 0.382\nsamples = 35\nvalue = [9, 26]"] ;
984 -> 985 ;
986 [label="gini = 0.466\nsamples = 27\nvalue = [10, 17]"] ;
984 -> 986 ;
987 [label="customer_age <= 57.5\ngini = 0.454\nsamples = 926\nvalue = [323, 603]"] ;
975 -> 987 ;
988 [label="totalBilled <= 11408.54\ngini = 0.438\nsamples = 693\nvalue = [224, 469]"] ;
987 -> 988 ;
989 [label="totalBilled <= 10691.16\ngini = 0.483\nsamples = 172\nvalue = [70, 102]"] ;
988 -> 989 ;
990 [label="gini = 0.453\nsamples = 124\nvalue = [43, 81]"] ;
989 -> 990 ;
991 [label="gini = 0.492\nsamples = 48\nvalue = [27, 21]"] ;
989 -> 991 ;
992 [label="customer_age <= 55.5\ngini = 0.416\nsamples = 521\nvalue = [154, 367]"] ;
988 -> 992 ;
993 [label="gini = 0.424\nsamples = 492\nvalue = [150, 342]"] ;
992 -> 993 ;
994 [label="gini = 0.238\nsamples = 29\nvalue = [4, 25]"] ;
992 -> 994 ;
995 [label="customer_age <= 63.5\ngini = 0.489\nsamples = 233\nvalue = [99, 134]"] ;
987 -> 995 ;
996 [label="totalBilled <= 11492.345\ngini = 0.5\nsamples = 89\nvalue = [45, 44]"] ;
995 -> 996 ;
997 [label="gini = 0.454\nsamples = 23\nvalue = [8, 15]"] ;
996 -> 997 ;
998 [label="gini = 0.493\nsamples = 66\nvalue = [37, 29]"] ;
996 -> 998 ;
999 [label="customer_age <= 65.5\ngini = 0.469\nsamples = 144\nvalue = [54, 90]"] ;
995 -> 999 ;
1000 [label="gini = 0.287\nsamples = 23\nvalue = [4, 19]"] ;
999 -> 1000 ;
1001 [label="gini = 0.485\nsamples = 121\nvalue = [50, 71]"] ;
999 -> 1001 ;
1002 [label="totalBilled <= 64105.865\ngini = 0.262\nsamples = 103\nvalue = [16, 87]"] ;
974 -> 1002 ;
1003 [label="customer_age <= 48.5\ngini = 0.358\nsamples = 60\nvalue = [14, 46]"] ;
1002 -> 1003 ;
1004 [label="gini = 0.208\nsamples = 34\nvalue = [4, 30]"] ;
1003 -> 1004 ;
1005 [label="gini = 0.473\nsamples = 26\nvalue = [10, 16]"] ;
1003 -> 1005 ;
1006 [label="totalBilled <= 74838.902\ngini = 0.089\nsamples = 43\nvalue = [2, 41]"] ;
1002 -> 1006 ;
1007 [label="gini = 0.0\nsamples = 23\nvalue = [0, 23]"] ;
1006 -> 1007 ;
1008 [label="gini = 0.18\nsamples = 20\nvalue = [2, 18]"] ;
1006 -> 1008 ;
1009 [label="totalBilled <= 28152.596\ngini = 0.496\nsamples = 803\nvalue = [367, 436]"] ;
973 -> 1009 ;
1010 [label="Geo_Code <= 0.5\ngini = 0.5\nsamples = 643\nvalue = [315, 328]"] ;
1009 -> 1010 ;
1011 [label="customer_age <= 109.5\ngini = 0.499\nsamples = 473\nvalue = [247, 226]"] ;
1010 -> 1011 ;
1012 [label="totalBilled <= 10028.545\ngini = 0.491\nsamples = 351\nvalue = [199, 152]"] ;
1011 -> 1012 ;
1013 [label="gini = 0.451\nsamples = 35\nvalue = [12, 23]"] ;
1012 -> 1013 ;
1014 [label="customer_age <= 79.5\ngini = 0.483\nsamples = 316\nvalue = [187, 129]"] ;
1012 -> 1014 ;
1015 [label="gini = 0.444\nsamples = 69\nvalue = [46, 23]"] ;
1014 -> 1015 ;
1016 [label="gini = 0.49\nsamples = 247\nvalue = [141, 106]"] ;
1014 -> 1016 ;
1017 [label="customer_age <= 126.5\ngini = 0.477\nsamples = 122\nvalue = [48, 74]"] ;
1011 -> 1017 ;
1018 [label="customer_age <= 113.5\ngini = 0.495\nsamples = 78\nvalue = [35, 43]"] ;
1017 -> 1018 ;
1019 [label="gini = 0.423\nsamples = 23\nvalue = [7, 16]"] ;
1018 -> 1019 ;
1020 [label="gini = 0.5\nsamples = 55\nvalue = [28, 27]"] ;
1018 -> 1020 ;
1021 [label="customer_age <= 135.5\ngini = 0.416\nsamples = 44\nvalue = [13, 31]"] ;
1017 -> 1021 ;
1022 [label="gini = 0.298\nsamples = 22\nvalue = [4, 18]"] ;
1021 -> 1022 ;
1023 [label="gini = 0.483\nsamples = 22\nvalue = [9, 13]"] ;
1021 -> 1023 ;
1024 [label="totalBilled <= 11107.333\ngini = 0.48\nsamples = 170\nvalue = [68, 102]"] ;
1010 -> 1024 ;
1025 [label="gini = 0.497\nsamples = 39\nvalue = [21, 18]"] ;
1024 -> 1025 ;
1026 [label="customer_age <= 105.5\ngini = 0.46\nsamples = 131\nvalue = [47, 84]"] ;
1024 -> 1026 ;
1027 [label="totalBilled <= 18660.771\ngini = 0.438\nsamples = 111\nvalue = [36, 75]"] ;
1026 -> 1027 ;
1028 [label="gini = 0.394\nsamples = 74\nvalue = [20, 54]"] ;
1027 -> 1028 ;
1029 [label="gini = 0.491\nsamples = 37\nvalue = [16, 21]"] ;
1027 -> 1029 ;
1030 [label="gini = 0.495\nsamples = 20\nvalue = [11, 9]"] ;
1026 -> 1030 ;
1031 [label="Customer_size <= 1.5\ngini = 0.439\nsamples = 160\nvalue = [52, 108]"] ;
1009 -> 1031 ;
1032 [label="totalBilled <= 40955.475\ngini = 0.47\nsamples = 119\nvalue = [45, 74]"] ;
1031 -> 1032 ;
1033 [label="totalBilled <= 35846.088\ngini = 0.494\nsamples = 47\nvalue = [21, 26]"] ;
1032 -> 1033 ;
1034 [label="gini = 0.444\nsamples = 21\nvalue = [7, 14]"] ;
1033 -> 1034 ;
1035 [label="gini = 0.497\nsamples = 26\nvalue = [14, 12]"] ;
1033 -> 1035 ;
1036 [label="customer_age <= 103.0\ngini = 0.444\nsamples = 72\nvalue = [24, 48]"] ;
1032 -> 1036 ;
1037 [label="Customer_size <= 0.5\ngini = 0.398\nsamples = 51\nvalue = [14, 37]"] ;
1036 -> 1037 ;
1038 [label="gini = 0.255\nsamples = 20\nvalue = [3, 17]"] ;
1037 -> 1038 ;
1039 [label="gini = 0.458\nsamples = 31\nvalue = [11, 20]"] ;
1037 -> 1039 ;
1040 [label="gini = 0.499\nsamples = 21\nvalue = [10, 11]"] ;
1036 -> 1040 ;
1041 [label="customer_age <= 96.5\ngini = 0.283\nsamples = 41\nvalue = [7, 34]"] ;
1031 -> 1041 ;
1042 [label="gini = 0.42\nsamples = 20\nvalue = [6, 14]"] ;
1041 -> 1042 ;
1043 [label="gini = 0.091\nsamples = 21\nvalue = [1, 20]"] ;
1041 -> 1043 ;
1044 [label="totalBilled <= 13921.825\ngini = 0.476\nsamples = 15131\nvalue = [5925, 9206]"] ;
694 -> 1044 ;
1045 [label="ProductsUsed <= 24.5\ngini = 0.491\nsamples = 11764\nvalue = [5094, 6670]"] ;
1044 -> 1045 ;
1046 [label="totalBilled <= 5865.362\ngini = 0.498\nsamples = 8581\nvalue = [3998, 4583]"] ;
1045 -> 1046 ;
1047 [label="ProductsUsed <= 21.5\ngini = 0.5\nsamples = 6048\nvalue = [2964, 3084]"] ;
1046 -> 1047 ;
1048 [label="customer_age <= 8.5\ngini = 0.499\nsamples = 3355\nvalue = [1738, 1617]"] ;
1047 -> 1048 ;
1049 [label="Geo_Code <= 0.5\ngini = 0.455\nsamples = 157\nvalue = [102, 55]"] ;
1048 -> 1049 ;
1050 [label="totalBilled <= 2220.811\ngini = 0.494\nsamples = 56\nvalue = [31, 25]"] ;
1049 -> 1050 ;
1051 [label="gini = 0.471\nsamples = 29\nvalue = [18, 11]"] ;
1050 -> 1051 ;
1052 [label="gini = 0.499\nsamples = 27\nvalue = [13, 14]"] ;
1050 -> 1052 ;
1053 [label="totalBilled <= 1471.381\ngini = 0.418\nsamples = 101\nvalue = [71, 30]"] ;
1049 -> 1053 ;
1054 [label="gini = 0.5\nsamples = 24\nvalue = [12, 12]"] ;
1053 -> 1054 ;
1055 [label="customer_age <= 4.5\ngini = 0.358\nsamples = 77\nvalue = [59, 18]"] ;
1053 -> 1055 ;
1056 [label="gini = 0.454\nsamples = 23\nvalue = [15, 8]"] ;
1055 -> 1056 ;
1057 [label="gini = 0.302\nsamples = 54\nvalue = [44, 10]"] ;
1055 -> 1057 ;
1058 [label="Geo_Code <= 0.5\ngini = 0.5\nsamples = 3198\nvalue = [1636, 1562]"] ;
1048 -> 1058 ;
1059 [label="customer_age <= 36.5\ngini = 0.496\nsamples = 1541\nvalue = [839, 702]"] ;
1058 -> 1059 ;
1060 [label="totalBilled <= 1071.37\ngini = 0.499\nsamples = 422\nvalue = [202, 220]"] ;
1059 -> 1060 ;
1061 [label="gini = 0.375\nsamples = 20\nvalue = [5, 15]"] ;
1060 -> 1061 ;
1062 [label="gini = 0.5\nsamples = 402\nvalue = [197, 205]"] ;
1060 -> 1062 ;
1063 [label="totalBilled <= 1338.473\ngini = 0.49\nsamples = 1119\nvalue = [637, 482]"] ;
1059 -> 1063 ;
1064 [label="gini = 0.428\nsamples = 129\nvalue = [89, 40]"] ;
1063 -> 1064 ;
1065 [label="gini = 0.494\nsamples = 990\nvalue = [548, 442]"] ;
1063 -> 1065 ;
1066 [label="totalBilled <= 2000.448\ngini = 0.499\nsamples = 1657\nvalue = [797, 860]"] ;
1058 -> 1066 ;
1067 [label="totalBilled <= 1944.237\ngini = 0.499\nsamples = 651\nvalue = [342, 309]"] ;
1066 -> 1067 ;
1068 [label="gini = 0.499\nsamples = 628\nvalue = [325, 303]"] ;
1067 -> 1068 ;
1069 [label="gini = 0.386\nsamples = 23\nvalue = [17, 6]"] ;
1067 -> 1069 ;
1070 [label="totalBilled <= 2616.016\ngini = 0.495\nsamples = 1006\nvalue = [455, 551]"] ;
1066 -> 1070 ;
1071 [label="gini = 0.472\nsamples = 244\nvalue = [93, 151]"] ;
1070 -> 1071 ;
1072 [label="gini = 0.499\nsamples = 762\nvalue = [362, 400]"] ;
1070 -> 1072 ;
1073 [label="customer_age <= 135.5\ngini = 0.496\nsamples = 2693\nvalue = [1226, 1467]"] ;
1047 -> 1073 ;
1074 [label="ProductsUsed <= 23.5\ngini = 0.496\nsamples = 2673\nvalue = [1223, 1450]"] ;
1073 -> 1074 ;
1075 [label="Geo_Code <= 2.5\ngini = 0.498\nsamples = 2027\nvalue = [953, 1074]"] ;
1074 -> 1075 ;
1076 [label="totalBilled <= 1912.332\ngini = 0.5\nsamples = 1215\nvalue = [596, 619]"] ;
1075 -> 1076 ;
1077 [label="gini = 0.493\nsamples = 359\nvalue = [158, 201]"] ;
1076 -> 1077 ;
1078 [label="gini = 0.5\nsamples = 856\nvalue = [438, 418]"] ;
1076 -> 1078 ;
1079 [label="totalBilled <= 1664.591\ngini = 0.493\nsamples = 812\nvalue = [357, 455]"] ;
1075 -> 1079 ;
1080 [label="gini = 0.496\nsamples = 191\nvalue = [104, 87]"] ;
1079 -> 1080 ;
1081 [label="gini = 0.483\nsamples = 621\nvalue = [253, 368]"] ;
1079 -> 1081 ;
1082 [label="totalBilled <= 2671.184\ngini = 0.487\nsamples = 646\nvalue = [270, 376]"] ;
1074 -> 1082 ;
1083 [label="totalBilled <= 2329.303\ngini = 0.498\nsamples = 309\nvalue = [145, 164]"] ;
1082 -> 1083 ;
1084 [label="gini = 0.49\nsamples = 249\nvalue = [107, 142]"] ;
1083 -> 1084 ;
1085 [label="gini = 0.464\nsamples = 60\nvalue = [38, 22]"] ;
1083 -> 1085 ;
1086 [label="customer_age <= 10.5\ngini = 0.467\nsamples = 337\nvalue = [125, 212]"] ;
1082 -> 1086 ;
1087 [label="gini = 0.483\nsamples = 22\nvalue = [13, 9]"] ;
1086 -> 1087 ;
1088 [label="gini = 0.458\nsamples = 315\nvalue = [112, 203]"] ;
1086 -> 1088 ;
1089 [label="gini = 0.255\nsamples = 20\nvalue = [3, 17]"] ;
1073 -> 1089 ;
1090 [label="customer_age <= 42.5\ngini = 0.483\nsamples = 2533\nvalue = [1034, 1499]"] ;
1046 -> 1090 ;
1091 [label="customer_age <= 9.5\ngini = 0.455\nsamples = 839\nvalue = [294, 545]"] ;
1090 -> 1091 ;
1092 [label="Geo_Code <= 2.0\ngini = 0.5\nsamples = 70\nvalue = [35, 35]"] ;
1091 -> 1092 ;
1093 [label="gini = 0.461\nsamples = 36\nvalue = [23, 13]"] ;
1092 -> 1093 ;
1094 [label="gini = 0.457\nsamples = 34\nvalue = [12, 22]"] ;
1092 -> 1094 ;
1095 [label="totalBilled <= 9150.146\ngini = 0.447\nsamples = 769\nvalue = [259, 510]"] ;
1091 -> 1095 ;
1096 [label="totalBilled <= 6157.319\ngini = 0.465\nsamples = 472\nvalue = [174, 298]"] ;
1095 -> 1096 ;
1097 [label="customer_age <= 27.5\ngini = 0.331\nsamples = 67\nvalue = [14, 53]"] ;
1096 -> 1097 ;
1098 [label="gini = 0.434\nsamples = 22\nvalue = [7, 15]"] ;
1097 -> 1098 ;
1099 [label="gini = 0.263\nsamples = 45\nvalue = [7, 38]"] ;
1097 -> 1099 ;
1100 [label="customer_age <= 13.5\ngini = 0.478\nsamples = 405\nvalue = [160, 245]"] ;
1096 -> 1100 ;
1101 [label="gini = 0.255\nsamples = 20\nvalue = [3, 17]"] ;
1100 -> 1101 ;
1102 [label="gini = 0.483\nsamples = 385\nvalue = [157, 228]"] ;
1100 -> 1102 ;
1103 [label="totalBilled <= 11089.52\ngini = 0.409\nsamples = 297\nvalue = [85, 212]"] ;
1095 -> 1103 ;
1104 [label="Geo_Code <= 4.5\ngini = 0.332\nsamples = 138\nvalue = [29, 109]"] ;
1103 -> 1104 ;
1105 [label="gini = 0.375\nsamples = 112\nvalue = [28, 84]"] ;
1104 -> 1105 ;
1106 [label="gini = 0.074\nsamples = 26\nvalue = [1, 25]"] ;
1104 -> 1106 ;
1107 [label="ProductsUsed <= 22.5\ngini = 0.456\nsamples = 159\nvalue = [56, 103]"] ;
1103 -> 1107 ;
1108 [label="gini = 0.427\nsamples = 107\nvalue = [33, 74]"] ;
1107 -> 1108 ;
1109 [label="gini = 0.493\nsamples = 52\nvalue = [23, 29]"] ;
1107 -> 1109 ;
1110 [label="Geo_Code <= 0.5\ngini = 0.492\nsamples = 1694\nvalue = [740, 954]"] ;
1090 -> 1110 ;
1111 [label="totalBilled <= 6217.802\ngini = 0.496\nsamples = 1024\nvalue = [469, 555]"] ;
1110 -> 1111 ;
1112 [label="totalBilled <= 5944.652\ngini = 0.48\nsamples = 80\nvalue = [48, 32]"] ;
1111 -> 1112 ;
1113 [label="gini = 0.488\nsamples = 26\nvalue = [11, 15]"] ;
1112 -> 1113 ;
1114 [label="ProductsUsed <= 21.5\ngini = 0.431\nsamples = 54\nvalue = [37, 17]"] ;
1112 -> 1114 ;
1115 [label="gini = 0.293\nsamples = 28\nvalue = [23, 5]"] ;
1114 -> 1115 ;
1116 [label="gini = 0.497\nsamples = 26\nvalue = [14, 12]"] ;
1114 -> 1116 ;
1117 [label="customer_age <= 104.5\ngini = 0.494\nsamples = 944\nvalue = [421, 523]"] ;
1111 -> 1117 ;
1118 [label="customer_age <= 84.5\ngini = 0.497\nsamples = 798\nvalue = [369, 429]"] ;
1117 -> 1118 ;
1119 [label="gini = 0.492\nsamples = 626\nvalue = [273, 353]"] ;
1118 -> 1119 ;
1120 [label="gini = 0.493\nsamples = 172\nvalue = [96, 76]"] ;
1118 -> 1120 ;
1121 [label="customer_age <= 122.5\ngini = 0.459\nsamples = 146\nvalue = [52, 94]"] ;
1117 -> 1121 ;
1122 [label="gini = 0.381\nsamples = 78\nvalue = [20, 58]"] ;
1121 -> 1122 ;
1123 [label="gini = 0.498\nsamples = 68\nvalue = [32, 36]"] ;
1121 -> 1123 ;
1124 [label="ProductsUsed <= 22.5\ngini = 0.482\nsamples = 670\nvalue = [271, 399]"] ;
1110 -> 1124 ;
1125 [label="totalBilled <= 7937.435\ngini = 0.492\nsamples = 427\nvalue = [187, 240]"] ;
1124 -> 1125 ;
1126 [label="totalBilled <= 7624.117\ngini = 0.473\nsamples = 175\nvalue = [67, 108]"] ;
1125 -> 1126 ;
1127 [label="gini = 0.485\nsamples = 150\nvalue = [62, 88]"] ;
1126 -> 1127 ;
1128 [label="gini = 0.32\nsamples = 25\nvalue = [5, 20]"] ;
1126 -> 1128 ;
1129 [label="totalBilled <= 8442.744\ngini = 0.499\nsamples = 252\nvalue = [120, 132]"] ;
1125 -> 1129 ;
1130 [label="gini = 0.458\nsamples = 31\nvalue = [20, 11]"] ;
1129 -> 1130 ;
1131 [label="gini = 0.495\nsamples = 221\nvalue = [100, 121]"] ;
1129 -> 1131 ;
1132 [label="customer_age <= 60.5\ngini = 0.452\nsamples = 243\nvalue = [84, 159]"] ;
1124 -> 1132 ;
1133 [label="customer_age <= 47.5\ngini = 0.493\nsamples = 82\nvalue = [36, 46]"] ;
1132 -> 1133 ;
1134 [label="gini = 0.393\nsamples = 26\nvalue = [7, 19]"] ;
1133 -> 1134 ;
1135 [label="gini = 0.499\nsamples = 56\nvalue = [29, 27]"] ;
1133 -> 1135 ;
1136 [label="totalBilled <= 9515.018\ngini = 0.419\nsamples = 161\nvalue = [48, 113]"] ;
1132 -> 1136 ;
1137 [label="gini = 0.348\nsamples = 89\nvalue = [20, 69]"] ;
1136 -> 1137 ;
1138 [label="gini = 0.475\nsamples = 72\nvalue = [28, 44]"] ;
1136 -> 1138 ;
1139 [label="totalBilled <= 2388.833\ngini = 0.452\nsamples = 3183\nvalue = [1096, 2087]"] ;
1045 -> 1139 ;
1140 [label="ProductsUsed <= 33.5\ngini = 0.492\nsamples = 673\nvalue = [293, 380]"] ;
1139 -> 1140 ;
1141 [label="totalBilled <= 2218.018\ngini = 0.495\nsamples = 650\nvalue = [293, 357]"] ;
1140 -> 1141 ;
1142 [label="totalBilled <= 1041.593\ngini = 0.491\nsamples = 573\nvalue = [248, 325]"] ;
1141 -> 1142 ;
1143 [label="gini = 0.444\nsamples = 21\nvalue = [14, 7]"] ;
1142 -> 1143 ;
1144 [label="totalBilled <= 1304.567\ngini = 0.488\nsamples = 552\nvalue = [234, 318]"] ;
1142 -> 1144 ;
1145 [label="customer_age <= 29.5\ngini = 0.454\nsamples = 138\nvalue = [48, 90]"] ;
1144 -> 1145 ;
1146 [label="gini = 0.375\nsamples = 60\nvalue = [15, 45]"] ;
1145 -> 1146 ;
