digraph Tree {
node [shape=box] ;
0 [label="ProductsUsed <= 12.5\ngini = 0.435\nsamples = 92841\nvalue = [63118, 29723]"] ;
1 [label="ProductsUsed <= 7.5\ngini = 0.349\nsamples = 56846\nvalue = [44029, 12817]"] ;
0 -> 1 [labeldistance=2.5, labelangle=45, headlabel="True"] ;
2 [label="ProductsUsed <= 3.5\ngini = 0.263\nsamples = 24841\nvalue = [20965, 3876]"] ;
1 -> 2 ;
3 [label="ProductsUsed <= 2.5\ngini = 0.167\nsamples = 5716\nvalue = [5189, 527]"] ;
2 -> 3 ;
4 [label="totalBilled <= 113.5\ngini = 0.134\nsamples = 3072\nvalue = [2850, 222]"] ;
3 -> 4 ;
5 [label="totalBilled <= 66.5\ngini = 0.131\nsamples = 3021\nvalue = [2809, 212]"] ;
4 -> 5 ;
6 [label="totalBilled <= 62.5\ngini = 0.123\nsamples = 2655\nvalue = [2480, 175]"] ;
5 -> 6 ;
7 [label="totalBilled <= 1.5\ngini = 0.129\nsamples = 2516\nvalue = [2342, 174]"] ;
6 -> 7 ;
8 [label="Geo_Code <= 4.5\ngini = 0.07\nsamples = 274\nvalue = [264, 10]"] ;
7 -> 8 ;
9 [label="ProductsUsed <= 1.5\ngini = 0.124\nsamples = 90\nvalue = [84, 6]"] ;
8 -> 9 ;
10 [label="gini = 0.0\nsamples = 34\nvalue = [34, 0]"] ;
9 -> 10 ;
11 [label="gini = 0.191\nsamples = 56\nvalue = [50, 6]"] ;
9 -> 11 ;
12 [label="Geo_Code <= 5.5\ngini = 0.043\nsamples = 184\nvalue = [180, 4]"] ;
8 -> 12 ;
13 [label="gini = 0.018\nsamples = 111\nvalue = [110, 1]"] ;
12 -> 13 ;
14 [label="gini = 0.079\nsamples = 73\nvalue = [70, 3]"] ;
12 -> 14 ;
15 [label="totalBilled <= 4.5\ngini = 0.136\nsamples = 2242\nvalue = [2078, 164]"] ;
7 -> 15 ;
16 [label="Geo_Code <= 3.5\ngini = 0.176\nsamples = 267\nvalue = [241, 26]"] ;
15 -> 16 ;
17 [label="gini = 0.128\nsamples = 73\nvalue = [68, 5]"] ;
16 -> 17 ;
18 [label="gini = 0.193\nsamples = 194\nvalue = [173, 21]"] ;
16 -> 18 ;
19 [label="Geo_Code <= 1.5\ngini = 0.13\nsamples = 1975\nvalue = [1837, 138]"] ;
15 -> 19 ;
20 [label="gini = 0.308\nsamples = 21\nvalue = [17, 4]"] ;
19 -> 20 ;
21 [label="gini = 0.128\nsamples = 1954\nvalue = [1820, 134]"] ;
19 -> 21 ;
22 [label="ProductsUsed <= 1.5\ngini = 0.014\nsamples = 139\nvalue = [138, 1]"] ;
6 -> 22 ;
23 [label="gini = 0.0\nsamples = 108\nvalue = [108, 0]"] ;
22 -> 23 ;
24 [label="totalBilled <= 65.5\ngini = 0.062\nsamples = 31\nvalue = [30, 1]"] ;
22 -> 24 ;
25 [label="gini = 0.1\nsamples = 19\nvalue = [18, 1]"] ;
24 -> 25 ;
26 [label="gini = 0.0\nsamples = 12\nvalue = [12, 0]"] ;
24 -> 26 ;
27 [label="ProductsUsed <= 1.5\ngini = 0.182\nsamples = 366\nvalue = [329, 37]"] ;
5 -> 27 ;
28 [label="totalBilled <= 78.5\ngini = 0.245\nsamples = 105\nvalue = [90, 15]"] ;
27 -> 28 ;
29 [label="totalBilled <= 72.5\ngini = 0.127\nsamples = 44\nvalue = [41, 3]"] ;
28 -> 29 ;
30 [label="totalBilled <= 70.5\ngini = 0.175\nsamples = 31\nvalue = [28, 3]"] ;
29 -> 30 ;
31 [label="gini = 0.198\nsamples = 18\nvalue = [16, 2]"] ;
30 -> 31 ;
32 [label="gini = 0.142\nsamples = 13\nvalue = [12, 1]"] ;
30 -> 32 ;
33 [label="gini = 0.0\nsamples = 13\nvalue = [13, 0]"] ;
29 -> 33 ;
34 [label="Geo_Code <= 5.5\ngini = 0.316\nsamples = 61\nvalue = [49, 12]"] ;
28 -> 34 ;
35 [label="gini = 0.473\nsamples = 13\nvalue = [8, 5]"] ;
34 -> 35 ;
36 [label="totalBilled <= 86.5\ngini = 0.249\nsamples = 48\nvalue = [41, 7]"] ;
34 -> 36 ;
37 [label="gini = 0.198\nsamples = 18\nvalue = [16, 2]"] ;
36 -> 37 ;
38 [label="gini = 0.278\nsamples = 30\nvalue = [25, 5]"] ;
36 -> 38 ;
39 [label="totalBilled <= 72.5\ngini = 0.154\nsamples = 261\nvalue = [239, 22]"] ;
27 -> 39 ;
40 [label="Geo_Code <= 4.5\ngini = 0.26\nsamples = 65\nvalue = [55, 10]"] ;
39 -> 40 ;
41 [label="gini = 0.397\nsamples = 11\nvalue = [8, 3]"] ;
40 -> 41 ;
42 [label="totalBilled <= 69.5\ngini = 0.226\nsamples = 54\nvalue = [47, 7]"] ;
40 -> 42 ;
43 [label="gini = 0.191\nsamples = 28\nvalue = [25, 3]"] ;
42 -> 43 ;
44 [label="gini = 0.26\nsamples = 26\nvalue = [22, 4]"] ;
42 -> 44 ;
45 [label="totalBilled <= 96.5\ngini = 0.115\nsamples = 196\nvalue = [184, 12]"] ;
39 -> 45 ;
46 [label="totalBilled <= 85.5\ngini = 0.093\nsamples = 143\nvalue = [136, 7]"] ;
45 -> 46 ;
47 [label="gini = 0.154\nsamples = 83\nvalue = [76, 7]"] ;
46 -> 47 ;
48 [label="gini = 0.0\nsamples = 60\nvalue = [60, 0]"] ;
46 -> 48 ;
49 [label="totalBilled <= 98.5\ngini = 0.171\nsamples = 53\nvalue = [48, 5]"] ;
45 -> 49 ;
50 [label="gini = 0.337\nsamples = 14\nvalue = [11, 3]"] ;
49 -> 50 ;
51 [label="gini = 0.097\nsamples = 39\nvalue = [37, 2]"] ;
49 -> 51 ;
52 [label="totalBilled <= 118.5\ngini = 0.315\nsamples = 51\nvalue = [41, 10]"] ;
4 -> 52 ;
53 [label="gini = 0.472\nsamples = 21\nvalue = [13, 8]"] ;
52 -> 53 ;
54 [label="totalBilled <= 130.0\ngini = 0.124\nsamples = 30\nvalue = [28, 2]"] ;
52 -> 54 ;
55 [label="gini = 0.0\nsamples = 14\nvalue = [14, 0]"] ;
54 -> 55 ;
56 [label="gini = 0.219\nsamples = 16\nvalue = [14, 2]"] ;
54 -> 56 ;
57 [label="totalBilled <= 31.5\ngini = 0.204\nsamples = 2644\nvalue = [2339, 305]"] ;
3 -> 57 ;
58 [label="Geo_Code <= 4.5\ngini = 0.23\nsamples = 1333\nvalue = [1156, 177]"] ;
57 -> 58 ;
59 [label="totalBilled <= 27.5\ngini = 0.188\nsamples = 561\nvalue = [502, 59]"] ;
58 -> 59 ;
60 [label="totalBilled <= 21.5\ngini = 0.183\nsamples = 531\nvalue = [477, 54]"] ;
59 -> 60 ;
61 [label="totalBilled <= 20.5\ngini = 0.192\nsamples = 484\nvalue = [432, 52]"] ;
60 -> 61 ;
62 [label="Geo_Code <= 2.5\ngini = 0.183\nsamples = 471\nvalue = [423, 48]"] ;
61 -> 62 ;
63 [label="gini = 0.15\nsamples = 208\nvalue = [191, 17]"] ;
62 -> 63 ;
64 [label="gini = 0.208\nsamples = 263\nvalue = [232, 31]"] ;
62 -> 64 ;
65 [label="gini = 0.426\nsamples = 13\nvalue = [9, 4]"] ;
61 -> 65 ;
66 [label="Geo_Code <= 3.5\ngini = 0.081\nsamples = 47\nvalue = [45, 2]"] ;
60 -> 66 ;
67 [label="gini = 0.0\nsamples = 19\nvalue = [19, 0]"] ;
66 -> 67 ;
68 [label="totalBilled <= 25.5\ngini = 0.133\nsamples = 28\nvalue = [26, 2]"] ;
66 -> 68 ;
69 [label="gini = 0.105\nsamples = 18\nvalue = [17, 1]"] ;
68 -> 69 ;
70 [label="gini = 0.18\nsamples = 10\nvalue = [9, 1]"] ;
68 -> 70 ;
71 [label="totalBilled <= 29.5\ngini = 0.278\nsamples = 30\nvalue = [25, 5]"] ;
59 -> 71 ;
72 [label="gini = 0.32\nsamples = 15\nvalue = [12, 3]"] ;
71 -> 72 ;
73 [label="gini = 0.231\nsamples = 15\nvalue = [13, 2]"] ;
71 -> 73 ;
74 [label="totalBilled <= 1.5\ngini = 0.259\nsamples = 772\nvalue = [654, 118]"] ;
58 -> 74 ;
75 [label="Geo_Code <= 5.5\ngini = 0.087\nsamples = 66\nvalue = [63, 3]"] ;
74 -> 75 ;
76 [label="gini = 0.0\nsamples = 31\nvalue = [31, 0]"] ;
75 -> 76 ;
77 [label="gini = 0.157\nsamples = 35\nvalue = [32, 3]"] ;
75 -> 77 ;
78 [label="customer_age <= 0.5\ngini = 0.273\nsamples = 706\nvalue = [591, 115]"] ;
74 -> 78 ;
79 [label="totalBilled <= 30.5\ngini = 0.268\nsamples = 696\nvalue = [585, 111]"] ;
78 -> 79 ;
80 [label="totalBilled <= 5.5\ngini = 0.262\nsamples = 670\nvalue = [566, 104]"] ;
79 -> 80 ;
81 [label="gini = 0.327\nsamples = 97\nvalue = [77, 20]"] ;
80 -> 81 ;
82 [label="gini = 0.25\nsamples = 573\nvalue = [489, 84]"] ;
80 -> 82 ;
83 [label="gini = 0.393\nsamples = 26\nvalue = [19, 7]"] ;
79 -> 83 ;
84 [label="gini = 0.48\nsamples = 10\nvalue = [6, 4]"] ;
78 -> 84 ;
85 [label="totalBilled <= 92.5\ngini = 0.176\nsamples = 1311\nvalue = [1183, 128]"] ;
57 -> 85 ;
86 [label="totalBilled <= 71.5\ngini = 0.165\nsamples = 1126\nvalue = [1024, 102]"] ;
85 -> 86 ;
87 [label="totalBilled <= 67.5\ngini = 0.185\nsamples = 904\nvalue = [811, 93]"] ;
86 -> 87 ;
88 [label="totalBilled <= 38.5\ngini = 0.173\nsamples = 825\nvalue = [746, 79]"] ;
87 -> 88 ;
89 [label="Geo_Code <= 4.5\ngini = 0.133\nsamples = 237\nvalue = [220, 17]"] ;
88 -> 89 ;
90 [label="gini = 0.2\nsamples = 71\nvalue = [63, 8]"] ;
89 -> 90 ;
91 [label="gini = 0.103\nsamples = 166\nvalue = [157, 9]"] ;
89 -> 91 ;
92 [label="totalBilled <= 53.5\ngini = 0.189\nsamples = 588\nvalue = [526, 62]"] ;
88 -> 92 ;
93 [label="gini = 0.221\nsamples = 348\nvalue = [304, 44]"] ;
92 -> 93 ;
94 [label="gini = 0.139\nsamples = 240\nvalue = [222, 18]"] ;
92 -> 94 ;
95 [label="totalBilled <= 70.5\ngini = 0.292\nsamples = 79\nvalue = [65, 14]"] ;
87 -> 95 ;
96 [label="Geo_Code <= 5.5\ngini = 0.271\nsamples = 62\nvalue = [52, 10]"] ;
95 -> 96 ;
97 [label="gini = 0.188\nsamples = 19\nvalue = [17, 2]"] ;
96 -> 97 ;
98 [label="gini = 0.303\nsamples = 43\nvalue = [35, 8]"] ;
96 -> 98 ;
99 [label="gini = 0.36\nsamples = 17\nvalue = [13, 4]"] ;
95 -> 99 ;
100 [label="totalBilled <= 75.5\ngini = 0.078\nsamples = 222\nvalue = [213, 9]"] ;
86 -> 100 ;
101 [label="gini = 0.0\nsamples = 52\nvalue = [52, 0]"] ;
100 -> 101 ;
102 [label="Geo_Code <= 4.5\ngini = 0.1\nsamples = 170\nvalue = [161, 9]"] ;
100 -> 102 ;
103 [label="gini = 0.0\nsamples = 26\nvalue = [26, 0]"] ;
102 -> 103 ;
104 [label="Geo_Code <= 5.5\ngini = 0.117\nsamples = 144\nvalue = [135, 9]"] ;
102 -> 104 ;
105 [label="gini = 0.269\nsamples = 25\nvalue = [21, 4]"] ;
104 -> 105 ;
106 [label="gini = 0.081\nsamples = 119\nvalue = [114, 5]"] ;
104 -> 106 ;
107 [label="totalBilled <= 95.5\ngini = 0.242\nsamples = 185\nvalue = [159, 26]"] ;
85 -> 107 ;
108 [label="Geo_Code <= 5.5\ngini = 0.417\nsamples = 27\nvalue = [19, 8]"] ;
107 -> 108 ;
109 [label="gini = 0.426\nsamples = 13\nvalue = [9, 4]"] ;
108 -> 109 ;
110 [label="gini = 0.408\nsamples = 14\nvalue = [10, 4]"] ;
108 -> 110 ;
111 [label="totalBilled <= 111.5\ngini = 0.202\nsamples = 158\nvalue = [140, 18]"] ;
107 -> 111 ;
112 [label="totalBilled <= 109.5\ngini = 0.262\nsamples = 84\nvalue = [71, 13]"] ;
111 -> 112 ;
113 [label="totalBilled <= 104.5\ngini = 0.214\nsamples = 74\nvalue = [65, 9]"] ;
112 -> 113 ;
114 [label="gini = 0.15\nsamples = 49\nvalue = [45, 4]"] ;
113 -> 114 ;
115 [label="gini = 0.32\nsamples = 25\nvalue = [20, 5]"] ;
113 -> 115 ;
116 [label="gini = 0.48\nsamples = 10\nvalue = [6, 4]"] ;
112 -> 116 ;
117 [label="Geo_Code <= 4.5\ngini = 0.126\nsamples = 74\nvalue = [69, 5]"] ;
111 -> 117 ;
118 [label="gini = 0.278\nsamples = 12\nvalue = [10, 2]"] ;
117 -> 118 ;
119 [label="totalBilled <= 117.5\ngini = 0.092\nsamples = 62\nvalue = [59, 3]"] ;
117 -> 119 ;
120 [label="gini = 0.0\nsamples = 27\nvalue = [27, 0]"] ;
119 -> 120 ;
121 [label="gini = 0.157\nsamples = 35\nvalue = [32, 3]"] ;
119 -> 121 ;
122 [label="ProductsUsed <= 5.5\ngini = 0.289\nsamples = 19125\nvalue = [15776, 3349]"] ;
2 -> 122 ;
123 [label="Geo_Code <= 3.5\ngini = 0.26\nsamples = 7860\nvalue = [6651, 1209]"] ;
122 -> 123 ;
124 [label="totalBilled <= 15.5\ngini = 0.206\nsamples = 1217\nvalue = [1075, 142]"] ;
123 -> 124 ;
125 [label="totalBilled <= 13.5\ngini = 0.259\nsamples = 445\nvalue = [377, 68]"] ;
124 -> 125 ;
126 [label="totalBilled <= 5.5\ngini = 0.248\nsamples = 407\nvalue = [348, 59]"] ;
125 -> 126 ;
127 [label="Geo_Code <= 2.5\ngini = 0.288\nsamples = 155\nvalue = [128, 27]"] ;
126 -> 127 ;
128 [label="totalBilled <= 3.5\ngini = 0.25\nsamples = 116\nvalue = [99, 17]"] ;
127 -> 128 ;
129 [label="gini = 0.278\nsamples = 72\nvalue = [60, 12]"] ;
128 -> 129 ;
130 [label="gini = 0.201\nsamples = 44\nvalue = [39, 5]"] ;
128 -> 130 ;
131 [label="totalBilled <= 1.5\ngini = 0.381\nsamples = 39\nvalue = [29, 10]"] ;
127 -> 131 ;
132 [label="gini = 0.165\nsamples = 11\nvalue = [10, 1]"] ;
131 -> 132 ;
133 [label="gini = 0.436\nsamples = 28\nvalue = [19, 9]"] ;
131 -> 133 ;
134 [label="customer_age <= 0.5\ngini = 0.222\nsamples = 252\nvalue = [220, 32]"] ;
126 -> 134 ;
135 [label="totalBilled <= 9.5\ngini = 0.211\nsamples = 242\nvalue = [213, 29]"] ;
134 -> 135 ;
136 [label="gini = 0.168\nsamples = 119\nvalue = [108, 11]"] ;
135 -> 136 ;
137 [label="gini = 0.25\nsamples = 123\nvalue = [105, 18]"] ;
135 -> 137 ;
138 [label="gini = 0.42\nsamples = 10\nvalue = [7, 3]"] ;
134 -> 138 ;
139 [label="ProductsUsed <= 4.5\ngini = 0.361\nsamples = 38\nvalue = [29, 9]"] ;
125 -> 139 ;
140 [label="gini = 0.457\nsamples = 17\nvalue = [11, 6]"] ;
139 -> 140 ;
141 [label="gini = 0.245\nsamples = 21\nvalue = [18, 3]"] ;
139 -> 141 ;
142 [label="totalBilled <= 41.5\ngini = 0.173\nsamples = 772\nvalue = [698, 74]"] ;
124 -> 142 ;
143 [label="totalBilled <= 37.5\ngini = 0.14\nsamples = 396\nvalue = [366, 30]"] ;
142 -> 143 ;
144 [label="totalBilled <= 29.5\ngini = 0.157\nsamples = 350\nvalue = [320, 30]"] ;
143 -> 144 ;
145 [label="totalBilled <= 16.5\ngini = 0.134\nsamples = 249\nvalue = [231, 18]"] ;
144 -> 145 ;
146 [label="gini = 0.0\nsamples = 18\nvalue = [18, 0]"] ;
145 -> 146 ;
147 [label="gini = 0.144\nsamples = 231\nvalue = [213, 18]"] ;
145 -> 147 ;
148 [label="totalBilled <= 31.5\ngini = 0.209\nsamples = 101\nvalue = [89, 12]"] ;
144 -> 148 ;
149 [label="gini = 0.32\nsamples = 30\nvalue = [24, 6]"] ;
148 -> 149 ;
150 [label="gini = 0.155\nsamples = 71\nvalue = [65, 6]"] ;
148 -> 150 ;
151 [label="gini = 0.0\nsamples = 46\nvalue = [46, 0]"] ;
143 -> 151 ;
152 [label="totalBilled <= 62.5\ngini = 0.207\nsamples = 376\nvalue = [332, 44]"] ;
142 -> 152 ;
153 [label="totalBilled <= 59.5\ngini = 0.248\nsamples = 200\nvalue = [171, 29]"] ;
152 -> 153 ;
154 [label="totalBilled <= 52.5\ngini = 0.233\nsamples = 186\nvalue = [161, 25]"] ;
153 -> 154 ;
155 [label="gini = 0.267\nsamples = 126\nvalue = [106, 20]"] ;
154 -> 155 ;
156 [label="gini = 0.153\nsamples = 60\nvalue = [55, 5]"] ;
154 -> 156 ;
157 [label="gini = 0.408\nsamples = 14\nvalue = [10, 4]"] ;
153 -> 157 ;
158 [label="totalBilled <= 66.5\ngini = 0.156\nsamples = 176\nvalue = [161, 15]"] ;
152 -> 158 ;
159 [label="gini = 0.0\nsamples = 26\nvalue = [26, 0]"] ;
158 -> 159 ;
160 [label="totalBilled <= 69.5\ngini = 0.18\nsamples = 150\nvalue = [135, 15]"] ;
158 -> 160 ;
161 [label="gini = 0.363\nsamples = 21\nvalue = [16, 5]"] ;
160 -> 161 ;
162 [label="gini = 0.143\nsamples = 129\nvalue = [119, 10]"] ;
160 -> 162 ;
163 [label="totalBilled <= 28.5\ngini = 0.27\nsamples = 6643\nvalue = [5576, 1067]"] ;
123 -> 163 ;
164 [label="Geo_Code <= 4.5\ngini = 0.298\nsamples = 2451\nvalue = [2004, 447]"] ;
163 -> 164 ;
165 [label="totalBilled <= 27.5\ngini = 0.248\nsamples = 580\nvalue = [496, 84]"] ;
164 -> 165 ;
166 [label="totalBilled <= 1.5\ngini = 0.24\nsamples = 566\nvalue = [487, 79]"] ;
165 -> 166 ;
167 [label="totalBilled <= 0.5\ngini = 0.097\nsamples = 59\nvalue = [56, 3]"] ;
166 -> 167 ;
168 [label="gini = 0.0\nsamples = 16\nvalue = [16, 0]"] ;
167 -> 168 ;
169 [label="gini = 0.13\nsamples = 43\nvalue = [40, 3]"] ;
167 -> 169 ;
170 [label="ProductsUsed <= 4.5\ngini = 0.255\nsamples = 507\nvalue = [431, 76]"] ;
166 -> 170 ;
171 [label="gini = 0.225\nsamples = 217\nvalue = [189, 28]"] ;
170 -> 171 ;
172 [label="gini = 0.276\nsamples = 290\nvalue = [242, 48]"] ;
170 -> 172 ;
173 [label="gini = 0.459\nsamples = 14\nvalue = [9, 5]"] ;
165 -> 173 ;
174 [label="customer_age <= 0.5\ngini = 0.313\nsamples = 1871\nvalue = [1508, 363]"] ;
164 -> 174 ;
175 [label="Geo_Code <= 5.5\ngini = 0.309\nsamples = 1830\nvalue = [1480, 350]"] ;
174 -> 175 ;
176 [label="totalBilled <= 22.5\ngini = 0.343\nsamples = 532\nvalue = [415, 117]"] ;
175 -> 176 ;
177 [label="gini = 0.333\nsamples = 441\nvalue = [348, 93]"] ;
176 -> 177 ;
178 [label="gini = 0.388\nsamples = 91\nvalue = [67, 24]"] ;
176 -> 178 ;
179 [label="totalBilled <= 6.5\ngini = 0.295\nsamples = 1298\nvalue = [1065, 233]"] ;
175 -> 179 ;
180 [label="gini = 0.324\nsamples = 270\nvalue = [215, 55]"] ;
179 -> 180 ;
181 [label="gini = 0.286\nsamples = 1028\nvalue = [850, 178]"] ;
179 -> 181 ;
182 [label="totalBilled <= 12.5\ngini = 0.433\nsamples = 41\nvalue = [28, 13]"] ;
174 -> 182 ;
183 [label="gini = 0.5\nsamples = 12\nvalue = [6, 6]"] ;
182 -> 183 ;
184 [label="totalBilled <= 21.5\ngini = 0.366\nsamples = 29\nvalue = [22, 7]"] ;
182 -> 184 ;
185 [label="gini = 0.401\nsamples = 18\nvalue = [13, 5]"] ;
184 -> 185 ;
186 [label="gini = 0.298\nsamples = 11\nvalue = [9, 2]"] ;
184 -> 186 ;
187 [label="Geo_Code <= 5.5\ngini = 0.252\nsamples = 4192\nvalue = [3572, 620]"] ;
163 -> 187 ;
188 [label="ProductsUsed <= 4.5\ngini = 0.286\nsamples = 1384\nvalue = [1145, 239]"] ;
187 -> 188 ;
189 [label="totalBilled <= 121.5\ngini = 0.247\nsamples = 583\nvalue = [499, 84]"] ;
188 -> 189 ;
190 [label="totalBilled <= 61.5\ngini = 0.24\nsamples = 573\nvalue = [493, 80]"] ;
189 -> 190 ;
191 [label="gini = 0.273\nsamples = 368\nvalue = [308, 60]"] ;
190 -> 191 ;
192 [label="gini = 0.176\nsamples = 205\nvalue = [185, 20]"] ;
190 -> 192 ;
193 [label="gini = 0.48\nsamples = 10\nvalue = [6, 4]"] ;
189 -> 193 ;
194 [label="totalBilled <= 32.5\ngini = 0.312\nsamples = 801\nvalue = [646, 155]"] ;
188 -> 194 ;
195 [label="totalBilled <= 31.5\ngini = 0.209\nsamples = 76\nvalue = [67, 9]"] ;
194 -> 195 ;
196 [label="gini = 0.245\nsamples = 63\nvalue = [54, 9]"] ;
195 -> 196 ;
197 [label="gini = 0.0\nsamples = 13\nvalue = [13, 0]"] ;
195 -> 197 ;
198 [label="totalBilled <= 50.5\ngini = 0.322\nsamples = 725\nvalue = [579, 146]"] ;
194 -> 198 ;
199 [label="gini = 0.368\nsamples = 230\nvalue = [174, 56]"] ;
198 -> 199 ;
200 [label="gini = 0.298\nsamples = 495\nvalue = [405, 90]"] ;
198 -> 200 ;
201 [label="totalBilled <= 32.5\ngini = 0.235\nsamples = 2808\nvalue = [2427, 381]"] ;
187 -> 201 ;
202 [label="totalBilled <= 29.5\ngini = 0.157\nsamples = 210\nvalue = [192, 18]"] ;
201 -> 202 ;
203 [label="ProductsUsed <= 4.5\ngini = 0.13\nsamples = 43\nvalue = [40, 3]"] ;
202 -> 203 ;
204 [label="gini = 0.074\nsamples = 26\nvalue = [25, 1]"] ;
203 -> 204 ;
205 [label="gini = 0.208\nsamples = 17\nvalue = [15, 2]"] ;
203 -> 205 ;
206 [label="totalBilled <= 30.5\ngini = 0.164\nsamples = 167\nvalue = [152, 15]"] ;
202 -> 206 ;
207 [label="gini = 0.177\nsamples = 51\nvalue = [46, 5]"] ;
206 -> 207 ;
208 [label="gini = 0.158\nsamples = 116\nvalue = [106, 10]"] ;
206 -> 208 ;
209 [label="totalBilled <= 35.5\ngini = 0.24\nsamples = 2598\nvalue = [2235, 363]"] ;
201 -> 209 ;
210 [label="totalBilled <= 34.5\ngini = 0.354\nsamples = 135\nvalue = [104, 31]"] ;
209 -> 210 ;
211 [label="gini = 0.325\nsamples = 98\nvalue = [78, 20]"] ;
210 -> 211 ;
212 [label="gini = 0.418\nsamples = 37\nvalue = [26, 11]"] ;
210 -> 212 ;
213 [label="totalBilled <= 77.5\ngini = 0.233\nsamples = 2463\nvalue = [2131, 332]"] ;
209 -> 213 ;
214 [label="gini = 0.247\nsamples = 1620\nvalue = [1386, 234]"] ;
213 -> 214 ;
215 [label="gini = 0.205\nsamples = 843\nvalue = [745, 98]"] ;
213 -> 215 ;
216 [label="Geo_Code <= 3.5\ngini = 0.308\nsamples = 11265\nvalue = [9125, 2140]"] ;
122 -> 216 ;
217 [label="ProductsUsed <= 6.5\ngini = 0.25\nsamples = 1848\nvalue = [1577, 271]"] ;
216 -> 217 ;
218 [label="totalBilled <= 18.5\ngini = 0.212\nsamples = 836\nvalue = [735, 101]"] ;
217 -> 218 ;
219 [label="totalBilled <= 4.5\ngini = 0.273\nsamples = 300\nvalue = [251, 49]"] ;
218 -> 219 ;
220 [label="totalBilled <= 1.5\ngini = 0.138\nsamples = 67\nvalue = [62, 5]"] ;
219 -> 220 ;
221 [label="gini = 0.227\nsamples = 23\nvalue = [20, 3]"] ;
220 -> 221 ;
222 [label="totalBilled <= 2.5\ngini = 0.087\nsamples = 44\nvalue = [42, 2]"] ;
220 -> 222 ;
223 [label="gini = 0.105\nsamples = 18\nvalue = [17, 1]"] ;
222 -> 223 ;
224 [label="gini = 0.074\nsamples = 26\nvalue = [25, 1]"] ;
222 -> 224 ;
225 [label="totalBilled <= 5.5\ngini = 0.306\nsamples = 233\nvalue = [189, 44]"] ;
219 -> 225 ;
226 [label="gini = 0.444\nsamples = 12\nvalue = [8, 4]"] ;
225 -> 226 ;
227 [label="Geo_Code <= 2.5\ngini = 0.296\nsamples = 221\nvalue = [181, 40]"] ;
225 -> 227 ;
228 [label="gini = 0.261\nsamples = 123\nvalue = [104, 19]"] ;
227 -> 228 ;
229 [label="gini = 0.337\nsamples = 98\nvalue = [77, 21]"] ;
227 -> 229 ;
230 [label="Geo_Code <= 2.5\ngini = 0.175\nsamples = 536\nvalue = [484, 52]"] ;
218 -> 230 ;
231 [label="totalBilled <= 66.5\ngini = 0.115\nsamples = 246\nvalue = [231, 15]"] ;
230 -> 231 ;
232 [label="totalBilled <= 58.5\ngini = 0.13\nsamples = 214\nvalue = [199, 15]"] ;
231 -> 232 ;
233 [label="gini = 0.112\nsamples = 202\nvalue = [190, 12]"] ;
232 -> 233 ;
234 [label="gini = 0.375\nsamples = 12\nvalue = [9, 3]"] ;
232 -> 234 ;
235 [label="gini = 0.0\nsamples = 32\nvalue = [32, 0]"] ;
231 -> 235 ;
236 [label="totalBilled <= 103.5\ngini = 0.223\nsamples = 290\nvalue = [253, 37]"] ;
230 -> 236 ;
237 [label="totalBilled <= 28.5\ngini = 0.209\nsamples = 278\nvalue = [245, 33]"] ;
236 -> 237 ;
238 [label="gini = 0.286\nsamples = 52\nvalue = [43, 9]"] ;
237 -> 238 ;
239 [label="gini = 0.19\nsamples = 226\nvalue = [202, 24]"] ;
237 -> 239 ;
240 [label="gini = 0.444\nsamples = 12\nvalue = [8, 4]"] ;
236 -> 240 ;
241 [label="totalBilled <= 57.5\ngini = 0.28\nsamples = 1012\nvalue = [842, 170]"] ;
217 -> 241 ;
242 [label="Geo_Code <= 1.5\ngini = 0.265\nsamples = 827\nvalue = [697, 130]"] ;
241 -> 242 ;
243 [label="totalBilled <= 39.5\ngini = 0.391\nsamples = 30\nvalue = [22, 8]"] ;
242 -> 243 ;
244 [label="totalBilled <= 19.0\ngini = 0.455\nsamples = 20\nvalue = [13, 7]"] ;
243 -> 244 ;
245 [label="gini = 0.32\nsamples = 10\nvalue = [8, 2]"] ;
244 -> 245 ;
246 [label="gini = 0.5\nsamples = 10\nvalue = [5, 5]"] ;
244 -> 246 ;
247 [label="gini = 0.18\nsamples = 10\nvalue = [9, 1]"] ;
243 -> 247 ;
248 [label="totalBilled <= 56.5\ngini = 0.259\nsamples = 797\nvalue = [675, 122]"] ;
242 -> 248 ;
249 [label="totalBilled <= 5.5\ngini = 0.263\nsamples = 785\nvalue = [663, 122]"] ;
248 -> 249 ;
250 [label="gini = 0.21\nsamples = 84\nvalue = [74, 10]"] ;
249 -> 250 ;
251 [label="gini = 0.268\nsamples = 701\nvalue = [589, 112]"] ;
249 -> 251 ;
252 [label="gini = 0.0\nsamples = 12\nvalue = [12, 0]"] ;
248 -> 252 ;
253 [label="customer_age <= 0.5\ngini = 0.339\nsamples = 185\nvalue = [145, 40]"] ;
241 -> 253 ;
254 [label="totalBilled <= 71.5\ngini = 0.306\nsamples = 175\nvalue = [142, 33]"] ;
253 -> 254 ;
255 [label="totalBilled <= 64.5\ngini = 0.381\nsamples = 82\nvalue = [61, 21]"] ;
254 -> 255 ;
256 [label="gini = 0.292\nsamples = 45\nvalue = [37, 8]"] ;
255 -> 256 ;
257 [label="gini = 0.456\nsamples = 37\nvalue = [24, 13]"] ;
255 -> 257 ;
258 [label="totalBilled <= 76.5\ngini = 0.225\nsamples = 93\nvalue = [81, 12]"] ;
254 -> 258 ;
259 [label="gini = 0.0\nsamples = 16\nvalue = [16, 0]"] ;
258 -> 259 ;
260 [label="gini = 0.263\nsamples = 77\nvalue = [65, 12]"] ;
258 -> 260 ;
261 [label="gini = 0.42\nsamples = 10\nvalue = [3, 7]"] ;
253 -> 261 ;
262 [label="totalBilled <= 63.5\ngini = 0.318\nsamples = 9417\nvalue = [7548, 1869]"] ;
216 -> 262 ;
263 [label="customer_age <= 0.5\ngini = 0.337\nsamples = 6485\nvalue = [5094, 1391]"] ;
262 -> 263 ;
264 [label="totalBilled <= 23.5\ngini = 0.333\nsamples = 6319\nvalue = [4984, 1335]"] ;
263 -> 264 ;
265 [label="totalBilled <= 1.5\ngini = 0.358\nsamples = 2373\nvalue = [1818, 555]"] ;
264 -> 265 ;
266 [label="ProductsUsed <= 6.5\ngini = 0.283\nsamples = 117\nvalue = [97, 20]"] ;
265 -> 266 ;
267 [label="gini = 0.222\nsamples = 55\nvalue = [48, 7]"] ;
266 -> 267 ;
268 [label="gini = 0.331\nsamples = 62\nvalue = [49, 13]"] ;
266 -> 268 ;
269 [label="totalBilled <= 22.5\ngini = 0.362\nsamples = 2256\nvalue = [1721, 535]"] ;
265 -> 269 ;
270 [label="gini = 0.36\nsamples = 2151\nvalue = [1645, 506]"] ;
269 -> 270 ;
271 [label="gini = 0.4\nsamples = 105\nvalue = [76, 29]"] ;
269 -> 271 ;
272 [label="Geo_Code <= 5.5\ngini = 0.317\nsamples = 3946\nvalue = [3166, 780]"] ;
264 -> 272 ;
273 [label="totalBilled <= 60.5\ngini = 0.341\nsamples = 1527\nvalue = [1194, 333]"] ;
272 -> 273 ;
274 [label="gini = 0.335\nsamples = 1440\nvalue = [1134, 306]"] ;
273 -> 274 ;
275 [label="gini = 0.428\nsamples = 87\nvalue = [60, 27]"] ;
273 -> 275 ;
276 [label="totalBilled <= 38.5\ngini = 0.301\nsamples = 2419\nvalue = [1972, 447]"] ;
272 -> 276 ;
277 [label="gini = 0.328\nsamples = 963\nvalue = [764, 199]"] ;
276 -> 277 ;
278 [label="gini = 0.283\nsamples = 1456\nvalue = [1208, 248]"] ;
276 -> 278 ;
279 [label="totalBilled <= 57.5\ngini = 0.447\nsamples = 166\nvalue = [110, 56]"] ;
263 -> 279 ;
280 [label="totalBilled <= 5.5\ngini = 0.423\nsamples = 148\nvalue = [103, 45]"] ;
279 -> 280 ;
281 [label="gini = 0.0\nsamples = 10\nvalue = [10, 0]"] ;
280 -> 281 ;
282 [label="customer_age <= 2.0\ngini = 0.44\nsamples = 138\nvalue = [93, 45]"] ;
280 -> 282 ;
283 [label="gini = 0.451\nsamples = 128\nvalue = [84, 44]"] ;
282 -> 283 ;
284 [label="gini = 0.18\nsamples = 10\nvalue = [9, 1]"] ;
282 -> 284 ;
285 [label="gini = 0.475\nsamples = 18\nvalue = [7, 11]"] ;
279 -> 285 ;
286 [label="Geo_Code <= 5.5\ngini = 0.273\nsamples = 2932\nvalue = [2454, 478]"] ;
262 -> 286 ;
287 [label="totalBilled <= 66.5\ngini = 0.301\nsamples = 925\nvalue = [754, 171]"] ;
286 -> 287 ;
288 [label="ProductsUsed <= 6.5\ngini = 0.163\nsamples = 67\nvalue = [61, 6]"] ;
287 -> 288 ;
289 [label="totalBilled <= 65.5\ngini = 0.074\nsamples = 26\nvalue = [25, 1]"] ;
288 -> 289 ;
290 [label="gini = 0.0\nsamples = 13\nvalue = [13, 0]"] ;
289 -> 290 ;
291 [label="gini = 0.142\nsamples = 13\nvalue = [12, 1]"] ;
289 -> 291 ;
292 [label="Geo_Code <= 4.5\ngini = 0.214\nsamples = 41\nvalue = [36, 5]"] ;
288 -> 292 ;
293 [label="gini = 0.236\nsamples = 22\nvalue = [19, 3]"] ;
292 -> 293 ;
294 [label="gini = 0.188\nsamples = 19\nvalue = [17, 2]"] ;
292 -> 294 ;
295 [label="totalBilled <= 77.5\ngini = 0.311\nsamples = 858\nvalue = [693, 165]"] ;
287 -> 295 ;
296 [label="Geo_Code <= 4.5\ngini = 0.36\nsamples = 259\nvalue = [198, 61]"] ;
295 -> 296 ;
297 [label="gini = 0.268\nsamples = 94\nvalue = [79, 15]"] ;
296 -> 297 ;
298 [label="gini = 0.402\nsamples = 165\nvalue = [119, 46]"] ;
296 -> 298 ;
299 [label="totalBilled <= 123.5\ngini = 0.287\nsamples = 599\nvalue = [495, 104]"] ;
295 -> 299 ;
300 [label="gini = 0.275\nsamples = 534\nvalue = [446, 88]"] ;
299 -> 300 ;
301 [label="gini = 0.371\nsamples = 65\nvalue = [49, 16]"] ;
299 -> 301 ;
302 [label="totalBilled <= 97.5\ngini = 0.259\nsamples = 2007\nvalue = [1700, 307]"] ;
286 -> 302 ;
303 [label="customer_age <= 0.5\ngini = 0.273\nsamples = 1391\nvalue = [1164, 227]"] ;
302 -> 303 ;
304 [label="totalBilled <= 69.5\ngini = 0.268\nsamples = 1337\nvalue = [1124, 213]"] ;
303 -> 304 ;
305 [label="gini = 0.307\nsamples = 275\nvalue = [223, 52]"] ;
304 -> 305 ;
306 [label="gini = 0.257\nsamples = 1062\nvalue = [901, 161]"] ;
304 -> 306 ;
307 [label="totalBilled <= 74.5\ngini = 0.384\nsamples = 54\nvalue = [40, 14]"] ;
303 -> 307 ;
308 [label="gini = 0.266\nsamples = 19\nvalue = [16, 3]"] ;
307 -> 308 ;
309 [label="gini = 0.431\nsamples = 35\nvalue = [24, 11]"] ;
307 -> 309 ;
310 [label="totalBilled <= 141.5\ngini = 0.226\nsamples = 616\nvalue = [536, 80]"] ;
302 -> 310 ;
311 [label="totalBilled <= 122.5\ngini = 0.214\nsamples = 575\nvalue = [505, 70]"] ;
310 -> 311 ;
312 [label="gini = 0.236\nsamples = 439\nvalue = [379, 60]"] ;
311 -> 312 ;
313 [label="gini = 0.136\nsamples = 136\nvalue = [126, 10]"] ;
311 -> 313 ;
314 [label="totalBilled <= 144.5\ngini = 0.369\nsamples = 41\nvalue = [31, 10]"] ;
310 -> 314 ;
315 [label="gini = 0.48\nsamples = 10\nvalue = [6, 4]"] ;
314 -> 315 ;
316 [label="gini = 0.312\nsamples = 31\nvalue = [25, 6]"] ;
314 -> 316 ;
317 [label="customer_age <= 0.5\ngini = 0.403\nsamples = 32005\nvalue = [23064, 8941]"] ;
1 -> 317 ;
318 [label="ProductsUsed <= 9.5\ngini = 0.396\nsamples = 30288\nvalue = [22048, 8240]"] ;
317 -> 318 ;
319 [label="totalBilled <= 36.5\ngini = 0.363\nsamples = 12565\nvalue = [9573, 2992]"] ;
318 -> 319 ;
320 [label="Geo_Code <= 3.5\ngini = 0.392\nsamples = 5292\nvalue = [3874, 1418]"] ;
319 -> 320 ;
321 [label="totalBilled <= 5.5\ngini = 0.304\nsamples = 1123\nvalue = [913, 210]"] ;
320 -> 321 ;
322 [label="Geo_Code <= 2.5\ngini = 0.382\nsamples = 187\nvalue = [139, 48]"] ;
321 -> 322 ;
323 [label="totalBilled <= 4.5\ngini = 0.356\nsamples = 108\nvalue = [83, 25]"] ;
322 -> 323 ;
324 [label="totalBilled <= 2.5\ngini = 0.383\nsamples = 89\nvalue = [66, 23]"] ;
323 -> 324 ;
325 [label="gini = 0.337\nsamples = 42\nvalue = [33, 9]"] ;
324 -> 325 ;
326 [label="gini = 0.418\nsamples = 47\nvalue = [33, 14]"] ;
324 -> 326 ;
327 [label="gini = 0.188\nsamples = 19\nvalue = [17, 2]"] ;
323 -> 327 ;
328 [label="totalBilled <= 3.5\ngini = 0.413\nsamples = 79\nvalue = [56, 23]"] ;
322 -> 328 ;
329 [label="ProductsUsed <= 8.5\ngini = 0.381\nsamples = 39\nvalue = [29, 10]"] ;
328 -> 329 ;
330 [label="gini = 0.308\nsamples = 21\nvalue = [17, 4]"] ;
329 -> 330 ;
331 [label="gini = 0.444\nsamples = 18\nvalue = [12, 6]"] ;
329 -> 331 ;
332 [label="ProductsUsed <= 8.5\ngini = 0.439\nsamples = 40\nvalue = [27, 13]"] ;
328 -> 332 ;
333 [label="gini = 0.492\nsamples = 16\nvalue = [9, 7]"] ;
332 -> 333 ;
334 [label="gini = 0.375\nsamples = 24\nvalue = [18, 6]"] ;
332 -> 334 ;
335 [label="totalBilled <= 34.5\ngini = 0.286\nsamples = 936\nvalue = [774, 162]"] ;
321 -> 335 ;
336 [label="ProductsUsed <= 8.5\ngini = 0.278\nsamples = 880\nvalue = [733, 147]"] ;
335 -> 336 ;
337 [label="totalBilled <= 15.5\ngini = 0.257\nsamples = 436\nvalue = [370, 66]"] ;
336 -> 337 ;
338 [label="gini = 0.285\nsamples = 174\nvalue = [144, 30]"] ;
337 -> 338 ;
339 [label="gini = 0.237\nsamples = 262\nvalue = [226, 36]"] ;
337 -> 339 ;
340 [label="totalBilled <= 20.5\ngini = 0.298\nsamples = 444\nvalue = [363, 81]"] ;
336 -> 340 ;
341 [label="gini = 0.326\nsamples = 244\nvalue = [194, 50]"] ;
340 -> 341 ;
342 [label="gini = 0.262\nsamples = 200\nvalue = [169, 31]"] ;
340 -> 342 ;
343 [label="ProductsUsed <= 8.5\ngini = 0.392\nsamples = 56\nvalue = [41, 15]"] ;
335 -> 343 ;
344 [label="totalBilled <= 35.5\ngini = 0.287\nsamples = 23\nvalue = [19, 4]"] ;
343 -> 344 ;
345 [label="gini = 0.278\nsamples = 12\nvalue = [10, 2]"] ;
344 -> 345 ;
346 [label="gini = 0.298\nsamples = 11\nvalue = [9, 2]"] ;
344 -> 346 ;
347 [label="totalBilled <= 35.5\ngini = 0.444\nsamples = 33\nvalue = [22, 11]"] ;
343 -> 347 ;
348 [label="gini = 0.484\nsamples = 17\nvalue = [10, 7]"] ;
347 -> 348 ;
349 [label="gini = 0.375\nsamples = 16\nvalue = [12, 4]"] ;
347 -> 349 ;
350 [label="ProductsUsed <= 8.5\ngini = 0.412\nsamples = 4169\nvalue = [2961, 1208]"] ;
320 -> 350 ;
351 [label="totalBilled <= 2.5\ngini = 0.396\nsamples = 2099\nvalue = [1528, 571]"] ;
350 -> 351 ;
352 [label="totalBilled <= 1.5\ngini = 0.474\nsamples = 88\nvalue = [54, 34]"] ;
351 -> 352 ;
353 [label="Geo_Code <= 5.5\ngini = 0.423\nsamples = 46\nvalue = [32, 14]"] ;
352 -> 353 ;
354 [label="gini = 0.444\nsamples = 21\nvalue = [14, 7]"] ;
353 -> 354 ;
355 [label="gini = 0.403\nsamples = 25\nvalue = [18, 7]"] ;
353 -> 355 ;
356 [label="Geo_Code <= 4.5\ngini = 0.499\nsamples = 42\nvalue = [22, 20]"] ;
352 -> 356 ;
357 [label="gini = 0.486\nsamples = 12\nvalue = [7, 5]"] ;
356 -> 357 ;
358 [label="gini = 0.5\nsamples = 30\nvalue = [15, 15]"] ;
356 -> 358 ;
359 [label="totalBilled <= 35.5\ngini = 0.391\nsamples = 2011\nvalue = [1474, 537]"] ;
351 -> 359 ;
360 [label="totalBilled <= 10.5\ngini = 0.388\nsamples = 1953\nvalue = [1439, 514]"] ;
359 -> 360 ;
361 [label="gini = 0.404\nsamples = 455\nvalue = [327, 128]"] ;
360 -> 361 ;
362 [label="gini = 0.383\nsamples = 1498\nvalue = [1112, 386]"] ;
360 -> 362 ;
363 [label="Geo_Code <= 5.5\ngini = 0.479\nsamples = 58\nvalue = [35, 23]"] ;
359 -> 363 ;
364 [label="gini = 0.485\nsamples = 29\nvalue = [17, 12]"] ;
363 -> 364 ;
365 [label="gini = 0.471\nsamples = 29\nvalue = [18, 11]"] ;
363 -> 365 ;
366 [label="Geo_Code <= 5.5\ngini = 0.426\nsamples = 2070\nvalue = [1433, 637]"] ;
350 -> 366 ;
367 [label="totalBilled <= 6.5\ngini = 0.456\nsamples = 963\nvalue = [625, 338]"] ;
366 -> 367 ;
368 [label="totalBilled <= 1.5\ngini = 0.354\nsamples = 148\nvalue = [114, 34]"] ;
367 -> 368 ;
369 [label="gini = 0.473\nsamples = 26\nvalue = [16, 10]"] ;
368 -> 369 ;
370 [label="gini = 0.316\nsamples = 122\nvalue = [98, 24]"] ;
368 -> 370 ;
371 [label="totalBilled <= 35.5\ngini = 0.468\nsamples = 815\nvalue = [511, 304]"] ;
367 -> 371 ;
372 [label="gini = 0.471\nsamples = 780\nvalue = [484, 296]"] ;
371 -> 372 ;
373 [label="gini = 0.353\nsamples = 35\nvalue = [27, 8]"] ;
371 -> 373 ;
374 [label="totalBilled <= 29.5\ngini = 0.394\nsamples = 1107\nvalue = [808, 299]"] ;
366 -> 374 ;
375 [label="totalBilled <= 25.5\ngini = 0.406\nsamples = 851\nvalue = [610, 241]"] ;
374 -> 375 ;
376 [label="gini = 0.397\nsamples = 729\nvalue = [530, 199]"] ;
375 -> 376 ;
377 [label="gini = 0.451\nsamples = 122\nvalue = [80, 42]"] ;
375 -> 377 ;
378 [label="totalBilled <= 31.5\ngini = 0.35\nsamples = 256\nvalue = [198, 58]"] ;
374 -> 378 ;
379 [label="gini = 0.281\nsamples = 71\nvalue = [59, 12]"] ;
378 -> 379 ;
380 [label="gini = 0.374\nsamples = 185\nvalue = [139, 46]"] ;
378 -> 380 ;
381 [label="totalBilled <= 74.5\ngini = 0.339\nsamples = 7273\nvalue = [5699, 1574]"] ;
319 -> 381 ;
382 [label="Geo_Code <= 2.5\ngini = 0.353\nsamples = 4644\nvalue = [3580, 1064]"] ;
381 -> 382 ;
383 [label="totalBilled <= 62.5\ngini = 0.208\nsamples = 170\nvalue = [150, 20]"] ;
382 -> 383 ;
384 [label="totalBilled <= 59.5\ngini = 0.227\nsamples = 153\nvalue = [133, 20]"] ;
383 -> 384 ;
385 [label="totalBilled <= 40.5\ngini = 0.188\nsamples = 143\nvalue = [128, 15]"] ;
384 -> 385 ;
386 [label="gini = 0.285\nsamples = 29\nvalue = [24, 5]"] ;
385 -> 386 ;
387 [label="gini = 0.16\nsamples = 114\nvalue = [104, 10]"] ;
385 -> 387 ;
388 [label="gini = 0.5\nsamples = 10\nvalue = [5, 5]"] ;
384 -> 388 ;
389 [label="gini = 0.0\nsamples = 17\nvalue = [17, 0]"] ;
383 -> 389 ;
390 [label="Geo_Code <= 5.5\ngini = 0.358\nsamples = 4474\nvalue = [3430, 1044]"] ;
382 -> 390 ;
391 [label="Geo_Code <= 3.5\ngini = 0.376\nsamples = 1988\nvalue = [1489, 499]"] ;
390 -> 391 ;
392 [label="totalBilled <= 49.5\ngini = 0.316\nsamples = 447\nvalue = [359, 88]"] ;
391 -> 392 ;
393 [label="gini = 0.218\nsamples = 177\nvalue = [155, 22]"] ;
392 -> 393 ;
394 [label="gini = 0.369\nsamples = 270\nvalue = [204, 66]"] ;
392 -> 394 ;
395 [label="totalBilled <= 43.5\ngini = 0.391\nsamples = 1541\nvalue = [1130, 411]"] ;
391 -> 395 ;
396 [label="gini = 0.425\nsamples = 372\nvalue = [258, 114]"] ;
395 -> 396 ;
397 [label="gini = 0.379\nsamples = 1169\nvalue = [872, 297]"] ;
395 -> 397 ;
398 [label="totalBilled <= 40.5\ngini = 0.342\nsamples = 2486\nvalue = [1941, 545]"] ;
390 -> 398 ;
399 [label="ProductsUsed <= 8.5\ngini = 0.294\nsamples = 285\nvalue = [234, 51]"] ;
398 -> 399 ;
400 [label="gini = 0.248\nsamples = 138\nvalue = [118, 20]"] ;
399 -> 400 ;
401 [label="gini = 0.333\nsamples = 147\nvalue = [116, 31]"] ;
399 -> 401 ;
402 [label="totalBilled <= 55.5\ngini = 0.348\nsamples = 2201\nvalue = [1707, 494]"] ;
398 -> 402 ;
403 [label="gini = 0.37\nsamples = 1048\nvalue = [791, 257]"] ;
402 -> 403 ;
404 [label="gini = 0.327\nsamples = 1153\nvalue = [916, 237]"] ;
402 -> 404 ;
405 [label="totalBilled <= 145.5\ngini = 0.313\nsamples = 2629\nvalue = [2119, 510]"] ;
381 -> 405 ;
406 [label="totalBilled <= 78.5\ngini = 0.309\nsamples = 2577\nvalue = [2084, 493]"] ;
405 -> 406 ;
407 [label="Geo_Code <= 5.5\ngini = 0.278\nsamples = 342\nvalue = [285, 57]"] ;
406 -> 407 ;
408 [label="totalBilled <= 77.5\ngini = 0.312\nsamples = 129\nvalue = [104, 25]"] ;
407 -> 408 ;
409 [label="gini = 0.332\nsamples = 95\nvalue = [75, 20]"] ;
408 -> 409 ;
410 [label="gini = 0.251\nsamples = 34\nvalue = [29, 5]"] ;
408 -> 410 ;
411 [label="ProductsUsed <= 8.5\ngini = 0.255\nsamples = 213\nvalue = [181, 32]"] ;
407 -> 411 ;
412 [label="gini = 0.234\nsamples = 111\nvalue = [96, 15]"] ;
411 -> 412 ;
413 [label="gini = 0.278\nsamples = 102\nvalue = [85, 17]"] ;
411 -> 413 ;
414 [label="Geo_Code <= 4.5\ngini = 0.314\nsamples = 2235\nvalue = [1799, 436]"] ;
406 -> 414 ;
415 [label="totalBilled <= 127.5\ngini = 0.282\nsamples = 330\nvalue = [274, 56]"] ;
414 -> 415 ;
416 [label="gini = 0.289\nsamples = 319\nvalue = [263, 56]"] ;
415 -> 416 ;
417 [label="gini = 0.0\nsamples = 11\nvalue = [11, 0]"] ;
415 -> 417 ;
418 [label="totalBilled <= 88.5\ngini = 0.319\nsamples = 1905\nvalue = [1525, 380]"] ;
414 -> 418 ;
419 [label="gini = 0.335\nsamples = 592\nvalue = [466, 126]"] ;
418 -> 419 ;
420 [label="gini = 0.312\nsamples = 1313\nvalue = [1059, 254]"] ;
418 -> 420 ;
421 [label="Geo_Code <= 5.5\ngini = 0.44\nsamples = 52\nvalue = [35, 17]"] ;
405 -> 421 ;
422 [label="gini = 0.473\nsamples = 13\nvalue = [5, 8]"] ;
421 -> 422 ;
423 [label="totalBilled <= 152.5\ngini = 0.355\nsamples = 39\nvalue = [30, 9]"] ;
421 -> 423 ;
424 [label="totalBilled <= 147.5\ngini = 0.302\nsamples = 27\nvalue = [22, 5]"] ;
423 -> 424 ;
425 [label="gini = 0.397\nsamples = 11\nvalue = [8, 3]"] ;
424 -> 425 ;
426 [label="gini = 0.219\nsamples = 16\nvalue = [14, 2]"] ;
424 -> 426 ;
427 [label="gini = 0.444\nsamples = 12\nvalue = [8, 4]"] ;
423 -> 427 ;
428 [label="totalBilled <= 68.5\ngini = 0.417\nsamples = 17723\nvalue = [12475, 5248]"] ;
318 -> 428 ;
429 [label="Geo_Code <= 3.5\ngini = 0.427\nsamples = 13086\nvalue = [9049, 4037]"] ;
428 -> 429 ;
430 [label="ProductsUsed <= 10.5\ngini = 0.383\nsamples = 2142\nvalue = [1590, 552]"] ;
429 -> 430 ;
431 [label="Geo_Code <= 2.5\ngini = 0.342\nsamples = 798\nvalue = [623, 175]"] ;
430 -> 431 ;
432 [label="totalBilled <= 2.5\ngini = 0.286\nsamples = 237\nvalue = [196, 41]"] ;
431 -> 432 ;
433 [label="gini = 0.486\nsamples = 12\nvalue = [7, 5]"] ;
432 -> 433 ;
434 [label="Geo_Code <= 1.5\ngini = 0.269\nsamples = 225\nvalue = [189, 36]"] ;
432 -> 434 ;
435 [label="gini = 0.403\nsamples = 25\nvalue = [18, 7]"] ;
434 -> 435 ;
436 [label="gini = 0.248\nsamples = 200\nvalue = [171, 29]"] ;
434 -> 436 ;
437 [label="totalBilled <= 58.5\ngini = 0.364\nsamples = 561\nvalue = [427, 134]"] ;
431 -> 437 ;
438 [label="totalBilled <= 43.5\ngini = 0.376\nsamples = 505\nvalue = [378, 127]"] ;
437 -> 438 ;
439 [label="gini = 0.34\nsamples = 378\nvalue = [296, 82]"] ;
438 -> 439 ;
440 [label="gini = 0.458\nsamples = 127\nvalue = [82, 45]"] ;
438 -> 440 ;
441 [label="totalBilled <= 65.5\ngini = 0.219\nsamples = 56\nvalue = [49, 7]"] ;
437 -> 441 ;
442 [label="gini = 0.165\nsamples = 44\nvalue = [40, 4]"] ;
441 -> 442 ;
443 [label="gini = 0.375\nsamples = 12\nvalue = [9, 3]"] ;
441 -> 443 ;
444 [label="Geo_Code <= 1.5\ngini = 0.404\nsamples = 1344\nvalue = [967, 377]"] ;
430 -> 444 ;
445 [label="totalBilled <= 22.5\ngini = 0.492\nsamples = 39\nvalue = [22, 17]"] ;
444 -> 445 ;
446 [label="gini = 0.499\nsamples = 19\nvalue = [9, 10]"] ;
445 -> 446 ;
447 [label="totalBilled <= 42.5\ngini = 0.455\nsamples = 20\nvalue = [13, 7]"] ;
445 -> 447 ;
448 [label="gini = 0.32\nsamples = 10\nvalue = [8, 2]"] ;
447 -> 448 ;
449 [label="gini = 0.5\nsamples = 10\nvalue = [5, 5]"] ;
447 -> 449 ;
450 [label="Geo_Code <= 2.5\ngini = 0.4\nsamples = 1305\nvalue = [945, 360]"] ;
444 -> 450 ;
451 [label="totalBilled <= 44.5\ngini = 0.35\nsamples = 309\nvalue = [239, 70]"] ;
450 -> 451 ;
452 [label="gini = 0.371\nsamples = 256\nvalue = [193, 63]"] ;
451 -> 452 ;
453 [label="gini = 0.229\nsamples = 53\nvalue = [46, 7]"] ;
451 -> 453 ;
454 [label="totalBilled <= 5.5\ngini = 0.413\nsamples = 996\nvalue = [706, 290]"] ;
450 -> 454 ;
455 [label="gini = 0.494\nsamples = 65\nvalue = [36, 29]"] ;
454 -> 455 ;
456 [label="gini = 0.404\nsamples = 931\nvalue = [670, 261]"] ;
454 -> 456 ;
457 [label="Geo_Code <= 5.5\ngini = 0.434\nsamples = 10944\nvalue = [7459, 3485]"] ;
429 -> 457 ;
458 [label="totalBilled <= 8.5\ngini = 0.455\nsamples = 4851\nvalue = [3156, 1695]"] ;
457 -> 458 ;
459 [label="totalBilled <= 2.5\ngini = 0.411\nsamples = 533\nvalue = [379, 154]"] ;
458 -> 459 ;
460 [label="totalBilled <= 0.5\ngini = 0.457\nsamples = 113\nvalue = [73, 40]"] ;
459 -> 460 ;
461 [label="gini = 0.48\nsamples = 10\nvalue = [6, 4]"] ;
460 -> 461 ;
462 [label="gini = 0.455\nsamples = 103\nvalue = [67, 36]"] ;
460 -> 462 ;
463 [label="totalBilled <= 3.5\ngini = 0.396\nsamples = 420\nvalue = [306, 114]"] ;
459 -> 463 ;
464 [label="gini = 0.331\nsamples = 67\nvalue = [53, 14]"] ;
463 -> 464 ;
465 [label="gini = 0.406\nsamples = 353\nvalue = [253, 100]"] ;
463 -> 465 ;
466 [label="ProductsUsed <= 11.5\ngini = 0.459\nsamples = 4318\nvalue = [2777, 1541]"] ;
458 -> 466 ;
467 [label="totalBilled <= 28.5\ngini = 0.45\nsamples = 2988\nvalue = [1968, 1020]"] ;
466 -> 467 ;
468 [label="gini = 0.467\nsamples = 1061\nvalue = [667, 394]"] ;
467 -> 468 ;
469 [label="gini = 0.439\nsamples = 1927\nvalue = [1301, 626]"] ;
467 -> 469 ;
470 [label="totalBilled <= 38.5\ngini = 0.477\nsamples = 1330\nvalue = [809, 521]"] ;
466 -> 470 ;
471 [label="gini = 0.483\nsamples = 693\nvalue = [411, 282]"] ;
470 -> 471 ;
472 [label="gini = 0.469\nsamples = 637\nvalue = [398, 239]"] ;
470 -> 472 ;
473 [label="ProductsUsed <= 10.5\ngini = 0.415\nsamples = 6093\nvalue = [4303, 1790]"] ;
457 -> 473 ;
474 [label="totalBilled <= 14.5\ngini = 0.391\nsamples = 2198\nvalue = [1612, 586]"] ;
473 -> 474 ;
475 [label="totalBilled <= 1.5\ngini = 0.442\nsamples = 321\nvalue = [215, 106]"] ;
474 -> 475 ;
476 [label="gini = 0.32\nsamples = 20\nvalue = [16, 4]"] ;
475 -> 476 ;
477 [label="gini = 0.448\nsamples = 301\nvalue = [199, 102]"] ;
475 -> 477 ;
478 [label="totalBilled <= 21.5\ngini = 0.381\nsamples = 1877\nvalue = [1397, 480]"] ;
474 -> 478 ;
479 [label="gini = 0.299\nsamples = 230\nvalue = [188, 42]"] ;
478 -> 479 ;
480 [label="gini = 0.39\nsamples = 1647\nvalue = [1209, 438]"] ;
478 -> 480 ;
481 [label="totalBilled <= 26.5\ngini = 0.427\nsamples = 3895\nvalue = [2691, 1204]"] ;
473 -> 481 ;
482 [label="ProductsUsed <= 11.5\ngini = 0.454\nsamples = 1204\nvalue = [785, 419]"] ;
481 -> 482 ;
483 [label="gini = 0.437\nsamples = 642\nvalue = [435, 207]"] ;
482 -> 483 ;
484 [label="gini = 0.47\nsamples = 562\nvalue = [350, 212]"] ;
482 -> 484 ;
485 [label="totalBilled <= 43.5\ngini = 0.413\nsamples = 2691\nvalue = [1906, 785]"] ;
481 -> 485 ;
486 [label="gini = 0.396\nsamples = 1123\nvalue = [818, 305]"] ;
485 -> 486 ;
487 [label="gini = 0.425\nsamples = 1568\nvalue = [1088, 480]"] ;
485 -> 487 ;
488 [label="Geo_Code <= 1.5\ngini = 0.386\nsamples = 4637\nvalue = [3426, 1211]"] ;
428 -> 488 ;
489 [label="gini = 0.459\nsamples = 14\nvalue = [5, 9]"] ;
488 -> 489 ;
490 [label="totalBilled <= 70.5\ngini = 0.385\nsamples = 4623\nvalue = [3421, 1202]"] ;
488 -> 490 ;
491 [label="ProductsUsed <= 10.5\ngini = 0.324\nsamples = 271\nvalue = [216, 55]"] ;
490 -> 491 ;
492 [label="totalBilled <= 69.5\ngini = 0.416\nsamples = 88\nvalue = [62, 26]"] ;
491 -> 492 ;
493 [label="Geo_Code <= 5.5\ngini = 0.339\nsamples = 37\nvalue = [29, 8]"] ;
492 -> 493 ;
494 [label="gini = 0.32\nsamples = 15\nvalue = [12, 3]"] ;
493 -> 494 ;
495 [label="gini = 0.351\nsamples = 22\nvalue = [17, 5]"] ;
493 -> 495 ;
496 [label="Geo_Code <= 5.5\ngini = 0.457\nsamples = 51\nvalue = [33, 18]"] ;
492 -> 496 ;
497 [label="gini = 0.444\nsamples = 33\nvalue = [22, 11]"] ;
496 -> 497 ;
498 [label="gini = 0.475\nsamples = 18\nvalue = [11, 7]"] ;
496 -> 498 ;
499 [label="totalBilled <= 69.5\ngini = 0.267\nsamples = 183\nvalue = [154, 29]"] ;
491 -> 499 ;
500 [label="Geo_Code <= 5.5\ngini = 0.317\nsamples = 96\nvalue = [77, 19]"] ;
499 -> 500 ;
501 [label="gini = 0.393\nsamples = 41\nvalue = [30, 11]"] ;
500 -> 501 ;
502 [label="gini = 0.249\nsamples = 55\nvalue = [47, 8]"] ;
500 -> 502 ;
503 [label="ProductsUsed <= 11.5\ngini = 0.203\nsamples = 87\nvalue = [77, 10]"] ;
499 -> 503 ;
504 [label="gini = 0.145\nsamples = 38\nvalue = [35, 3]"] ;
503 -> 504 ;
505 [label="gini = 0.245\nsamples = 49\nvalue = [42, 7]"] ;
503 -> 505 ;
506 [label="totalBilled <= 163.5\ngini = 0.388\nsamples = 4352\nvalue = [3205, 1147]"] ;
490 -> 506 ;
507 [label="Geo_Code <= 3.5\ngini = 0.389\nsamples = 4333\nvalue = [3187, 1146]"] ;
506 -> 507 ;
508 [label="totalBilled <= 109.5\ngini = 0.343\nsamples = 323\nvalue = [252, 71]"] ;
507 -> 508 ;
509 [label="gini = 0.316\nsamples = 275\nvalue = [221, 54]"] ;
508 -> 509 ;
510 [label="gini = 0.457\nsamples = 48\nvalue = [31, 17]"] ;
508 -> 510 ;
511 [label="Geo_Code <= 5.5\ngini = 0.392\nsamples = 4010\nvalue = [2935, 1075]"] ;
507 -> 511 ;
512 [label="gini = 0.409\nsamples = 1383\nvalue = [986, 397]"] ;
511 -> 512 ;
513 [label="gini = 0.383\nsamples = 2627\nvalue = [1949, 678]"] ;
511 -> 513 ;
514 [label="gini = 0.1\nsamples = 19\nvalue = [18, 1]"] ;
506 -> 514 ;
515 [label="Geo_Code <= 2.5\ngini = 0.483\nsamples = 1717\nvalue = [1016, 701]"] ;
317 -> 515 ;
516 [label="totalBilled <= 48.5\ngini = 0.371\nsamples = 195\nvalue = [147, 48]"] ;
515 -> 516 ;
517 [label="totalBilled <= 3.5\ngini = 0.303\nsamples = 156\nvalue = [127, 29]"] ;
516 -> 517 ;
518 [label="gini = 0.5\nsamples = 10\nvalue = [5, 5]"] ;
517 -> 518 ;
519 [label="ProductsUsed <= 10.5\ngini = 0.275\nsamples = 146\nvalue = [122, 24]"] ;
517 -> 519 ;
520 [label="totalBilled <= 12.5\ngini = 0.215\nsamples = 98\nvalue = [86, 12]"] ;
519 -> 520 ;
521 [label="gini = 0.415\nsamples = 17\nvalue = [12, 5]"] ;
520 -> 521 ;
522 [label="totalBilled <= 26.5\ngini = 0.158\nsamples = 81\nvalue = [74, 7]"] ;
520 -> 522 ;
523 [label="totalBilled <= 18.5\ngini = 0.064\nsamples = 30\nvalue = [29, 1]"] ;
522 -> 523 ;
524 [label="gini = 0.0\nsamples = 13\nvalue = [13, 0]"] ;
523 -> 524 ;
525 [label="gini = 0.111\nsamples = 17\nvalue = [16, 1]"] ;
523 -> 525 ;
526 [label="totalBilled <= 44.5\ngini = 0.208\nsamples = 51\nvalue = [45, 6]"] ;
522 -> 526 ;
527 [label="gini = 0.25\nsamples = 41\nvalue = [35, 6]"] ;
526 -> 527 ;
528 [label="gini = 0.0\nsamples = 10\nvalue = [10, 0]"] ;
526 -> 528 ;
529 [label="totalBilled <= 34.5\ngini = 0.375\nsamples = 48\nvalue = [36, 12]"] ;
519 -> 529 ;
530 [label="totalBilled <= 13.5\ngini = 0.313\nsamples = 36\nvalue = [29, 7]"] ;
529 -> 530 ;
531 [label="gini = 0.408\nsamples = 14\nvalue = [10, 4]"] ;
530 -> 531 ;
532 [label="ProductsUsed <= 11.5\ngini = 0.236\nsamples = 22\nvalue = [19, 3]"] ;
530 -> 532 ;
533 [label="gini = 0.278\nsamples = 12\nvalue = [10, 2]"] ;
532 -> 533 ;
534 [label="gini = 0.18\nsamples = 10\nvalue = [9, 1]"] ;
532 -> 534 ;
535 [label="gini = 0.486\nsamples = 12\nvalue = [7, 5]"] ;
529 -> 535 ;
536 [label="ProductsUsed <= 9.5\ngini = 0.5\nsamples = 39\nvalue = [20, 19]"] ;
516 -> 536 ;
537 [label="gini = 0.43\nsamples = 16\nvalue = [11, 5]"] ;
536 -> 537 ;
538 [label="totalBilled <= 60.5\ngini = 0.476\nsamples = 23\nvalue = [9, 14]"] ;
536 -> 538 ;
539 [label="gini = 0.497\nsamples = 13\nvalue = [6, 7]"] ;
538 -> 539 ;
540 [label="gini = 0.42\nsamples = 10\nvalue = [3, 7]"] ;
538 -> 540 ;
541 [label="totalBilled <= 55.5\ngini = 0.49\nsamples = 1522\nvalue = [869, 653]"] ;
515 -> 541 ;
542 [label="totalBilled <= 4.5\ngini = 0.5\nsamples = 803\nvalue = [406, 397]"] ;
541 -> 542 ;
543 [label="ProductsUsed <= 9.5\ngini = 0.435\nsamples = 25\nvalue = [8, 17]"] ;
542 -> 543 ;
544 [label="gini = 0.5\nsamples = 10\nvalue = [5, 5]"] ;
543 -> 544 ;
545 [label="gini = 0.32\nsamples = 15\nvalue = [3, 12]"] ;
543 -> 545 ;
546 [label="Customer_size <= 0.5\ngini = 0.5\nsamples = 778\nvalue = [398, 380]"] ;
542 -> 546 ;
547 [label="Geo_Code <= 5.5\ngini = 0.499\nsamples = 719\nvalue = [374, 345]"] ;
546 -> 547 ;
548 [label="ProductsUsed <= 11.5\ngini = 0.5\nsamples = 307\nvalue = [150, 157]"] ;
547 -> 548 ;
549 [label="totalBilled <= 21.5\ngini = 0.499\nsamples = 217\nvalue = [114, 103]"] ;
548 -> 549 ;
550 [label="gini = 0.499\nsamples = 78\nvalue = [37, 41]"] ;
549 -> 550 ;
551 [label="gini = 0.494\nsamples = 139\nvalue = [77, 62]"] ;
549 -> 551 ;
552 [label="totalBilled <= 26.0\ngini = 0.48\nsamples = 90\nvalue = [36, 54]"] ;
548 -> 552 ;
553 [label="gini = 0.5\nsamples = 35\nvalue = [17, 18]"] ;
552 -> 553 ;
554 [label="gini = 0.452\nsamples = 55\nvalue = [19, 36]"] ;
552 -> 554 ;
555 [label="ProductsUsed <= 8.5\ngini = 0.496\nsamples = 412\nvalue = [224, 188]"] ;
547 -> 555 ;
556 [label="totalBilled <= 47.5\ngini = 0.492\nsamples = 57\nvalue = [25, 32]"] ;
555 -> 556 ;
557 [label="gini = 0.5\nsamples = 47\nvalue = [24, 23]"] ;
556 -> 557 ;
558 [label="gini = 0.18\nsamples = 10\nvalue = [1, 9]"] ;
556 -> 558 ;
559 [label="totalBilled <= 51.5\ngini = 0.493\nsamples = 355\nvalue = [199, 156]"] ;
555 -> 559 ;
560 [label="gini = 0.496\nsamples = 318\nvalue = [174, 144]"] ;
559 -> 560 ;
561 [label="gini = 0.438\nsamples = 37\nvalue = [25, 12]"] ;
559 -> 561 ;
562 [label="totalBilled <= 30.5\ngini = 0.483\nsamples = 59\nvalue = [24, 35]"] ;
546 -> 562 ;
563 [label="totalBilled <= 20.5\ngini = 0.437\nsamples = 31\nvalue = [10, 21]"] ;
562 -> 563 ;
564 [label="gini = 0.498\nsamples = 15\nvalue = [8, 7]"] ;
563 -> 564 ;
565 [label="gini = 0.219\nsamples = 16\nvalue = [2, 14]"] ;
563 -> 565 ;
566 [label="totalBilled <= 38.5\ngini = 0.5\nsamples = 28\nvalue = [14, 14]"] ;
562 -> 566 ;
567 [label="gini = 0.42\nsamples = 10\nvalue = [7, 3]"] ;
566 -> 567 ;
568 [label="gini = 0.475\nsamples = 18\nvalue = [7, 11]"] ;
566 -> 568 ;
569 [label="customer_age <= 2.0\ngini = 0.459\nsamples = 719\nvalue = [463, 256]"] ;
541 -> 569 ;
570 [label="totalBilled <= 141.5\ngini = 0.453\nsamples = 682\nvalue = [446, 236]"] ;
569 -> 570 ;
571 [label="ProductsUsed <= 8.5\ngini = 0.456\nsamples = 671\nvalue = [435, 236]"] ;
570 -> 571 ;
572 [label="totalBilled <= 68.5\ngini = 0.388\nsamples = 91\nvalue = [67, 24]"] ;
571 -> 572 ;
573 [label="gini = 0.153\nsamples = 24\nvalue = [22, 2]"] ;
572 -> 573 ;
574 [label="totalBilled <= 81.5\ngini = 0.441\nsamples = 67\nvalue = [45, 22]"] ;
572 -> 574 ;
575 [label="gini = 0.497\nsamples = 24\nvalue = [11, 13]"] ;
574 -> 575 ;
576 [label="gini = 0.331\nsamples = 43\nvalue = [34, 9]"] ;
574 -> 576 ;
577 [label="Geo_Code <= 5.5\ngini = 0.464\nsamples = 580\nvalue = [368, 212]"] ;
571 -> 577 ;
578 [label="totalBilled <= 101.5\ngini = 0.442\nsamples = 167\nvalue = [112, 55]"] ;
577 -> 578 ;
579 [label="gini = 0.401\nsamples = 144\nvalue = [104, 40]"] ;
578 -> 579 ;
580 [label="gini = 0.454\nsamples = 23\nvalue = [8, 15]"] ;
578 -> 580 ;
581 [label="totalBilled <= 101.5\ngini = 0.471\nsamples = 413\nvalue = [256, 157]"] ;
577 -> 581 ;
582 [label="gini = 0.483\nsamples = 345\nvalue = [204, 141]"] ;
581 -> 582 ;
583 [label="gini = 0.36\nsamples = 68\nvalue = [52, 16]"] ;
581 -> 583 ;
584 [label="gini = 0.0\nsamples = 11\nvalue = [11, 0]"] ;
570 -> 584 ;
585 [label="totalBilled <= 86.5\ngini = 0.497\nsamples = 37\nvalue = [17, 20]"] ;
569 -> 585 ;
586 [label="gini = 0.444\nsamples = 18\nvalue = [12, 6]"] ;
585 -> 586 ;
587 [label="gini = 0.388\nsamples = 19\nvalue = [5, 14]"] ;
585 -> 587 ;
588 [label="ProductsUsed <= 18.5\ngini = 0.498\nsamples = 35995\nvalue = [19089, 16906]"] ;
0 -> 588 [labeldistance=2.5, labelangle=-45, headlabel="False"] ;
589 [label="customer_age <= 0.5\ngini = 0.483\nsamples = 23855\nvalue = [14122, 9733]"] ;
588 -> 589 ;
590 [label="ProductsUsed <= 15.5\ngini = 0.475\nsamples = 20988\nvalue = [12835, 8153]"] ;
589 -> 590 ;
591 [label="Geo_Code <= 5.5\ngini = 0.464\nsamples = 12893\nvalue = [8165, 4728]"] ;
590 -> 591 ;
592 [label="Geo_Code <= 3.5\ngini = 0.475\nsamples = 6573\nvalue = [4016, 2557]"] ;
591 -> 592 ;
593 [label="Geo_Code <= 2.5\ngini = 0.441\nsamples = 1560\nvalue = [1049, 511]"] ;
592 -> 593 ;
594 [label="totalBilled <= 8.5\ngini = 0.393\nsamples = 279\nvalue = [204, 75]"] ;
593 -> 594 ;
595 [label="totalBilled <= 3.5\ngini = 0.311\nsamples = 52\nvalue = [42, 10]"] ;
594 -> 595 ;
596 [label="gini = 0.432\nsamples = 19\nvalue = [13, 6]"] ;
595 -> 596 ;
597 [label="totalBilled <= 6.5\ngini = 0.213\nsamples = 33\nvalue = [29, 4]"] ;
595 -> 597 ;
598 [label="gini = 0.111\nsamples = 17\nvalue = [16, 1]"] ;
597 -> 598 ;
599 [label="gini = 0.305\nsamples = 16\nvalue = [13, 3]"] ;
597 -> 599 ;
600 [label="totalBilled <= 19.5\ngini = 0.409\nsamples = 227\nvalue = [162, 65]"] ;
594 -> 600 ;
601 [label="totalBilled <= 15.5\ngini = 0.472\nsamples = 68\nvalue = [42, 26]"] ;
600 -> 601 ;
602 [label="gini = 0.4\nsamples = 47\nvalue = [34, 13]"] ;
601 -> 602 ;
603 [label="gini = 0.472\nsamples = 21\nvalue = [8, 13]"] ;
601 -> 603 ;
604 [label="totalBilled <= 88.5\ngini = 0.37\nsamples = 159\nvalue = [120, 39]"] ;
600 -> 604 ;
605 [label="gini = 0.355\nsamples = 143\nvalue = [110, 33]"] ;
604 -> 605 ;
606 [label="gini = 0.469\nsamples = 16\nvalue = [10, 6]"] ;
604 -> 606 ;
607 [label="totalBilled <= 88.5\ngini = 0.449\nsamples = 1281\nvalue = [845, 436]"] ;
593 -> 607 ;
608 [label="totalBilled <= 82.5\ngini = 0.453\nsamples = 1211\nvalue = [791, 420]"] ;
607 -> 608 ;
609 [label="totalBilled <= 42.5\ngini = 0.45\nsamples = 1182\nvalue = [777, 405]"] ;
608 -> 609 ;
610 [label="gini = 0.439\nsamples = 711\nvalue = [480, 231]"] ;
609 -> 610 ;
611 [label="gini = 0.466\nsamples = 471\nvalue = [297, 174]"] ;
609 -> 611 ;
612 [label="totalBilled <= 84.5\ngini = 0.499\nsamples = 29\nvalue = [14, 15]"] ;
608 -> 612 ;
613 [label="gini = 0.498\nsamples = 15\nvalue = [8, 7]"] ;
612 -> 613 ;
614 [label="gini = 0.49\nsamples = 14\nvalue = [6, 8]"] ;
612 -> 614 ;
615 [label="totalBilled <= 93.5\ngini = 0.353\nsamples = 70\nvalue = [54, 16]"] ;
607 -> 615 ;
616 [label="gini = 0.0\nsamples = 17\nvalue = [17, 0]"] ;
615 -> 616 ;
617 [label="ProductsUsed <= 14.5\ngini = 0.422\nsamples = 53\nvalue = [37, 16]"] ;
615 -> 617 ;
618 [label="gini = 0.368\nsamples = 37\nvalue = [28, 9]"] ;
617 -> 618 ;
619 [label="gini = 0.492\nsamples = 16\nvalue = [9, 7]"] ;
617 -> 619 ;
620 [label="totalBilled <= 51.5\ngini = 0.483\nsamples = 5013\nvalue = [2967, 2046]"] ;
592 -> 620 ;
621 [label="totalBilled <= 9.5\ngini = 0.491\nsamples = 2895\nvalue = [1647, 1248]"] ;
620 -> 621 ;
622 [label="totalBilled <= 3.5\ngini = 0.461\nsamples = 349\nvalue = [223, 126]"] ;
621 -> 622 ;
623 [label="ProductsUsed <= 13.5\ngini = 0.495\nsamples = 84\nvalue = [46, 38]"] ;
622 -> 623 ;
624 [label="gini = 0.5\nsamples = 36\nvalue = [18, 18]"] ;
623 -> 624 ;
625 [label="gini = 0.486\nsamples = 48\nvalue = [28, 20]"] ;
623 -> 625 ;
626 [label="totalBilled <= 7.5\ngini = 0.444\nsamples = 265\nvalue = [177, 88]"] ;
622 -> 626 ;
627 [label="gini = 0.414\nsamples = 164\nvalue = [116, 48]"] ;
626 -> 627 ;
628 [label="gini = 0.478\nsamples = 101\nvalue = [61, 40]"] ;
626 -> 628 ;
629 [label="totalBilled <= 19.5\ngini = 0.493\nsamples = 2546\nvalue = [1424, 1122]"] ;
621 -> 629 ;
630 [label="totalBilled <= 13.5\ngini = 0.5\nsamples = 529\nvalue = [271, 258]"] ;
629 -> 630 ;
631 [label="gini = 0.494\nsamples = 193\nvalue = [107, 86]"] ;
630 -> 631 ;
632 [label="gini = 0.5\nsamples = 336\nvalue = [164, 172]"] ;
630 -> 632 ;
633 [label="totalBilled <= 26.5\ngini = 0.49\nsamples = 2017\nvalue = [1153, 864]"] ;
629 -> 633 ;
634 [label="gini = 0.475\nsamples = 415\nvalue = [254, 161]"] ;
633 -> 634 ;
635 [label="gini = 0.493\nsamples = 1602\nvalue = [899, 703]"] ;
633 -> 635 ;
636 [label="totalBilled <= 127.5\ngini = 0.47\nsamples = 2118\nvalue = [1320, 798]"] ;
620 -> 636 ;
637 [label="totalBilled <= 106.5\ngini = 0.467\nsamples = 2033\nvalue = [1279, 754]"] ;
636 -> 637 ;
638 [label="totalBilled <= 100.5\ngini = 0.471\nsamples = 1845\nvalue = [1146, 699]"] ;
637 -> 638 ;
639 [label="gini = 0.468\nsamples = 1761\nvalue = [1102, 659]"] ;
638 -> 639 ;
640 [label="gini = 0.499\nsamples = 84\nvalue = [44, 40]"] ;
638 -> 640 ;
641 [label="totalBilled <= 114.5\ngini = 0.414\nsamples = 188\nvalue = [133, 55]"] ;
637 -> 641 ;
642 [label="gini = 0.38\nsamples = 90\nvalue = [67, 23]"] ;
641 -> 642 ;
643 [label="gini = 0.44\nsamples = 98\nvalue = [66, 32]"] ;
641 -> 643 ;
644 [label="totalBilled <= 146.5\ngini = 0.499\nsamples = 85\nvalue = [41, 44]"] ;
636 -> 644 ;
645 [label="totalBilled <= 140.5\ngini = 0.487\nsamples = 67\nvalue = [28, 39]"] ;
644 -> 645 ;
646 [label="gini = 0.499\nsamples = 54\nvalue = [26, 28]"] ;
645 -> 646 ;
647 [label="gini = 0.26\nsamples = 13\nvalue = [2, 11]"] ;
645 -> 647 ;
648 [label="gini = 0.401\nsamples = 18\nvalue = [13, 5]"] ;
644 -> 648 ;
649 [label="totalBilled <= 35.5\ngini = 0.451\nsamples = 6320\nvalue = [4149, 2171]"] ;
591 -> 649 ;
650 [label="totalBilled <= 3.5\ngini = 0.471\nsamples = 2043\nvalue = [1269, 774]"] ;
649 -> 650 ;
651 [label="totalBilled <= 1.5\ngini = 0.342\nsamples = 64\nvalue = [50, 14]"] ;
650 -> 651 ;
652 [label="gini = 0.43\nsamples = 16\nvalue = [11, 5]"] ;
651 -> 652 ;
653 [label="ProductsUsed <= 14.5\ngini = 0.305\nsamples = 48\nvalue = [39, 9]"] ;
651 -> 653 ;
654 [label="ProductsUsed <= 13.5\ngini = 0.266\nsamples = 38\nvalue = [32, 6]"] ;
653 -> 654 ;
655 [label="gini = 0.32\nsamples = 20\nvalue = [16, 4]"] ;
654 -> 655 ;
656 [label="gini = 0.198\nsamples = 18\nvalue = [16, 2]"] ;
654 -> 656 ;
657 [label="gini = 0.42\nsamples = 10\nvalue = [7, 3]"] ;
653 -> 657 ;
658 [label="totalBilled <= 7.5\ngini = 0.473\nsamples = 1979\nvalue = [1219, 760]"] ;
650 -> 658 ;
659 [label="totalBilled <= 4.5\ngini = 0.5\nsamples = 154\nvalue = [78, 76]"] ;
658 -> 659 ;
660 [label="ProductsUsed <= 14.5\ngini = 0.491\nsamples = 37\nvalue = [21, 16]"] ;
659 -> 660 ;
661 [label="gini = 0.488\nsamples = 26\nvalue = [15, 11]"] ;
660 -> 661 ;
662 [label="gini = 0.496\nsamples = 11\nvalue = [6, 5]"] ;
660 -> 662 ;
663 [label="totalBilled <= 6.5\ngini = 0.5\nsamples = 117\nvalue = [57, 60]"] ;
659 -> 663 ;
664 [label="gini = 0.497\nsamples = 74\nvalue = [34, 40]"] ;
663 -> 664 ;
665 [label="gini = 0.498\nsamples = 43\nvalue = [23, 20]"] ;
663 -> 665 ;
666 [label="ProductsUsed <= 13.5\ngini = 0.469\nsamples = 1825\nvalue = [1141, 684]"] ;
658 -> 666 ;
667 [label="totalBilled <= 27.5\ngini = 0.457\nsamples = 686\nvalue = [444, 242]"] ;
666 -> 667 ;
668 [label="gini = 0.464\nsamples = 441\nvalue = [280, 161]"] ;
667 -> 668 ;
669 [label="gini = 0.443\nsamples = 245\nvalue = [164, 81]"] ;
667 -> 669 ;
670 [label="totalBilled <= 8.5\ngini = 0.475\nsamples = 1139\nvalue = [697, 442]"] ;
666 -> 670 ;
671 [label="gini = 0.408\nsamples = 35\nvalue = [25, 10]"] ;
670 -> 671 ;
672 [label="gini = 0.476\nsamples = 1104\nvalue = [672, 432]"] ;
670 -> 672 ;
673 [label="totalBilled <= 141.5\ngini = 0.44\nsamples = 4277\nvalue = [2880, 1397]"] ;
649 -> 673 ;
674 [label="totalBilled <= 39.5\ngini = 0.441\nsamples = 4217\nvalue = [2830, 1387]"] ;
673 -> 674 ;
675 [label="ProductsUsed <= 13.5\ngini = 0.386\nsamples = 329\nvalue = [243, 86]"] ;
674 -> 675 ;
676 [label="totalBilled <= 38.5\ngini = 0.342\nsamples = 146\nvalue = [114, 32]"] ;
675 -> 676 ;
677 [label="gini = 0.352\nsamples = 114\nvalue = [88, 26]"] ;
676 -> 677 ;
678 [label="gini = 0.305\nsamples = 32\nvalue = [26, 6]"] ;
676 -> 678 ;
679 [label="ProductsUsed <= 14.5\ngini = 0.416\nsamples = 183\nvalue = [129, 54]"] ;
675 -> 679 ;
680 [label="gini = 0.44\nsamples = 110\nvalue = [74, 36]"] ;
679 -> 680 ;
681 [label="gini = 0.372\nsamples = 73\nvalue = [55, 18]"] ;
679 -> 681 ;
682 [label="totalBilled <= 77.5\ngini = 0.445\nsamples = 3888\nvalue = [2587, 1301]"] ;
674 -> 682 ;
683 [label="totalBilled <= 68.5\ngini = 0.451\nsamples = 2466\nvalue = [1620, 846]"] ;
682 -> 683 ;
684 [label="gini = 0.445\nsamples = 1971\nvalue = [1312, 659]"] ;
683 -> 684 ;
685 [label="gini = 0.47\nsamples = 495\nvalue = [308, 187]"] ;
683 -> 685 ;
686 [label="totalBilled <= 99.5\ngini = 0.435\nsamples = 1422\nvalue = [967, 455]"] ;
682 -> 686 ;
687 [label="gini = 0.422\nsamples = 855\nvalue = [596, 259]"] ;
686 -> 687 ;
688 [label="gini = 0.452\nsamples = 567\nvalue = [371, 196]"] ;
686 -> 688 ;
689 [label="totalBilled <= 152.5\ngini = 0.278\nsamples = 60\nvalue = [50, 10]"] ;
673 -> 689 ;
690 [label="ProductsUsed <= 13.5\ngini = 0.165\nsamples = 33\nvalue = [30, 3]"] ;
689 -> 690 ;
691 [label="gini = 0.26\nsamples = 13\nvalue = [11, 2]"] ;
690 -> 691 ;
692 [label="gini = 0.095\nsamples = 20\nvalue = [19, 1]"] ;
690 -> 692 ;
693 [label="totalBilled <= 158.5\ngini = 0.384\nsamples = 27\nvalue = [20, 7]"] ;
689 -> 693 ;
694 [label="gini = 0.426\nsamples = 13\nvalue = [9, 4]"] ;
693 -> 694 ;
695 [label="gini = 0.337\nsamples = 14\nvalue = [11, 3]"] ;
693 -> 695 ;
696 [label="Geo_Code <= 5.5\ngini = 0.488\nsamples = 8095\nvalue = [4670, 3425]"] ;
590 -> 696 ;
697 [label="Geo_Code <= 3.5\ngini = 0.493\nsamples = 4123\nvalue = [2297, 1826]"] ;
696 -> 697 ;
698 [label="totalBilled <= 20.5\ngini = 0.474\nsamples = 910\nvalue = [559, 351]"] ;
697 -> 698 ;
699 [label="totalBilled <= 3.5\ngini = 0.498\nsamples = 274\nvalue = [146, 128]"] ;
698 -> 699 ;
700 [label="ProductsUsed <= 16.5\ngini = 0.464\nsamples = 30\nvalue = [11, 19]"] ;
699 -> 700 ;
701 [label="gini = 0.473\nsamples = 13\nvalue = [8, 5]"] ;
700 -> 701 ;
702 [label="gini = 0.291\nsamples = 17\nvalue = [3, 14]"] ;
700 -> 702 ;
703 [label="totalBilled <= 8.5\ngini = 0.494\nsamples = 244\nvalue = [135, 109]"] ;
699 -> 703 ;
704 [label="ProductsUsed <= 16.5\ngini = 0.479\nsamples = 68\nvalue = [41, 27]"] ;
703 -> 704 ;
705 [label="gini = 0.408\nsamples = 28\nvalue = [20, 8]"] ;
704 -> 705 ;
706 [label="gini = 0.499\nsamples = 40\nvalue = [21, 19]"] ;
704 -> 706 ;
707 [label="ProductsUsed <= 16.5\ngini = 0.498\nsamples = 176\nvalue = [94, 82]"] ;
703 -> 707 ;
708 [label="gini = 0.5\nsamples = 72\nvalue = [36, 36]"] ;
707 -> 708 ;
709 [label="gini = 0.493\nsamples = 104\nvalue = [58, 46]"] ;
707 -> 709 ;
710 [label="totalBilled <= 70.5\ngini = 0.455\nsamples = 636\nvalue = [413, 223]"] ;
698 -> 710 ;
711 [label="totalBilled <= 37.5\ngini = 0.468\nsamples = 510\nvalue = [320, 190]"] ;
710 -> 711 ;
712 [label="totalBilled <= 24.5\ngini = 0.409\nsamples = 185\nvalue = [132, 53]"] ;
711 -> 712 ;
713 [label="gini = 0.467\nsamples = 43\nvalue = [27, 16]"] ;
712 -> 713 ;
714 [label="gini = 0.385\nsamples = 142\nvalue = [105, 37]"] ;
712 -> 714 ;
715 [label="Geo_Code <= 2.5\ngini = 0.488\nsamples = 325\nvalue = [188, 137]"] ;
711 -> 715 ;
716 [label="gini = 0.326\nsamples = 39\nvalue = [31, 8]"] ;
715 -> 716 ;
717 [label="gini = 0.495\nsamples = 286\nvalue = [157, 129]"] ;
715 -> 717 ;
718 [label="totalBilled <= 104.0\ngini = 0.387\nsamples = 126\nvalue = [93, 33]"] ;
710 -> 718 ;
719 [label="totalBilled <= 79.5\ngini = 0.412\nsamples = 100\nvalue = [71, 29]"] ;
718 -> 719 ;
720 [label="gini = 0.315\nsamples = 46\nvalue = [37, 9]"] ;
719 -> 720 ;
721 [label="gini = 0.466\nsamples = 54\nvalue = [34, 20]"] ;
719 -> 721 ;
722 [label="totalBilled <= 109.5\ngini = 0.26\nsamples = 26\nvalue = [22, 4]"] ;
718 -> 722 ;
723 [label="gini = 0.165\nsamples = 11\nvalue = [10, 1]"] ;
722 -> 723 ;
724 [label="gini = 0.32\nsamples = 15\nvalue = [12, 3]"] ;
722 -> 724 ;
725 [label="totalBilled <= 7.5\ngini = 0.497\nsamples = 3213\nvalue = [1738, 1475]"] ;
697 -> 725 ;
726 [label="ProductsUsed <= 17.5\ngini = 0.433\nsamples = 148\nvalue = [101, 47]"] ;
725 -> 726 ;
727 [label="totalBilled <= 5.5\ngini = 0.463\nsamples = 99\nvalue = [63, 36]"] ;
726 -> 727 ;
728 [label="totalBilled <= 2.5\ngini = 0.42\nsamples = 50\nvalue = [35, 15]"] ;
727 -> 728 ;
729 [label="gini = 0.36\nsamples = 17\nvalue = [13, 4]"] ;
728 -> 729 ;
730 [label="gini = 0.444\nsamples = 33\nvalue = [22, 11]"] ;
728 -> 730 ;
731 [label="ProductsUsed <= 16.5\ngini = 0.49\nsamples = 49\nvalue = [28, 21]"] ;
727 -> 731 ;
732 [label="gini = 0.471\nsamples = 29\nvalue = [18, 11]"] ;
731 -> 732 ;
733 [label="gini = 0.5\nsamples = 20\nvalue = [10, 10]"] ;
731 -> 733 ;
734 [label="Geo_Code <= 4.5\ngini = 0.348\nsamples = 49\nvalue = [38, 11]"] ;
726 -> 734 ;
735 [label="gini = 0.245\nsamples = 14\nvalue = [12, 2]"] ;
734 -> 735 ;
736 [label="totalBilled <= 5.5\ngini = 0.382\nsamples = 35\nvalue = [26, 9]"] ;
734 -> 736 ;
737 [label="gini = 0.291\nsamples = 17\nvalue = [14, 3]"] ;
736 -> 737 ;
738 [label="gini = 0.444\nsamples = 18\nvalue = [12, 6]"] ;
736 -> 738 ;
739 [label="totalBilled <= 72.5\ngini = 0.498\nsamples = 3065\nvalue = [1637, 1428]"] ;
725 -> 739 ;
740 [label="totalBilled <= 70.5\ngini = 0.499\nsamples = 2365\nvalue = [1231, 1134]"] ;
739 -> 740 ;
741 [label="totalBilled <= 48.5\ngini = 0.499\nsamples = 2324\nvalue = [1216, 1108]"] ;
740 -> 741 ;
742 [label="gini = 0.5\nsamples = 1575\nvalue = [808, 767]"] ;
741 -> 742 ;
743 [label="gini = 0.496\nsamples = 749\nvalue = [408, 341]"] ;
741 -> 743 ;
744 [label="ProductsUsed <= 16.5\ngini = 0.464\nsamples = 41\nvalue = [15, 26]"] ;
740 -> 744 ;
745 [label="gini = 0.43\nsamples = 16\nvalue = [5, 11]"] ;
744 -> 745 ;
746 [label="gini = 0.48\nsamples = 25\nvalue = [10, 15]"] ;
744 -> 746 ;
747 [label="totalBilled <= 90.5\ngini = 0.487\nsamples = 700\nvalue = [406, 294]"] ;
739 -> 747 ;
748 [label="ProductsUsed <= 16.5\ngini = 0.473\nsamples = 334\nvalue = [206, 128]"] ;
747 -> 748 ;
749 [label="gini = 0.453\nsamples = 127\nvalue = [83, 44]"] ;
748 -> 749 ;
750 [label="gini = 0.482\nsamples = 207\nvalue = [123, 84]"] ;
748 -> 750 ;
751 [label="totalBilled <= 98.5\ngini = 0.496\nsamples = 366\nvalue = [200, 166]"] ;
747 -> 751 ;
752 [label="gini = 0.498\nsamples = 103\nvalue = [48, 55]"] ;
751 -> 752 ;
753 [label="gini = 0.488\nsamples = 263\nvalue = [152, 111]"] ;
751 -> 753 ;
754 [label="ProductsUsed <= 17.5\ngini = 0.481\nsamples = 3972\nvalue = [2373, 1599]"] ;
696 -> 754 ;
755 [label="totalBilled <= 137.5\ngini = 0.474\nsamples = 2864\nvalue = [1757, 1107]"] ;
754 -> 755 ;
756 [label="totalBilled <= 26.5\ngini = 0.475\nsamples = 2832\nvalue = [1731, 1101]"] ;
755 -> 756 ;
757 [label="totalBilled <= 18.5\ngini = 0.489\nsamples = 537\nvalue = [309, 228]"] ;
756 -> 757 ;
758 [label="totalBilled <= 12.5\ngini = 0.477\nsamples = 321\nvalue = [195, 126]"] ;
757 -> 758 ;
759 [label="gini = 0.492\nsamples = 178\nvalue = [100, 78]"] ;
758 -> 759 ;
760 [label="gini = 0.446\nsamples = 143\nvalue = [95, 48]"] ;
758 -> 760 ;
761 [label="totalBilled <= 22.5\ngini = 0.498\nsamples = 216\nvalue = [114, 102]"] ;
757 -> 761 ;
762 [label="gini = 0.5\nsamples = 99\nvalue = [50, 49]"] ;
761 -> 762 ;
763 [label="gini = 0.496\nsamples = 117\nvalue = [64, 53]"] ;
761 -> 763 ;
764 [label="totalBilled <= 120.5\ngini = 0.471\nsamples = 2295\nvalue = [1422, 873]"] ;
756 -> 764 ;
765 [label="totalBilled <= 85.5\ngini = 0.47\nsamples = 2225\nvalue = [1385, 840]"] ;
764 -> 765 ;
766 [label="gini = 0.474\nsamples = 1844\nvalue = [1133, 711]"] ;
765 -> 766 ;
767 [label="gini = 0.448\nsamples = 381\nvalue = [252, 129]"] ;
765 -> 767 ;
768 [label="totalBilled <= 123.5\ngini = 0.498\nsamples = 70\nvalue = [37, 33]"] ;
764 -> 768 ;
769 [label="gini = 0.463\nsamples = 22\nvalue = [8, 14]"] ;
768 -> 769 ;
770 [label="gini = 0.478\nsamples = 48\nvalue = [29, 19]"] ;
768 -> 770 ;
771 [label="totalBilled <= 147.5\ngini = 0.305\nsamples = 32\nvalue = [26, 6]"] ;
755 -> 771 ;
772 [label="gini = 0.188\nsamples = 19\nvalue = [17, 2]"] ;
771 -> 772 ;
773 [label="gini = 0.426\nsamples = 13\nvalue = [9, 4]"] ;
771 -> 773 ;
774 [label="totalBilled <= 75.5\ngini = 0.494\nsamples = 1108\nvalue = [616, 492]"] ;
754 -> 774 ;
775 [label="totalBilled <= 59.5\ngini = 0.49\nsamples = 829\nvalue = [474, 355]"] ;
774 -> 775 ;
776 [label="totalBilled <= 57.5\ngini = 0.495\nsamples = 676\nvalue = [372, 304]"] ;
775 -> 776 ;
777 [label="totalBilled <= 41.5\ngini = 0.494\nsamples = 655\nvalue = [363, 292]"] ;
776 -> 777 ;
778 [label="gini = 0.497\nsamples = 426\nvalue = [230, 196]"] ;
777 -> 778 ;
779 [label="gini = 0.487\nsamples = 229\nvalue = [133, 96]"] ;
777 -> 779 ;
780 [label="gini = 0.49\nsamples = 21\nvalue = [9, 12]"] ;
776 -> 780 ;
781 [label="totalBilled <= 64.5\ngini = 0.444\nsamples = 153\nvalue = [102, 51]"] ;
775 -> 781 ;
782 [label="totalBilled <= 61.5\ngini = 0.406\nsamples = 53\nvalue = [38, 15]"] ;
781 -> 782 ;
783 [label="gini = 0.455\nsamples = 20\nvalue = [13, 7]"] ;
782 -> 783 ;
784 [label="gini = 0.367\nsamples = 33\nvalue = [25, 8]"] ;
782 -> 784 ;
785 [label="totalBilled <= 70.5\ngini = 0.461\nsamples = 100\nvalue = [64, 36]"] ;
781 -> 785 ;
786 [label="gini = 0.484\nsamples = 56\nvalue = [33, 23]"] ;
785 -> 786 ;
787 [label="gini = 0.416\nsamples = 44\nvalue = [31, 13]"] ;
785 -> 787 ;
788 [label="totalBilled <= 87.5\ngini = 0.5\nsamples = 279\nvalue = [142, 137]"] ;
774 -> 788 ;
789 [label="totalBilled <= 83.5\ngini = 0.493\nsamples = 116\nvalue = [51, 65]"] ;
788 -> 789 ;
790 [label="totalBilled <= 79.5\ngini = 0.498\nsamples = 79\nvalue = [37, 42]"] ;
789 -> 790 ;
791 [label="gini = 0.482\nsamples = 37\nvalue = [15, 22]"] ;
790 -> 791 ;
792 [label="gini = 0.499\nsamples = 42\nvalue = [22, 20]"] ;
790 -> 792 ;
793 [label="totalBilled <= 84.5\ngini = 0.47\nsamples = 37\nvalue = [14, 23]"] ;
789 -> 793 ;
794 [label="gini = 0.486\nsamples = 12\nvalue = [5, 7]"] ;
793 -> 794 ;
795 [label="gini = 0.461\nsamples = 25\nvalue = [9, 16]"] ;
793 -> 795 ;
796 [label="totalBilled <= 110.5\ngini = 0.493\nsamples = 163\nvalue = [91, 72]"] ;
788 -> 796 ;
797 [label="totalBilled <= 101.5\ngini = 0.476\nsamples = 95\nvalue = [58, 37]"] ;
796 -> 797 ;
798 [label="gini = 0.49\nsamples = 77\nvalue = [44, 33]"] ;
797 -> 798 ;
799 [label="gini = 0.346\nsamples = 18\nvalue = [14, 4]"] ;
797 -> 799 ;
800 [label="totalBilled <= 136.5\ngini = 0.5\nsamples = 68\nvalue = [33, 35]"] ;
796 -> 800 ;
801 [label="gini = 0.496\nsamples = 53\nvalue = [24, 29]"] ;
800 -> 801 ;
802 [label="gini = 0.48\nsamples = 15\nvalue = [9, 6]"] ;
800 -> 802 ;
803 [label="ProductsUsed <= 16.5\ngini = 0.495\nsamples = 2867\nvalue = [1287, 1580]"] ;
589 -> 803 ;
804 [label="Geo_Code <= 2.5\ngini = 0.499\nsamples = 1905\nvalue = [916, 989]"] ;
803 -> 804 ;
805 [label="ProductsUsed <= 15.5\ngini = 0.438\nsamples = 99\nvalue = [67, 32]"] ;
804 -> 805 ;
806 [label="totalBilled <= 35.0\ngini = 0.462\nsamples = 80\nvalue = [51, 29]"] ;
805 -> 806 ;
807 [label="totalBilled <= 12.5\ngini = 0.5\nsamples = 32\nvalue = [16, 16]"] ;
806 -> 807 ;
808 [label="gini = 0.278\nsamples = 12\nvalue = [10, 2]"] ;
807 -> 808 ;
809 [label="totalBilled <= 20.0\ngini = 0.42\nsamples = 20\nvalue = [6, 14]"] ;
807 -> 809 ;
810 [label="gini = 0.18\nsamples = 10\nvalue = [1, 9]"] ;
809 -> 810 ;
811 [label="gini = 0.5\nsamples = 10\nvalue = [5, 5]"] ;
809 -> 811 ;
812 [label="Customer_size <= 0.5\ngini = 0.395\nsamples = 48\nvalue = [35, 13]"] ;
806 -> 812 ;
813 [label="totalBilled <= 54.5\ngini = 0.361\nsamples = 38\nvalue = [29, 9]"] ;
812 -> 813 ;
814 [label="gini = 0.432\nsamples = 19\nvalue = [13, 6]"] ;
813 -> 814 ;
815 [label="gini = 0.266\nsamples = 19\nvalue = [16, 3]"] ;
813 -> 815 ;
816 [label="gini = 0.48\nsamples = 10\nvalue = [6, 4]"] ;
812 -> 816 ;
817 [label="gini = 0.266\nsamples = 19\nvalue = [16, 3]"] ;
805 -> 817 ;
818 [label="totalBilled <= 34.5\ngini = 0.498\nsamples = 1806\nvalue = [849, 957]"] ;
804 -> 818 ;
819 [label="totalBilled <= 26.5\ngini = 0.482\nsamples = 436\nvalue = [177, 259]"] ;
818 -> 819 ;
820 [label="totalBilled <= 6.5\ngini = 0.498\nsamples = 299\nvalue = [140, 159]"] ;
819 -> 820 ;
821 [label="ProductsUsed <= 14.5\ngini = 0.464\nsamples = 41\nvalue = [26, 15]"] ;
820 -> 821 ;
822 [label="totalBilled <= 4.5\ngini = 0.365\nsamples = 25\nvalue = [19, 6]"] ;
821 -> 822 ;
823 [label="gini = 0.337\nsamples = 14\nvalue = [11, 3]"] ;
822 -> 823 ;
824 [label="gini = 0.397\nsamples = 11\nvalue = [8, 3]"] ;
822 -> 824 ;
825 [label="gini = 0.492\nsamples = 16\nvalue = [7, 9]"] ;
821 -> 825 ;
826 [label="totalBilled <= 19.5\ngini = 0.493\nsamples = 258\nvalue = [114, 144]"] ;
820 -> 826 ;
827 [label="totalBilled <= 16.5\ngini = 0.472\nsamples = 147\nvalue = [56, 91]"] ;
826 -> 827 ;
828 [label="gini = 0.492\nsamples = 105\nvalue = [46, 59]"] ;
827 -> 828 ;
829 [label="gini = 0.363\nsamples = 42\nvalue = [10, 32]"] ;
827 -> 829 ;
830 [label="totalBilled <= 21.5\ngini = 0.499\nsamples = 111\nvalue = [58, 53]"] ;
826 -> 830 ;
831 [label="gini = 0.475\nsamples = 31\nvalue = [19, 12]"] ;
830 -> 831 ;
832 [label="gini = 0.5\nsamples = 80\nvalue = [39, 41]"] ;
830 -> 832 ;
833 [label="ProductsUsed <= 13.5\ngini = 0.394\nsamples = 137\nvalue = [37, 100]"] ;
819 -> 833 ;
834 [label="totalBilled <= 31.5\ngini = 0.498\nsamples = 30\nvalue = [14, 16]"] ;
833 -> 834 ;
835 [label="gini = 0.494\nsamples = 18\nvalue = [10, 8]"] ;
834 -> 835 ;
836 [label="gini = 0.444\nsamples = 12\nvalue = [4, 8]"] ;
834 -> 836 ;
837 [label="Geo_Code <= 4.5\ngini = 0.337\nsamples = 107\nvalue = [23, 84]"] ;
833 -> 837 ;
838 [label="ProductsUsed <= 15.5\ngini = 0.403\nsamples = 25\nvalue = [7, 18]"] ;
837 -> 838 ;
839 [label="gini = 0.486\nsamples = 12\nvalue = [5, 7]"] ;
838 -> 839 ;
840 [label="gini = 0.26\nsamples = 13\nvalue = [2, 11]"] ;
838 -> 840 ;
841 [label="Geo_Code <= 5.5\ngini = 0.314\nsamples = 82\nvalue = [16, 66]"] ;
837 -> 841 ;
842 [label="gini = 0.0\nsamples = 15\nvalue = [0, 15]"] ;
841 -> 842 ;
843 [label="gini = 0.364\nsamples = 67\nvalue = [16, 51]"] ;
841 -> 843 ;
844 [label="Geo_Code <= 5.5\ngini = 0.5\nsamples = 1370\nvalue = [672, 698]"] ;
818 -> 844 ;
845 [label="totalBilled <= 75.5\ngini = 0.495\nsamples = 509\nvalue = [230, 279]"] ;
844 -> 845 ;
846 [label="totalBilled <= 66.5\ngini = 0.5\nsamples = 352\nvalue = [173, 179]"] ;
845 -> 846 ;
847 [label="totalBilled <= 61.5\ngini = 0.496\nsamples = 272\nvalue = [124, 148]"] ;
846 -> 847 ;
848 [label="gini = 0.499\nsamples = 238\nvalue = [113, 125]"] ;
847 -> 848 ;
849 [label="gini = 0.438\nsamples = 34\nvalue = [11, 23]"] ;
847 -> 849 ;
850 [label="totalBilled <= 69.5\ngini = 0.475\nsamples = 80\nvalue = [49, 31]"] ;
846 -> 850 ;
851 [label="gini = 0.337\nsamples = 28\nvalue = [22, 6]"] ;
850 -> 851 ;
852 [label="gini = 0.499\nsamples = 52\nvalue = [27, 25]"] ;
850 -> 852 ;
853 [label="totalBilled <= 109.5\ngini = 0.462\nsamples = 157\nvalue = [57, 100]"] ;
845 -> 853 ;
854 [label="totalBilled <= 99.5\ngini = 0.43\nsamples = 112\nvalue = [35, 77]"] ;
853 -> 854 ;
855 [label="gini = 0.454\nsamples = 92\nvalue = [32, 60]"] ;
854 -> 855 ;
856 [label="gini = 0.255\nsamples = 20\nvalue = [3, 17]"] ;
854 -> 856 ;
857 [label="totalBilled <= 115.5\ngini = 0.5\nsamples = 45\nvalue = [22, 23]"] ;
853 -> 857 ;
858 [label="gini = 0.231\nsamples = 15\nvalue = [13, 2]"] ;
857 -> 858 ;
859 [label="gini = 0.42\nsamples = 30\nvalue = [9, 21]"] ;
857 -> 859 ;
860 [label="Customer_size <= 1.5\ngini = 0.5\nsamples = 861\nvalue = [442, 419]"] ;
844 -> 860 ;
861 [label="totalBilled <= 51.5\ngini = 0.499\nsamples = 838\nvalue = [436, 402]"] ;
860 -> 861 ;
862 [label="Customer_size <= 0.5\ngini = 0.484\nsamples = 209\nvalue = [123, 86]"] ;
861 -> 862 ;
863 [label="gini = 0.491\nsamples = 190\nvalue = [108, 82]"] ;
862 -> 863 ;
864 [label="gini = 0.332\nsamples = 19\nvalue = [15, 4]"] ;
862 -> 864 ;
865 [label="totalBilled <= 56.5\ngini = 0.5\nsamples = 629\nvalue = [313, 316]"] ;
861 -> 865 ;
866 [label="gini = 0.448\nsamples = 65\nvalue = [22, 43]"] ;
865 -> 866 ;
867 [label="gini = 0.499\nsamples = 564\nvalue = [291, 273]"] ;
865 -> 867 ;
868 [label="totalBilled <= 70.5\ngini = 0.386\nsamples = 23\nvalue = [6, 17]"] ;
860 -> 868 ;
869 [label="gini = 0.165\nsamples = 11\nvalue = [1, 10]"] ;
868 -> 869 ;
870 [label="gini = 0.486\nsamples = 12\nvalue = [5, 7]"] ;
868 -> 870 ;
871 [label="customer_age <= 2.0\ngini = 0.474\nsamples = 962\nvalue = [371, 591]"] ;
803 -> 871 ;
872 [label="totalBilled <= 73.5\ngini = 0.483\nsamples = 868\nvalue = [353, 515]"] ;
871 -> 872 ;
873 [label="totalBilled <= 8.5\ngini = 0.466\nsamples = 567\nvalue = [210, 357]"] ;
872 -> 873 ;
874 [label="gini = 0.153\nsamples = 12\nvalue = [1, 11]"] ;
873 -> 874 ;
875 [label="totalBilled <= 69.5\ngini = 0.47\nsamples = 555\nvalue = [209, 346]"] ;
873 -> 875 ;
876 [label="Customer_size <= 0.5\ngini = 0.475\nsamples = 513\nvalue = [199, 314]"] ;
875 -> 876 ;
877 [label="totalBilled <= 53.5\ngini = 0.471\nsamples = 497\nvalue = [189, 308]"] ;
876 -> 877 ;
878 [label="gini = 0.457\nsamples = 346\nvalue = [122, 224]"] ;
877 -> 878 ;
879 [label="gini = 0.494\nsamples = 151\nvalue = [67, 84]"] ;
877 -> 879 ;
880 [label="gini = 0.469\nsamples = 16\nvalue = [10, 6]"] ;
876 -> 880 ;
881 [label="totalBilled <= 72.5\ngini = 0.363\nsamples = 42\nvalue = [10, 32]"] ;
875 -> 881 ;
882 [label="Geo_Code <= 5.5\ngini = 0.293\nsamples = 28\nvalue = [5, 23]"] ;
881 -> 882 ;
883 [label="gini = 0.32\nsamples = 10\nvalue = [2, 8]"] ;
882 -> 883 ;
884 [label="gini = 0.278\nsamples = 18\nvalue = [3, 15]"] ;
882 -> 884 ;
885 [label="gini = 0.459\nsamples = 14\nvalue = [5, 9]"] ;
881 -> 885 ;
886 [label="Geo_Code <= 5.5\ngini = 0.499\nsamples = 301\nvalue = [143, 158]"] ;
872 -> 886 ;
887 [label="ProductsUsed <= 17.5\ngini = 0.418\nsamples = 74\nvalue = [22, 52]"] ;
886 -> 887 ;
888 [label="totalBilled <= 85.5\ngini = 0.493\nsamples = 34\nvalue = [15, 19]"] ;
887 -> 888 ;
889 [label="gini = 0.375\nsamples = 16\nvalue = [4, 12]"] ;
888 -> 889 ;
890 [label="gini = 0.475\nsamples = 18\nvalue = [11, 7]"] ;
888 -> 890 ;
891 [label="totalBilled <= 81.0\ngini = 0.289\nsamples = 40\nvalue = [7, 33]"] ;
887 -> 891 ;
892 [label="gini = 0.142\nsamples = 13\nvalue = [1, 12]"] ;
891 -> 892 ;
893 [label="totalBilled <= 99.5\ngini = 0.346\nsamples = 27\nvalue = [6, 21]"] ;
891 -> 893 ;
894 [label="gini = 0.415\nsamples = 17\nvalue = [5, 12]"] ;
893 -> 894 ;
895 [label="gini = 0.18\nsamples = 10\nvalue = [1, 9]"] ;
893 -> 895 ;
896 [label="totalBilled <= 119.5\ngini = 0.498\nsamples = 227\nvalue = [121, 106]"] ;
886 -> 896 ;
897 [label="totalBilled <= 82.5\ngini = 0.489\nsamples = 192\nvalue = [110, 82]"] ;
896 -> 897 ;
898 [label="ProductsUsed <= 17.5\ngini = 0.444\nsamples = 54\nvalue = [36, 18]"] ;
897 -> 898 ;
899 [label="gini = 0.413\nsamples = 24\nvalue = [17, 7]"] ;
898 -> 899 ;
900 [label="gini = 0.464\nsamples = 30\nvalue = [19, 11]"] ;
898 -> 900 ;
901 [label="ProductsUsed <= 17.5\ngini = 0.497\nsamples = 138\nvalue = [74, 64]"] ;
897 -> 901 ;
902 [label="gini = 0.5\nsamples = 65\nvalue = [32, 33]"] ;
901 -> 902 ;
903 [label="gini = 0.489\nsamples = 73\nvalue = [42, 31]"] ;
901 -> 903 ;
904 [label="totalBilled <= 126.5\ngini = 0.431\nsamples = 35\nvalue = [11, 24]"] ;
896 -> 904 ;
905 [label="gini = 0.48\nsamples = 15\nvalue = [6, 9]"] ;
904 -> 905 ;
906 [label="ProductsUsed <= 17.5\ngini = 0.375\nsamples = 20\nvalue = [5, 15]"] ;
904 -> 906 ;
907 [label="gini = 0.48\nsamples = 10\nvalue = [4, 6]"] ;
906 -> 907 ;
908 [label="gini = 0.18\nsamples = 10\nvalue = [1, 9]"] ;
906 -> 908 ;
909 [label="totalBilled <= 65.5\ngini = 0.31\nsamples = 94\nvalue = [18, 76]"] ;
871 -> 909 ;
910 [label="totalBilled <= 31.5\ngini = 0.201\nsamples = 53\nvalue = [6, 47]"] ;
909 -> 910 ;
911 [label="gini = 0.401\nsamples = 18\nvalue = [5, 13]"] ;
910 -> 911 ;
912 [label="Geo_Code <= 5.5\ngini = 0.056\nsamples = 35\nvalue = [1, 34]"] ;
910 -> 912 ;
913 [label="gini = 0.153\nsamples = 12\nvalue = [1, 11]"] ;
912 -> 913 ;
914 [label="gini = 0.0\nsamples = 23\nvalue = [0, 23]"] ;
912 -> 914 ;
915 [label="totalBilled <= 78.5\ngini = 0.414\nsamples = 41\nvalue = [12, 29]"] ;
909 -> 915 ;
916 [label="gini = 0.486\nsamples = 12\nvalue = [7, 5]"] ;
915 -> 916 ;
917 [label="totalBilled <= 96.0\ngini = 0.285\nsamples = 29\nvalue = [5, 24]"] ;
915 -> 917 ;
918 [label="gini = 0.117\nsamples = 16\nvalue = [1, 15]"] ;
917 -> 918 ;
919 [label="gini = 0.426\nsamples = 13\nvalue = [4, 9]"] ;
917 -> 919 ;
920 [label="customer_age <= 0.5\ngini = 0.483\nsamples = 12140\nvalue = [4967, 7173]"] ;
588 -> 920 ;
921 [label="ProductsUsed <= 21.5\ngini = 0.496\nsamples = 8745\nvalue = [4006, 4739]"] ;
920 -> 921 ;
922 [label="totalBilled <= 8.5\ngini = 0.5\nsamples = 4645\nvalue = [2358, 2287]"] ;
921 -> 922 ;
923 [label="totalBilled <= 4.5\ngini = 0.474\nsamples = 215\nvalue = [132, 83]"] ;
922 -> 923 ;
924 [label="Geo_Code <= 3.5\ngini = 0.499\nsamples = 83\nvalue = [43, 40]"] ;
923 -> 924 ;
925 [label="ProductsUsed <= 19.5\ngini = 0.469\nsamples = 24\nvalue = [9, 15]"] ;
924 -> 925 ;
926 [label="gini = 0.49\nsamples = 14\nvalue = [6, 8]"] ;
925 -> 926 ;
927 [label="gini = 0.42\nsamples = 10\nvalue = [3, 7]"] ;
925 -> 927 ;
928 [label="totalBilled <= 3.5\ngini = 0.488\nsamples = 59\nvalue = [34, 25]"] ;
924 -> 928 ;
929 [label="ProductsUsed <= 19.5\ngini = 0.475\nsamples = 36\nvalue = [22, 14]"] ;
928 -> 929 ;
930 [label="gini = 0.426\nsamples = 13\nvalue = [9, 4]"] ;
929 -> 930 ;
931 [label="totalBilled <= 2.5\ngini = 0.491\nsamples = 23\nvalue = [13, 10]"] ;
929 -> 931 ;
932 [label="gini = 0.48\nsamples = 10\nvalue = [6, 4]"] ;
931 -> 932 ;
933 [label="gini = 0.497\nsamples = 13\nvalue = [7, 6]"] ;
931 -> 933 ;
934 [label="Geo_Code <= 5.5\ngini = 0.499\nsamples = 23\nvalue = [12, 11]"] ;
928 -> 934 ;
935 [label="gini = 0.486\nsamples = 12\nvalue = [7, 5]"] ;
934 -> 935 ;
936 [label="gini = 0.496\nsamples = 11\nvalue = [5, 6]"] ;
934 -> 936 ;
937 [label="totalBilled <= 7.5\ngini = 0.439\nsamples = 132\nvalue = [89, 43]"] ;
923 -> 937 ;
938 [label="totalBilled <= 6.5\ngini = 0.459\nsamples = 98\nvalue = [63, 35]"] ;
937 -> 938 ;
939 [label="Geo_Code <= 5.5\ngini = 0.415\nsamples = 51\nvalue = [36, 15]"] ;
938 -> 939 ;
940 [label="ProductsUsed <= 19.5\ngini = 0.32\nsamples = 30\nvalue = [24, 6]"] ;
939 -> 940 ;
941 [label="gini = 0.391\nsamples = 15\nvalue = [11, 4]"] ;
940 -> 941 ;
942 [label="gini = 0.231\nsamples = 15\nvalue = [13, 2]"] ;
940 -> 942 ;
943 [label="gini = 0.49\nsamples = 21\nvalue = [12, 9]"] ;
939 -> 943 ;
944 [label="ProductsUsed <= 20.5\ngini = 0.489\nsamples = 47\nvalue = [27, 20]"] ;
938 -> 944 ;
945 [label="Geo_Code <= 5.5\ngini = 0.47\nsamples = 37\nvalue = [23, 14]"] ;
944 -> 945 ;
946 [label="gini = 0.488\nsamples = 26\nvalue = [15, 11]"] ;
945 -> 946 ;
947 [label="gini = 0.397\nsamples = 11\nvalue = [8, 3]"] ;
945 -> 947 ;
948 [label="gini = 0.48\nsamples = 10\nvalue = [4, 6]"] ;
944 -> 948 ;
949 [label="Geo_Code <= 5.5\ngini = 0.36\nsamples = 34\nvalue = [26, 8]"] ;
937 -> 949 ;
950 [label="Geo_Code <= 4.5\ngini = 0.413\nsamples = 24\nvalue = [17, 7]"] ;
949 -> 950 ;
951 [label="gini = 0.337\nsamples = 14\nvalue = [11, 3]"] ;
950 -> 951 ;
952 [label="gini = 0.48\nsamples = 10\nvalue = [6, 4]"] ;
950 -> 952 ;
953 [label="gini = 0.18\nsamples = 10\nvalue = [9, 1]"] ;
949 -> 953 ;
954 [label="totalBilled <= 49.5\ngini = 0.5\nsamples = 4430\nvalue = [2226, 2204]"] ;
922 -> 954 ;
955 [label="Geo_Code <= 3.5\ngini = 0.499\nsamples = 2209\nvalue = [1054, 1155]"] ;
954 -> 955 ;
956 [label="totalBilled <= 36.5\ngini = 0.498\nsamples = 277\nvalue = [147, 130]"] ;
955 -> 956 ;
957 [label="totalBilled <= 34.5\ngini = 0.485\nsamples = 189\nvalue = [111, 78]"] ;
956 -> 957 ;
958 [label="Geo_Code <= 2.5\ngini = 0.49\nsamples = 179\nvalue = [102, 77]"] ;
957 -> 958 ;
959 [label="gini = 0.476\nsamples = 23\nvalue = [9, 14]"] ;
958 -> 959 ;
960 [label="gini = 0.482\nsamples = 156\nvalue = [93, 63]"] ;
958 -> 960 ;
961 [label="gini = 0.18\nsamples = 10\nvalue = [9, 1]"] ;
957 -> 961 ;
962 [label="ProductsUsed <= 19.5\ngini = 0.483\nsamples = 88\nvalue = [36, 52]"] ;
956 -> 962 ;
963 [label="totalBilled <= 40.5\ngini = 0.497\nsamples = 37\nvalue = [20, 17]"] ;
962 -> 963 ;
964 [label="gini = 0.444\nsamples = 12\nvalue = [8, 4]"] ;
963 -> 964 ;
965 [label="gini = 0.499\nsamples = 25\nvalue = [12, 13]"] ;
963 -> 965 ;
966 [label="totalBilled <= 46.5\ngini = 0.431\nsamples = 51\nvalue = [16, 35]"] ;
962 -> 966 ;
967 [label="gini = 0.45\nsamples = 41\nvalue = [14, 27]"] ;
966 -> 967 ;
968 [label="gini = 0.32\nsamples = 10\nvalue = [2, 8]"] ;
966 -> 968 ;
969 [label="totalBilled <= 30.5\ngini = 0.498\nsamples = 1932\nvalue = [907, 1025]"] ;
955 -> 969 ;
970 [label="Geo_Code <= 5.5\ngini = 0.493\nsamples = 896\nvalue = [395, 501]"] ;
969 -> 970 ;
971 [label="ProductsUsed <= 19.5\ngini = 0.483\nsamples = 471\nvalue = [192, 279]"] ;
970 -> 971 ;
972 [label="gini = 0.47\nsamples = 191\nvalue = [72, 119]"] ;
971 -> 972 ;
973 [label="gini = 0.49\nsamples = 280\nvalue = [120, 160]"] ;
971 -> 973 ;
974 [label="totalBilled <= 18.5\ngini = 0.499\nsamples = 425\nvalue = [203, 222]"] ;
970 -> 974 ;
975 [label="gini = 0.499\nsamples = 149\nvalue = [77, 72]"] ;
974 -> 975 ;
976 [label="gini = 0.496\nsamples = 276\nvalue = [126, 150]"] ;
974 -> 976 ;
977 [label="totalBilled <= 32.5\ngini = 0.5\nsamples = 1036\nvalue = [512, 524]"] ;
969 -> 977 ;
978 [label="Geo_Code <= 4.5\ngini = 0.484\nsamples = 117\nvalue = [69, 48]"] ;
977 -> 978 ;
979 [label="gini = 0.434\nsamples = 22\nvalue = [15, 7]"] ;
978 -> 979 ;
980 [label="gini = 0.491\nsamples = 95\nvalue = [54, 41]"] ;
978 -> 980 ;
981 [label="Geo_Code <= 4.5\ngini = 0.499\nsamples = 919\nvalue = [443, 476]"] ;
977 -> 981 ;
982 [label="gini = 0.485\nsamples = 109\nvalue = [45, 64]"] ;
981 -> 982 ;
983 [label="gini = 0.5\nsamples = 810\nvalue = [398, 412]"] ;
981 -> 983 ;
984 [label="totalBilled <= 131.5\ngini = 0.498\nsamples = 2221\nvalue = [1172, 1049]"] ;
954 -> 984 ;
985 [label="totalBilled <= 125.5\ngini = 0.498\nsamples = 2167\nvalue = [1153, 1014]"] ;
984 -> 985 ;
986 [label="ProductsUsed <= 19.5\ngini = 0.498\nsamples = 2133\nvalue = [1129, 1004]"] ;
985 -> 986 ;
987 [label="totalBilled <= 122.5\ngini = 0.494\nsamples = 839\nvalue = [466, 373]"] ;
986 -> 987 ;
988 [label="gini = 0.493\nsamples = 827\nvalue = [463, 364]"] ;
987 -> 988 ;
989 [label="gini = 0.375\nsamples = 12\nvalue = [3, 9]"] ;
987 -> 989 ;
990 [label="Geo_Code <= 5.5\ngini = 0.5\nsamples = 1294\nvalue = [663, 631]"] ;
986 -> 990 ;
991 [label="gini = 0.499\nsamples = 578\nvalue = [279, 299]"] ;
990 -> 991 ;
992 [label="gini = 0.497\nsamples = 716\nvalue = [384, 332]"] ;
990 -> 992 ;
993 [label="totalBilled <= 126.5\ngini = 0.415\nsamples = 34\nvalue = [24, 10]"] ;
985 -> 993 ;
994 [label="gini = 0.18\nsamples = 10\nvalue = [9, 1]"] ;
993 -> 994 ;
995 [label="totalBilled <= 129.5\ngini = 0.469\nsamples = 24\nvalue = [15, 9]"] ;
993 -> 995 ;
996 [label="gini = 0.5\nsamples = 10\nvalue = [5, 5]"] ;
995 -> 996 ;
997 [label="gini = 0.408\nsamples = 14\nvalue = [10, 4]"] ;
995 -> 997 ;
998 [label="totalBilled <= 155.5\ngini = 0.456\nsamples = 54\nvalue = [19, 35]"] ;
984 -> 998 ;
999 [label="Geo_Code <= 5.5\ngini = 0.397\nsamples = 44\nvalue = [12, 32]"] ;
998 -> 999 ;
1000 [label="gini = 0.18\nsamples = 10\nvalue = [1, 9]"] ;
999 -> 1000 ;
1001 [label="totalBilled <= 141.5\ngini = 0.438\nsamples = 34\nvalue = [11, 23]"] ;
999 -> 1001 ;
1002 [label="gini = 0.397\nsamples = 22\nvalue = [6, 16]"] ;
1001 -> 1002 ;
1003 [label="gini = 0.486\nsamples = 12\nvalue = [5, 7]"] ;
1001 -> 1003 ;
1004 [label="gini = 0.42\nsamples = 10\nvalue = [7, 3]"] ;
998 -> 1004 ;
1005 [label="ProductsUsed <= 28.5\ngini = 0.481\nsamples = 4100\nvalue = [1648, 2452]"] ;
921 -> 1005 ;
1006 [label="totalBilled <= 7.5\ngini = 0.487\nsamples = 3590\nvalue = [1503, 2087]"] ;
1005 -> 1006 ;
1007 [label="Geo_Code <= 3.5\ngini = 0.478\nsamples = 96\nvalue = [58, 38]"] ;
1006 -> 1007 ;
1008 [label="gini = 0.488\nsamples = 19\nvalue = [8, 11]"] ;
1007 -> 1008 ;
1009 [label="Geo_Code <= 5.5\ngini = 0.455\nsamples = 77\nvalue = [50, 27]"] ;
1007 -> 1009 ;
1010 [label="ProductsUsed <= 24.5\ngini = 0.397\nsamples = 44\nvalue = [32, 12]"] ;
1009 -> 1010 ;
1011 [label="ProductsUsed <= 22.5\ngini = 0.342\nsamples = 32\nvalue = [25, 7]"] ;
1010 -> 1011 ;
1012 [label="gini = 0.415\nsamples = 17\nvalue = [12, 5]"] ;
1011 -> 1012 ;
1013 [label="gini = 0.231\nsamples = 15\nvalue = [13, 2]"] ;
1011 -> 1013 ;
1014 [label="gini = 0.486\nsamples = 12\nvalue = [7, 5]"] ;
1010 -> 1014 ;
1015 [label="totalBilled <= 3.5\ngini = 0.496\nsamples = 33\nvalue = [18, 15]"] ;
1009 -> 1015 ;
1016 [label="gini = 0.463\nsamples = 11\nvalue = [7, 4]"] ;
1015 -> 1016 ;
1017 [label="ProductsUsed <= 23.5\ngini = 0.5\nsamples = 22\nvalue = [11, 11]"] ;
1015 -> 1017 ;
1018 [label="gini = 0.5\nsamples = 10\nvalue = [5, 5]"] ;
1017 -> 1018 ;
1019 [label="gini = 0.5\nsamples = 12\nvalue = [6, 6]"] ;
1017 -> 1019 ;
1020 [label="ProductsUsed <= 24.5\ngini = 0.485\nsamples = 3494\nvalue = [1445, 2049]"] ;
1006 -> 1020 ;
1021 [label="totalBilled <= 149.5\ngini = 0.491\nsamples = 2272\nvalue = [983, 1289]"] ;
1020 -> 1021 ;
1022 [label="totalBilled <= 50.5\ngini = 0.491\nsamples = 2262\nvalue = [983, 1279]"] ;
1021 -> 1022 ;
1023 [label="Geo_Code <= 4.5\ngini = 0.484\nsamples = 1154\nvalue = [473, 681]"] ;
1022 -> 1023 ;
1024 [label="gini = 0.498\nsamples = 259\nvalue = [122, 137]"] ;
1023 -> 1024 ;
1025 [label="gini = 0.477\nsamples = 895\nvalue = [351, 544]"] ;
1023 -> 1025 ;
1026 [label="Geo_Code <= 5.5\ngini = 0.497\nsamples = 1108\nvalue = [510, 598]"] ;
1022 -> 1026 ;
1027 [label="gini = 0.486\nsamples = 485\nvalue = [202, 283]"] ;
1026 -> 1027 ;
1028 [label="gini = 0.5\nsamples = 623\nvalue = [308, 315]"] ;
1026 -> 1028 ;
1029 [label="gini = 0.0\nsamples = 10\nvalue = [0, 10]"] ;
1021 -> 1029 ;
1030 [label="totalBilled <= 69.5\ngini = 0.47\nsamples = 1222\nvalue = [462, 760]"] ;
1020 -> 1030 ;
1031 [label="totalBilled <= 40.5\ngini = 0.478\nsamples = 847\nvalue = [335, 512]"] ;
1030 -> 1031 ;
1032 [label="Geo_Code <= 5.5\ngini = 0.465\nsamples = 441\nvalue = [162, 279]"] ;
1031 -> 1032 ;
1033 [label="gini = 0.439\nsamples = 231\nvalue = [75, 156]"] ;
1032 -> 1033 ;
1034 [label="gini = 0.485\nsamples = 210\nvalue = [87, 123]"] ;
1032 -> 1034 ;
1035 [label="totalBilled <= 47.5\ngini = 0.489\nsamples = 406\nvalue = [173, 233]"] ;
1031 -> 1035 ;
1036 [label="gini = 0.5\nsamples = 115\nvalue = [58, 57]"] ;
1035 -> 1036 ;
1037 [label="gini = 0.478\nsamples = 291\nvalue = [115, 176]"] ;
1035 -> 1037 ;
1038 [label="totalBilled <= 74.5\ngini = 0.448\nsamples = 375\nvalue = [127, 248]"] ;
1030 -> 1038 ;
1039 [label="totalBilled <= 71.5\ngini = 0.316\nsamples = 61\nvalue = [12, 49]"] ;
1038 -> 1039 ;
1040 [label="gini = 0.375\nsamples = 24\nvalue = [6, 18]"] ;
1039 -> 1040 ;
1041 [label="gini = 0.272\nsamples = 37\nvalue = [6, 31]"] ;
1039 -> 1041 ;
1042 [label="Geo_Code <= 5.5\ngini = 0.464\nsamples = 314\nvalue = [115, 199]"] ;
1038 -> 1042 ;
1043 [label="gini = 0.44\nsamples = 156\nvalue = [51, 105]"] ;
1042 -> 1043 ;
1044 [label="gini = 0.482\nsamples = 158\nvalue = [64, 94]"] ;
1042 -> 1044 ;
1045 [label="totalBilled <= 7.5\ngini = 0.407\nsamples = 510\nvalue = [145, 365]"] ;
1005 -> 1045 ;
1046 [label="gini = 0.465\nsamples = 19\nvalue = [12, 7]"] ;
1045 -> 1046 ;
1047 [label="totalBilled <= 124.0\ngini = 0.395\nsamples = 491\nvalue = [133, 358]"] ;
1045 -> 1047 ;
1048 [label="totalBilled <= 111.5\ngini = 0.391\nsamples = 477\nvalue = [127, 350]"] ;
1047 -> 1048 ;
1049 [label="totalBilled <= 62.5\ngini = 0.395\nsamples = 465\nvalue = [126, 339]"] ;
1048 -> 1049 ;
1050 [label="totalBilled <= 47.5\ngini = 0.377\nsamples = 302\nvalue = [76, 226]"] ;
1049 -> 1050 ;
1051 [label="gini = 0.41\nsamples = 215\nvalue = [62, 153]"] ;
1050 -> 1051 ;
1052 [label="gini = 0.27\nsamples = 87\nvalue = [14, 73]"] ;
1050 -> 1052 ;
1053 [label="totalBilled <= 71.5\ngini = 0.425\nsamples = 163\nvalue = [50, 113]"] ;
1049 -> 1053 ;
1054 [label="gini = 0.495\nsamples = 49\nvalue = [22, 27]"] ;
1053 -> 1054 ;
1055 [label="gini = 0.371\nsamples = 114\nvalue = [28, 86]"] ;
1053 -> 1055 ;
1056 [label="gini = 0.153\nsamples = 12\nvalue = [1, 11]"] ;
1048 -> 1056 ;
1057 [label="gini = 0.49\nsamples = 14\nvalue = [6, 8]"] ;
1047 -> 1057 ;
1058 [label="ProductsUsed <= 24.5\ngini = 0.406\nsamples = 3395\nvalue = [961, 2434]"] ;
920 -> 1058 ;
1059 [label="totalBilled <= 68.5\ngini = 0.444\nsamples = 2026\nvalue = [674, 1352]"] ;
1058 -> 1059 ;
1060 [label="customer_age <= 2.0\ngini = 0.414\nsamples = 1239\nvalue = [363, 876]"] ;
1059 -> 1060 ;
1061 [label="totalBilled <= 52.5\ngini = 0.428\nsamples = 1071\nvalue = [332, 739]"] ;
1060 -> 1061 ;
1062 [label="Geo_Code <= 5.5\ngini = 0.407\nsamples = 713\nvalue = [203, 510]"] ;
1061 -> 1062 ;
1063 [label="totalBilled <= 50.5\ngini = 0.37\nsamples = 318\nvalue = [78, 240]"] ;
1062 -> 1063 ;
1064 [label="Geo_Code <= 3.5\ngini = 0.378\nsamples = 304\nvalue = [77, 227]"] ;
1063 -> 1064 ;
1065 [label="gini = 0.428\nsamples = 87\nvalue = [27, 60]"] ;
1064 -> 1065 ;
1066 [label="gini = 0.355\nsamples = 217\nvalue = [50, 167]"] ;
1064 -> 1066 ;
1067 [label="gini = 0.133\nsamples = 14\nvalue = [1, 13]"] ;
1063 -> 1067 ;
1068 [label="totalBilled <= 19.5\ngini = 0.433\nsamples = 395\nvalue = [125, 270]"] ;
1062 -> 1068 ;
1069 [label="totalBilled <= 15.5\ngini = 0.493\nsamples = 59\nvalue = [26, 33]"] ;
1068 -> 1069 ;
1070 [label="gini = 0.472\nsamples = 42\nvalue = [16, 26]"] ;
1069 -> 1070 ;
1071 [label="gini = 0.484\nsamples = 17\nvalue = [10, 7]"] ;
1069 -> 1071 ;
1072 [label="totalBilled <= 46.5\ngini = 0.416\nsamples = 336\nvalue = [99, 237]"] ;
1068 -> 1072 ;
1073 [label="gini = 0.4\nsamples = 271\nvalue = [75, 196]"] ;
1072 -> 1073 ;
1074 [label="gini = 0.466\nsamples = 65\nvalue = [24, 41]"] ;
1072 -> 1074 ;
1075 [label="Geo_Code <= 3.5\ngini = 0.461\nsamples = 358\nvalue = [129, 229]"] ;
1061 -> 1075 ;
1076 [label="totalBilled <= 57.5\ngini = 0.497\nsamples = 28\nvalue = [15, 13]"] ;
1075 -> 1076 ;
1077 [label="gini = 0.484\nsamples = 17\nvalue = [10, 7]"] ;
1076 -> 1077 ;
1078 [label="gini = 0.496\nsamples = 11\nvalue = [5, 6]"] ;
1076 -> 1078 ;
1079 [label="Geo_Code <= 5.5\ngini = 0.452\nsamples = 330\nvalue = [114, 216]"] ;
1075 -> 1079 ;
1080 [label="ProductsUsed <= 22.5\ngini = 0.403\nsamples = 118\nvalue = [33, 85]"] ;
1079 -> 1080 ;
1081 [label="gini = 0.447\nsamples = 80\nvalue = [27, 53]"] ;
1080 -> 1081 ;
1082 [label="gini = 0.266\nsamples = 38\nvalue = [6, 32]"] ;
1080 -> 1082 ;
1083 [label="totalBilled <= 54.5\ngini = 0.472\nsamples = 212\nvalue = [81, 131]"] ;
1079 -> 1083 ;
1084 [label="gini = 0.49\nsamples = 28\nvalue = [16, 12]"] ;
1083 -> 1084 ;
1085 [label="gini = 0.457\nsamples = 184\nvalue = [65, 119]"] ;
1083 -> 1085 ;
1086 [label="Geo_Code <= 3.5\ngini = 0.301\nsamples = 168\nvalue = [31, 137]"] ;
1060 -> 1086 ;
1087 [label="gini = 0.484\nsamples = 17\nvalue = [7, 10]"] ;
1086 -> 1087 ;
1088 [label="totalBilled <= 32.5\ngini = 0.267\nsamples = 151\nvalue = [24, 127]"] ;
1086 -> 1088 ;
1089 [label="ProductsUsed <= 20.5\ngini = 0.369\nsamples = 41\nvalue = [10, 31]"] ;
1088 -> 1089 ;
1090 [label="gini = 0.498\nsamples = 15\nvalue = [7, 8]"] ;
1089 -> 1090 ;
1091 [label="ProductsUsed <= 22.5\ngini = 0.204\nsamples = 26\nvalue = [3, 23]"] ;
1089 -> 1091 ;
1092 [label="gini = 0.117\nsamples = 16\nvalue = [1, 15]"] ;
1091 -> 1092 ;
1093 [label="gini = 0.32\nsamples = 10\nvalue = [2, 8]"] ;
1091 -> 1093 ;
1094 [label="totalBilled <= 41.5\ngini = 0.222\nsamples = 110\nvalue = [14, 96]"] ;
1088 -> 1094 ;
1095 [label="gini = 0.0\nsamples = 16\nvalue = [0, 16]"] ;
1094 -> 1095 ;
1096 [label="totalBilled <= 65.5\ngini = 0.254\nsamples = 94\nvalue = [14, 80]"] ;
1094 -> 1096 ;
1097 [label="gini = 0.283\nsamples = 82\nvalue = [14, 68]"] ;
1096 -> 1097 ;
1098 [label="gini = 0.0\nsamples = 12\nvalue = [0, 12]"] ;
1096 -> 1098 ;
1099 [label="customer_age <= 2.0\ngini = 0.478\nsamples = 787\nvalue = [311, 476]"] ;
1059 -> 1099 ;
1100 [label="totalBilled <= 122.5\ngini = 0.485\nsamples = 660\nvalue = [273, 387]"] ;
1099 -> 1100 ;
1101 [label="ProductsUsed <= 20.5\ngini = 0.49\nsamples = 596\nvalue = [255, 341]"] ;
1100 -> 1101 ;
1102 [label="totalBilled <= 74.5\ngini = 0.498\nsamples = 229\nvalue = [108, 121]"] ;
1101 -> 1102 ;
1103 [label="ProductsUsed <= 19.5\ngini = 0.433\nsamples = 41\nvalue = [13, 28]"] ;
1102 -> 1103 ;
1104 [label="gini = 0.476\nsamples = 23\nvalue = [9, 14]"] ;
1103 -> 1104 ;
1105 [label="gini = 0.346\nsamples = 18\nvalue = [4, 14]"] ;
1103 -> 1105 ;
1106 [label="totalBilled <= 85.5\ngini = 0.5\nsamples = 188\nvalue = [95, 93]"] ;
1102 -> 1106 ;
1107 [label="gini = 0.479\nsamples = 73\nvalue = [44, 29]"] ;
1106 -> 1107 ;
1108 [label="gini = 0.494\nsamples = 115\nvalue = [51, 64]"] ;
1106 -> 1108 ;
1109 [label="totalBilled <= 73.5\ngini = 0.48\nsamples = 367\nvalue = [147, 220]"] ;
1101 -> 1109 ;
1110 [label="totalBilled <= 72.5\ngini = 0.497\nsamples = 61\nvalue = [33, 28]"] ;
1109 -> 1110 ;
1111 [label="gini = 0.5\nsamples = 48\nvalue = [24, 24]"] ;
1110 -> 1111 ;
1112 [label="gini = 0.426\nsamples = 13\nvalue = [9, 4]"] ;
1110 -> 1112 ;
1113 [label="totalBilled <= 96.5\ngini = 0.468\nsamples = 306\nvalue = [114, 192]"] ;
1109 -> 1113 ;
1114 [label="gini = 0.449\nsamples = 188\nvalue = [64, 124]"] ;
1113 -> 1114 ;
1115 [label="gini = 0.488\nsamples = 118\nvalue = [50, 68]"] ;
1113 -> 1115 ;
1116 [label="totalBilled <= 141.5\ngini = 0.404\nsamples = 64\nvalue = [18, 46]"] ;
1100 -> 1116 ;
1117 [label="totalBilled <= 125.5\ngini = 0.44\nsamples = 49\nvalue = [16, 33]"] ;
1116 -> 1117 ;
1118 [label="gini = 0.346\nsamples = 18\nvalue = [4, 14]"] ;
1117 -> 1118 ;
1119 [label="ProductsUsed <= 21.5\ngini = 0.475\nsamples = 31\nvalue = [12, 19]"] ;
1117 -> 1119 ;
1120 [label="gini = 0.498\nsamples = 17\nvalue = [8, 9]"] ;
1119 -> 1120 ;
1121 [label="gini = 0.408\nsamples = 14\nvalue = [4, 10]"] ;
1119 -> 1121 ;
1122 [label="gini = 0.231\nsamples = 15\nvalue = [2, 13]"] ;
1116 -> 1122 ;
1123 [label="Geo_Code <= 4.5\ngini = 0.419\nsamples = 127\nvalue = [38, 89]"] ;
1099 -> 1123 ;
1124 [label="totalBilled <= 79.5\ngini = 0.499\nsamples = 23\nvalue = [12, 11]"] ;
1123 -> 1124 ;
1125 [label="gini = 0.48\nsamples = 10\nvalue = [4, 6]"] ;
1124 -> 1125 ;
1126 [label="gini = 0.473\nsamples = 13\nvalue = [8, 5]"] ;
1124 -> 1126 ;
1127 [label="totalBilled <= 78.5\ngini = 0.375\nsamples = 104\nvalue = [26, 78]"] ;
1123 -> 1127 ;
1128 [label="ProductsUsed <= 21.5\ngini = 0.476\nsamples = 23\nvalue = [9, 14]"] ;
1127 -> 1128 ;
1129 [label="gini = 0.42\nsamples = 10\nvalue = [3, 7]"] ;
1128 -> 1129 ;
1130 [label="gini = 0.497\nsamples = 13\nvalue = [6, 7]"] ;
1128 -> 1130 ;
1131 [label="totalBilled <= 85.5\ngini = 0.332\nsamples = 81\nvalue = [17, 64]"] ;
1127 -> 1131 ;
1132 [label="gini = 0.0\nsamples = 16\nvalue = [0, 16]"] ;
1131 -> 1132 ;
1133 [label="totalBilled <= 91.5\ngini = 0.386\nsamples = 65\nvalue = [17, 48]"] ;
1131 -> 1133 ;
1134 [label="gini = 0.49\nsamples = 14\nvalue = [6, 8]"] ;
1133 -> 1134 ;
1135 [label="gini = 0.338\nsamples = 51\nvalue = [11, 40]"] ;
1133 -> 1135 ;
1136 [label="Customer_size <= 0.5\ngini = 0.331\nsamples = 1369\nvalue = [287, 1082]"] ;
1058 -> 1136 ;
1137 [label="ProductsUsed <= 32.5\ngini = 0.358\nsamples = 1007\nvalue = [235, 772]"] ;
1136 -> 1137 ;
1138 [label="Geo_Code <= 3.5\ngini = 0.376\nsamples = 841\nvalue = [211, 630]"] ;
1137 -> 1138 ;
1139 [label="ProductsUsed <= 25.5\ngini = 0.458\nsamples = 76\nvalue = [27, 49]"] ;
1138 -> 1139 ;
1140 [label="gini = 0.26\nsamples = 13\nvalue = [2, 11]"] ;
1139 -> 1140 ;
1141 [label="totalBilled <= 77.5\ngini = 0.479\nsamples = 63\nvalue = [25, 38]"] ;
1139 -> 1141 ;
1142 [label="totalBilled <= 59.0\ngini = 0.449\nsamples = 53\nvalue = [18, 35]"] ;
1141 -> 1142 ;
1143 [label="gini = 0.484\nsamples = 39\nvalue = [16, 23]"] ;
1142 -> 1143 ;
1144 [label="gini = 0.245\nsamples = 14\nvalue = [2, 12]"] ;
1142 -> 1144 ;
1145 [label="gini = 0.42\nsamples = 10\nvalue = [7, 3]"] ;
1141 -> 1145 ;
1146 [label="ProductsUsed <= 28.5\ngini = 0.365\nsamples = 765\nvalue = [184, 581]"] ;
1138 -> 1146 ;
1147 [label="totalBilled <= 27.5\ngini = 0.383\nsamples = 516\nvalue = [133, 383]"] ;
1146 -> 1147 ;
1148 [label="totalBilled <= 24.5\ngini = 0.281\nsamples = 77\nvalue = [13, 64]"] ;
1147 -> 1148 ;
1149 [label="gini = 0.316\nsamples = 61\nvalue = [12, 49]"] ;
1148 -> 1149 ;
1150 [label="gini = 0.117\nsamples = 16\nvalue = [1, 15]"] ;
1148 -> 1150 ;
1151 [label="totalBilled <= 44.5\ngini = 0.397\nsamples = 439\nvalue = [120, 319]"] ;
1147 -> 1151 ;
1152 [label="gini = 0.469\nsamples = 88\nvalue = [33, 55]"] ;
1151 -> 1152 ;
1153 [label="gini = 0.373\nsamples = 351\nvalue = [87, 264]"] ;
1151 -> 1153 ;
1154 [label="totalBilled <= 16.5\ngini = 0.326\nsamples = 249\nvalue = [51, 198]"] ;
1146 -> 1154 ;
1155 [label="gini = 0.5\nsamples = 10\nvalue = [5, 5]"] ;
1154 -> 1155 ;
1156 [label="totalBilled <= 40.5\ngini = 0.311\nsamples = 239\nvalue = [46, 193]"] ;
1154 -> 1156 ;
1157 [label="gini = 0.174\nsamples = 52\nvalue = [5, 47]"] ;
1156 -> 1157 ;
1158 [label="gini = 0.342\nsamples = 187\nvalue = [41, 146]"] ;
1156 -> 1158 ;
1159 [label="totalBilled <= 72.5\ngini = 0.247\nsamples = 166\nvalue = [24, 142]"] ;
1137 -> 1159 ;
1160 [label="totalBilled <= 59.5\ngini = 0.139\nsamples = 93\nvalue = [7, 86]"] ;
1159 -> 1160 ;
1161 [label="totalBilled <= 34.5\ngini = 0.18\nsamples = 70\nvalue = [7, 63]"] ;
1160 -> 1161 ;
1162 [label="gini = 0.0\nsamples = 20\nvalue = [0, 20]"] ;
1161 -> 1162 ;
1163 [label="totalBilled <= 46.5\ngini = 0.241\nsamples = 50\nvalue = [7, 43]"] ;
1161 -> 1163 ;
1164 [label="gini = 0.351\nsamples = 22\nvalue = [5, 17]"] ;
1163 -> 1164 ;
1165 [label="gini = 0.133\nsamples = 28\nvalue = [2, 26]"] ;
1163 -> 1165 ;
1166 [label="gini = 0.0\nsamples = 23\nvalue = [0, 23]"] ;
1160 -> 1166 ;
1167 [label="ProductsUsed <= 34.5\ngini = 0.357\nsamples = 73\nvalue = [17, 56]"] ;
1159 -> 1167 ;
1168 [label="totalBilled <= 93.0\ngini = 0.225\nsamples = 31\nvalue = [4, 27]"] ;
1167 -> 1168 ;
1169 [label="gini = 0.117\nsamples = 16\nvalue = [1, 15]"] ;
1168 -> 1169 ;
1170 [label="gini = 0.32\nsamples = 15\nvalue = [3, 12]"] ;
1168 -> 1170 ;
1171 [label="totalBilled <= 107.0\ngini = 0.427\nsamples = 42\nvalue = [13, 29]"] ;
1167 -> 1171 ;
